105 64
50 0.3717927 -0.24356063 0.86380357 -0.80920786 0.21892704 -0.24522872 -0.20948547 0.86801016 0.3210761 -0.11351665 0.7758529 0.4466469 -0.065293446 -0.226633 0.24694283 0.16440065 0.60153157 0.418315 -0.2645767 0.6138563 0.56606305 0.24383819 0.28175884 -0.11521643 0.2062178 -0.63850296 -0.41529065 -0.15125406 0.603409 0.13859588 -1.3320467 1.319362 -0.24178654 0.2939666 -0.11958735 -0.27855155 0.2973289 0.25176167 1.4175266 0.5700616 0.48745498 -0.28077927 -0.115500525 0.025540896 -0.14022562 -0.5851151 0.18622558 0.21817686 -0.21103914 -0.08322219 -0.19559143 -0.13250464 -0.29267508 0.3411161 0.9968093 0.57158506 1.0299026 -0.77300787 -0.22436301 0.15254757 0.13438974 0.3075311 0.2964536 -0.8387171
16 -0.12598939 0.33680525 -0.92040914 -0.88458264 0.45102027 1.1824878 0.19390078 -0.16139589 -0.6353677 0.18506216 -1.5201094 0.61004937 -0.4398886 0.98694265 0.8226109 0.509629 0.17230766 -0.04254963 0.100472815 0.29446858 -0.16545607 -0.34878817 0.10879756 0.00054796285 -0.21859877 0.23214677 0.07325069 -0.17115371 -0.30458823 -0.07612698 0.19384845 0.60528356 -0.7458038 -0.26702237 0.45997635 0.043336753 -1.1598626 0.91348344 -0.26270047 0.36399007 0.18083614 -0.73634213 -0.33552268 0.6668582 -0.8883186 -0.67062986 -0.3282452 -0.75660956 -1.2626365 0.3796171 -0.47320008 0.2601501 0.0037365614 0.8211481 -0.38803163 -0.55452186 0.42296952 -0.35521466 -0.12344531 -0.43507543 -0.57780665 -0.079129346 -0.1263899 -0.39201152
36 0.28062913 -0.08810575 0.9276754 -0.63810575 0.056790303 -0.5137774 -0.176274 0.65176404 0.45496207 -0.16139275 0.8376911 0.28054866 0.12966995 -0.31714666 0.27713335 0.06538564 0.46529427 0.14215116 -0.15627876 0.43484205 0.17316754 0.12978451 0.2742933 0.012583 0.34521872 -0.3366998 -0.07046639 0.07468218 0.6343003 -0.1026169 -1.0129392 0.9488352 -0.30761853 0.23926559 -0.46493253 -0.37280595 0.26287314 0.17455053 1.1179848 0.36731875 0.383368 -0.5962186 -0.36959413 -0.045666713 0.29767376 -0.36354542 0.4256916 0.20620984 -0.16291974 0.13123032 -0.5560788 -0.10093757 -0.72792864 0.44321287 1.1275002 0.62382734 0.8335889 -0.8677978 -0.18357718 0.053547993 0.21431117 0.25481287 0.4981304 -0.89235806
81 0.3886837 -1.3978543 0.6261859 -0.52934295 0.8511083 0.37000516 -0.014574418 0.320533 -1.0400952 -0.26110843 -0.4840089 -0.8348363 0.03317157 -0.5453447 1.5070336 -0.5390204 -0.27563283 0.12483251 -0.26175976 0.6008806 0.59420764 1.3696744 0.97331536 0.14188023 0.8715872 0.7817111 -0.7159781 -0.6322509 0.53195614 0.010344902 -0.253034 0.3925896 -0.84721893 -0.9803638 -0.21074261 0.37714192 -0.7548633 -0.43088403 1.2297002 -0.36342093 0.15028454 -0.4770353 -0.74301535 -1.106366 -0.24663462 -1.0091987 -0.31503192 -0.84831196 -0.09753257 -0.10456913 -0.40959626 0.5876844 0.7699388 1.4743013 -0.6227952 -0.67034584 -0.34554866 -0.21935315 0.16522476 0.9570106 -0.675204 -1.0762655 -0.19954892 -0.6242917
88 0.41453925 -0.4148349 0.5810432 -0.8957277 0.36819422 -0.12308689 -0.19899201 0.9273324 0.20384185 -0.10310095 0.7694257 0.60944265 -0.40803826 -0.18303198 0.108624846 0.3227821 0.6775105 0.47713554 -0.27194512 0.8938155 0.7840858 0.30442032 0.43734455 -0.29869357 0.051729247 -0.8442797 -0.7091998 -0.27919388 0.54252166 0.51108545 -1.5083655 1.4642985 -0.18457232 0.4392294 0.22204556 -0.32920927 0.28022236 0.39538193 1.5882035 0.7252544 0.33775824 0.12612966 0.34053034 0.14797875 -0.5493666 -0.71001464 -0.008028499 0.2167811 -0.31519982 -0.3154872 0.32785022 -0.30129024 0.2513895 0.33628336 0.5976915 0.41228387 1.1551374 -0.5719512 -0.060925793 0.38595644 0.02803845 0.3347096 0.005577641 -0.6984442
75 0.38762894 -0.28413945 0.6720099 -0.7297813 0.2427577 -0.505141 -0.24299942 0.765002 0.44436166 -0.17588288 0.84406996 0.55648935 -0.38288063 -0.22774929 0.12437246 0.21132892 0.4977913 0.0067718863 -0.35054687 0.64672095 0.26748538 0.21628119 0.6327953 -0.24108607 0.29560116 -0.5741336 -0.28741693 0.05035415 0.554692 0.40082127 -1.1515298 1.0365214 -0.26084563 0.43319798 -0.1408975 -0.55993396 0.004046442 0.4376673 1.3914882 0.5747938 -0.13954514 -0.14424346 0.1472204 0.101637565 -0.25905553 -0.6121558 0.375977 0.28569514 -0.48368847 -0.1255949 0.03891892 -0.4803584 -0.1410912 0.58570546 0.5086291 0.41741985 0.92240936 -0.6876177 0.03724115 0.30741346 0.10198226 0.31326342 0.09157513 -0.85779554
26 0.35972583 -0.30215934 0.79543036 -0.89529884 0.29093507 0.0016935931 -0.23191816 0.8863062 0.16347228 -0.05595752 0.6582772 0.43365142 -0.064867064 -0.18979177 0.27069575 0.20869547 0.6690804 0.6140379 -0.15847465 0.74722767 0.84215266 0.2762745 0.1699956 -0.14928705 0.060778 -0.70041096 -0.6352235 -0.32938293 0.570765 0.21302433 -1.4618348 1.5353645 -0.27110744 0.27372628 0.14786102 -0.18513507 0.36927983 0.25195783 1.4723511 0.6353751 0.73411775 -0.1462428 -0.044440687 0.07828786 -0.31713098 -0.6667405 -0.038757093 0.13663554 -0.14103374 -0.21423544 -0.023305174 -0.04701281 -0.10213906 0.28382847 0.9934654 0.52669793 1.0863339 -0.68982184 -0.2856755 0.19721146 0.08308691 0.2913838 0.26882562 -0.73750556
40 0.24475574 -1.2922235 0.41192958 -0.40701327 0.7364113 0.46853057 0.1472263 0.14704055 -1.2110794 -0.25386834 -0.5554481 -0.928466 -0.045346625 -0.6075715 1.4050809 -0.40046155 -0.122635104 0.13367377 -0.03517001 0.7092103 0.5860979 1.2645005 0.78670233 0.16186093 0.6464363 0.72886956 -0.7658838 -0.678493 0.36382177 0.005057579 -0.15075196 0.30355227 -0.84250665 -0.98057973 -0.22455713 0.46607965 -0.5569137 -0.3740395 1.0114943 -0.33439732 0.3834296 -0.43250945 -0.56623286 -0.9024492 -0.14510122 -0.90523696 -0.524427 -0.84652644 -0.042104732 -0.026458327 -0.3513598 0.6637935 0.8314462 1.2859249 -0.6320782 -0.69130373 -0.3428813 -0.07340975 0.18537468 1.0158565 -0.68706375 -1.0076741 -0.16438845 -0.43210113
63 0.32566646 -0.2261989 0.675619 -0.62876546 0.114582926 -0.6922598 -0.20533906 0.63085955 0.5034484 -0.26330274 0.93996906 0.4633599 -0.29363543 -0.2969332 0.11694325 0.16361047 0.43176275 -0.112380266 -0.2966725 0.54024005 0.015442096 0.13054769 0.6183518 -0.13396907 0.36272648 -0.41875547 -0.09127081 0.17297593 0.5845343 0.20903984 -1.0124656 0.80114627 -0.24787103 0.4112708 -0.3946646 -0.5783957 0.052176584 0.33843142 1.2122123 0.4614932 -0.16452992 -0.3479199 -0.009191134 0.08961108 0.060103163 -0.46944046 0.52802974 0.2778073 -0.40779135 0.054979164 -0.19948547 -0.4573942 -0.39292908 0.6044112 0.6176428 0.471639 0.85684013 -0.7967036 0.058424614 0.31036413 0.15575437 0.29995263 0.21632767 -0.8858441
6 -0.049642954 0.34225133 -0.8582881 -0.8232196 0.47345078 1.0393351 0.21594873 -0.18637167 -0.63062614 0.155739 -1.4659714 0.53537947 -0.47610256 0.9529709 0.7839673 0.5673785 0.14039361 -0.07043143 0.09746256 0.34127906 -0.123208195 -0.32105288 0.16821966 -0.06087007 -0.19456269 0.25947627 0.030431105 -0.19893186 -0.28910124 -0.04123436 0.1575983 0.5622386 -0.7278834 -0.24614055 0.41958973 -0.037096135 -1.089611 0.9196886 -0.25788227 0.34634513 0.11532139 -0.6594518 -0.29001898 0.5945764 -0.83570325 -0.651951 -0.2820955 -0.76598454 -1.2016591 0.40541983 -0.47213322 0.19067068 0.046169635 0.7892197 -0.314019 -0.39382306 0.41080058 -0.3422217 -0.16306077 -0.40124547 -0.5435955 -0.17141749 -0.1675489 -0.35763595
11 -0.13075283 0.31515917 -0.83392954 -0.8448109 0.4121283 1.1281325 0.14914171 -0.17347567 -0.5826712 0.19846152 -1.3886158 0.5708445 -0.40725106 0.9178742 0.7413672 0.4529655 0.18282433 -0.024435326 0.08977109 0.24090724 -0.13232777 -0.3492016 0.055223282 0.032130584 -0.21897043 0.1798389 0.05852703 -0.16457634 -0.3025496 -0.090531655 0.13905357 0.59264976 -0.6641425 -0.21612535 0.46369287 0.031637613 -1.021493 0.8397924 -0.25263515 0.3442448 0.21775338 -0.67718345 -0.33898672 0.6282492 -0.8063819 -0.60740334 -0.3058901 -0.65790814 -1.1457494 0.33103132 -0.4408072 0.25915742 -0.05061196 0.7070433 -0.32603452 -0.5209761 0.41469142 -0.33067864 -0.1301694 -0.37539992 -0.52743185 -0.04374733 -0.06608199 -0.36105245
78 0.2124118 -0.012148675 0.976836 -0.6013735 -0.026784686 -0.39668572 -0.20326681 0.45038792 0.30451328 -0.1726247 0.56101114 0.004863595 0.2781095 -0.2142423 0.51930165 0.08487197 0.37262514 0.1765569 -0.047029376 0.26293758 0.11140194 0.14401326 0.062321234 0.072461136 0.3410343 -0.14916621 0.0006398512 0.039533377 0.6067002 -0.46024865 -0.82987803 0.8322421 -0.41269556 -0.007625944 -0.7090848 -0.1947292 0.18707119 0.05223121 0.8907652 0.26241583 0.6487057 -0.99749047 -0.7424375 -0.084556684 0.5588177 -0.35973608 0.47667572 -0.0059635625 -0.09202299 0.365406 -0.96495444 0.112055875 -1.0286835 0.4741776 1.3505406 0.69155747 0.7517322 -0.99842066 -0.40177512 -0.07010503 0.19384424 0.15352406 0.6415706 -0.945205
83 0.2792657 -0.10588297 0.84076834 -0.6571755 0.06401481 -0.7177954 -0.1303767 0.6127304 0.53502506 -0.2698778 0.89851296 0.31723127 0.016824715 -0.35058218 0.32095614 0.06735671 0.47824863 -0.1842502 -0.19679558 0.5633468 -0.110561796 0.06722465 0.5594429 0.08228729 0.48374575 -0.17580277 0.102840796 0.23622005 0.6229949 -0.07853137 -0.92674917 0.8093855 -0.41876414 0.30740416 -0.58590233 -0.5896082 0.11267387 0.30799553 1.1111631 0.35849097 0.044973705 -0.7573637 -0.35201898 0.0028309855 0.37000036 -0.38315734 0.5843071 0.25747174 -0.36386886 0.23938803 -0.72892284 -0.19628544 -0.8198018 0.77443147 0.98440844 0.5558423 0.8647704 -0.9700635 0.012434073 0.17871825 0.16744429 0.24277431 0.528587 -1.0588137
47 -0.1928078 -1.0041301 -0.0017392832 -0.14210783 0.2930459 0.62693495 0.47670144 -0.2883515 -1.5878417 -0.16057676 -0.5293357 -1.2331352 -0.32607725 -0.8299477 1.1476576 0.014339119 0.31947374 0.112057015 0.49490172 1.0021181 0.7092307 0.8915229 0.42777616 0.08721213 0.12957491 0.4705938 -1.0707785 -0.83763003 -0.042467896 -0.13800582 -0.04811687 0.23716106 -0.7912419 -0.98747206 -0.4282163 0.69654965 -0.01309832 -0.13144897 0.6535284 -0.2720927 1.2066604 -0.4356096 -0.328384 -0.27938882 0.1931244 -0.70649046 -0.9625398 -0.74945915 -0.053707756 0.22625041 -0.24184865 0.82352334 0.92217994 0.885365 -0.47438273 -0.6893161 -0.23843846 0.20200649 0.15944338 1.3107114 -0.6558226 -0.80946535 0.07261223 -0.13389137
9 0.057384472 0.4260548 -0.8584974 -0.8841202 0.50625163 1.0684546 0.24426287 -0.14427911 -0.6670575 0.17693774 -1.5541695 0.54880184 -0.4859253 1.0140815 0.7755228 0.5906752 0.1654061 -0.046211798 0.04683399 0.38728535 -0.09305865 -0.3490683 0.1959601 -0.07953087 -0.24026738 0.3332991 0.011761695 -0.26306745 -0.28654534 -0.058503207 0.12553556 0.6345634 -0.76518863 -0.2509254 0.4515956 -0.06358162 -1.102533 1.0094184 -0.28186858 0.39743635 0.103427865 -0.66872436 -0.30741137 0.64078325 -0.8897078 -0.6653201 -0.31839755 -0.8551971 -1.2697047 0.4588669 -0.530675 0.22630727 0.07293885 0.7990393 -0.25356576 -0.2772198 0.43493304 -0.3731691 -0.19116405 -0.53867406 -0.50896984 -0.21517202 -0.17895742 -0.28279757
103 0.37133464 -0.3557404 0.7414844 -0.9236941 0.34321594 0.0028946036 -0.2153416 0.9180481 0.13710219 -0.056723334 0.667149 0.49953976 -0.18888952 -0.21843809 0.24880284 0.21559107 0.70200497 0.5833627 -0.16727199 0.83026046 0.8741888 0.30530474 0.26679665 -0.18614292 0.07301314 -0.76879764 -0.713651 -0.3550443 0.56931484 0.35636774 -1.5121069 1.5768137 -0.25475863 0.33160576 0.23627219 -0.22197078 0.30720544 0.3300125 1.5671943 0.67006195 0.63670856 -0.0080035515 0.110497594 0.066734836 -0.44520864 -0.7351941 -0.096972354 0.17236231 -0.21974869 -0.2764218 0.13621448 -0.108369224 0.09688416 0.30027103 0.83319014 0.47315863 1.0998782 -0.61053675 -0.18179777 0.26816225 0.033392712 0.29927972 0.17590377 -0.72471714
46 0.3638058 -0.2887386 0.6394171 -0.73654044 0.2527478 -0.41809314 -0.21617185 0.75106096 0.38074896 -0.18198065 0.81774354 0.5071765 -0.3360733 -0.23669863 0.12464224 0.25633532 0.51041675 0.14763969 -0.31626704 0.6919084 0.33228388 0.222085 0.5302056 -0.23560736 0.20331319 -0.6013391 -0.37392086 -0.034558993 0.5387401 0.34015927 -1.2052064 1.079115 -0.25245225 0.40340993 -0.13471596 -0.4574324 0.079099156 0.37122172 1.3765465 0.5910112 0.031747963 -0.16028206 0.12464285 0.096111864 -0.21433309 -0.59025973 0.32684505 0.2506539 -0.40772894 -0.06293134 0.008599988 -0.3749559 -0.09593351 0.46824926 0.5884449 0.45181462 0.9976755 -0.6701737 -0.020318363 0.3296702 0.061255097 0.2973859 0.1047925 -0.8261402
62 0.26901796 -0.021610957 0.98239 -0.63563955 -0.039686065 -0.6466071 -0.16408885 0.5013113 0.4841272 -0.2920971 0.77330035 0.08273148 0.22122563 -0.2973155 0.49414274 0.11444814 0.39273763 -0.07999513 -0.1124363 0.41159287 -0.119244315 0.079231046 0.33710906 0.103693 0.47625917 -0.11002237 0.16147514 0.18935983 0.65933293 -0.36180153 -0.8756543 0.7604777 -0.46393204 0.09874975 -0.81166184 -0.46178746 0.110308245 0.1379494 0.9462892 0.28852826 0.3553656 -1.0698086 -0.65225375 -0.06528351 0.61009926 -0.34132618 0.6414057 0.0996122 -0.22707146 0.4015537 -1.034778 -0.055766832 -1.1030025 0.6902633 1.282584 0.69361496 0.8389385 -1.0858321 -0.20811114 0.035763726 0.17978048 0.20593254 0.6908159 -1.1209079
3 0.16978909 0.48343122 -0.77820945 -0.8267634 0.516952 1.000483 0.29040456 -0.07797232 -0.5838384 0.19890209 -1.4487991 0.5475401 -0.419057 0.9779796 0.67582726 0.5810827 0.18385229 0.016158551 -0.006349673 0.39368793 -0.03975936 -0.31188086 0.17770576 -0.05708237 -0.26703802 0.34233236 -0.0013895937 -0.31592926 -0.2731611 -0.021195343 0.06169536 0.6300259 -0.6838425 -0.17979458 0.43582782 -0.08916777 -0.9340934 0.9940862 -0.23182271 0.3992633 0.09023966 -0.553714 -0.22972088 0.5817824 -0.8838819 -0.615569 -0.34037116 -0.801393 -1.1757033 0.40766492 -0.48979908 0.19128475 0.10654006 0.6488714 -0.12106167 -0.06769272 0.45430127 -0.3816383 -0.23506887 -0.6524989 -0.4121296 -0.21737759 -0.21223292 -0.16852857
13 0.16377494 0.4174595 -0.8354493 -0.8603331 0.54380584 1.0072677 0.31004432 -0.14498317 -0.70719767 0.16423678 -1.571839 0.47084174 -0.53652966 1.0184907 0.7577017 0.65593415 0.15512365 -0.07459546 0.02203241 0.44534063 -0.073573045 -0.28464875 0.28636986 -0.12844996 -0.24892676 0.42031294 -0.048308916 -0.31809074 -0.29948053 -0.030847335 0.12556013 0.5997126 -0.80879176 -0.24933898 0.41267967 -0.1371391 -1.104573 1.0231006 -0.23948391 0.3879823 0.027112052 -0.640933 -0.2528349 0.6145068 -0.91458464 -0.7091003 -0.3016094 -0.91935515 -1.294025 0.5055946 -0.5211627 0.17835557 0.14622493 0.8240587 -0.23465401 -0.15553097 0.45050362 -0.39989418 -0.21480042 -0.5331221 -0.47694343 -0.32404253 -0.2578973 -0.22606951
34 -0.49724057 -0.56879044 -0.5586111 0.060094588 0.052238263 0.5989391 0.67046386 -0.56504965 -1.7675196 -0.18558623 -0.59868264 -1.2238852 -0.36277702 -0.618569 0.9355742 0.66131103 0.7085622 0.25207904 0.9225283 1.4692887 0.5045156 0.58888894 0.037901573 -0.18174158 -0.26775593 0.32631588 -1.2397096 -0.90907955 -0.40968537 -0.29266468 -0.2473049 0.22868688 -0.8984277 -0.67116594 -0.32438937 0.63194954 0.15385741 0.22907694 0.26915354 -0.0706623 1.3676897 -0.44518065 0.1558735 0.30474952 0.6291826 -0.43942603 -1.052548 -0.74108344 -0.078511484 0.84476095 -0.3574089 0.9165976 0.73607284 0.48294735 -0.07707812 -0.44843477 0.23305221 0.19997518 0.003641864 1.3232931 -0.8207028 -0.5938753 0.057298895 -0.16827215
52 0.40200105 -0.4011089 0.6068766 -0.8994129 0.35401613 -0.008235189 -0.17351705 0.9426312 0.14437383 -0.09807042 0.7042199 0.5461654 -0.27883437 -0.1870307 0.12138116 0.32852444 0.71922773 0.6056838 -0.18436389 0.9268546 0.8871287 0.29479408 0.34342873 -0.24622624 0.0051930216 -0.80757076 -0.7376404 -0.36904714 0.51412207 0.45973912 -1.5281913 1.5639808 -0.20618533 0.41144928 0.30030167 -0.2653353 0.39177868 0.338214 1.5355206 0.7034043 0.54219884 0.12880918 0.29952288 0.15594162 -0.49561375 -0.718335 -0.10334512 0.20763177 -0.2058437 -0.3202785 0.26634362 -0.19792779 0.24886115 0.27004024 0.6999343 0.4535956 1.1853691 -0.5160526 -0.13563249 0.33921465 0.01345455 0.3366677 0.09816091 -0.644994
38 0.3663546 -0.33627614 0.7059785 -0.82005006 0.22207533 0.060025256 -0.18523397 0.82099295 0.10864106 -0.10742843 0.59401125 0.29643658 -0.063443415 -0.16894963 0.21719289 0.2987577 0.6250926 0.7009238 -0.07657061 0.7587067 0.8985188 0.2902953 0.061039403 -0.20644118 -0.034641013 -0.7204752 -0.6974817 -0.4203937 0.5289806 0.2046116 -1.4252062 1.4535229 -0.1908623 0.23998086 0.15136877 -0.07331207 0.48218444 0.18646842 1.3055335 0.56914383 0.82252645 -0.07306609 0.06255422 0.08178379 -0.23425765 -0.620166 -0.12615821 0.08261126 -0.0040965485 -0.19339377 0.04147284 -0.007122133 0.0073769246 0.1404324 0.95433456 0.51315135 1.0774485 -0.539926 -0.31535646 0.22892727 0.011000515 0.29493135 0.22964737 -0.6360157
101 0.14230062 0.3867402 -0.79689234 -0.81532705 0.5145448 0.9231954 0.27113625 -0.13977188 -0.63325834 0.13519172 -1.4459591 0.4367613 -0.4925604 0.93911135 0.7272349 0.6241343 0.1325958 -0.09582807 0.042790025 0.4047999 -0.088389985 -0.24913248 0.26153186 -0.13357504 -0.22239836 0.37188277 -0.022111388 -0.25262237 -0.2773329 -0.008548651 0.10758578 0.5546701 -0.74599355 -0.2215058 0.3473083 -0.107042514 -1.0589846 0.983271 -0.24268147 0.35846853 -3.079835e-05 -0.60923165 -0.23798627 0.5718157 -0.8441709 -0.64319 -0.266462 -0.83343273 -1.222725 0.4703453 -0.5075035 0.13371576 0.12092509 0.7662581 -0.24321346 -0.16093859 0.42846206 -0.38498747 -0.20210542 -0.5153579 -0.45406884 -0.23250356 -0.23514254 -0.23135434
100 0.4035956 -0.33848277 0.6767649 -0.8470365 0.3524685 -0.24676804 -0.22814238 0.9337617 0.31111455 -0.07405653 0.81265384 0.61314595 -0.27566 -0.25959334 0.1384406 0.18255965 0.70177484 0.36017838 -0.29756087 0.8050548 0.6216202 0.24243034 0.47767723 -0.17900701 0.17575687 -0.7389674 -0.5387801 -0.17674686 0.5872138 0.40744343 -1.4196906 1.412064 -0.23128183 0.45600334 0.09352668 -0.39782044 0.23857409 0.41068837 1.5742338 0.68949467 0.26804215 -0.008691052 0.1736953 0.10947221 -0.4138933 -0.67017096 0.09051338 0.29379866 -0.35953435 -0.22231488 0.11998999 -0.29479268 0.019341221 0.4249252 0.68959796 0.46595323 1.0617148 -0.6829992 -0.042629216 0.32068148 0.09884732 0.35959604 0.12349731 -0.77557015
42 0.15981862 0.053549398 1.1292177 -0.5551271 0.0449158 0.002728612 -0.4668814 0.3342623 0.049321447 0.09205178 0.14674507 -0.19144107 0.3326283 0.05094163 0.7127332 0.122850224 0.23169075 0.5070652 -0.015455398 -0.2111118 0.48361382 0.2705036 -0.44672266 -0.1371484 0.21758516 -0.3329624 -0.16410404 -0.19515428 0.551293 -0.7101735 -0.67760223 0.8704746 -0.35650793 -0.26246378 -0.70825714 0.28013384 -0.028636679 -0.0910496 0.8607063 0.23513032 1.0350865 -1.0294327 -1.0747546 -0.14424689 0.4651309 -0.5013173 0.47364664 -0.23905705 -0.052965954 0.47530875 -0.9456171 0.20715602 -1.0814042 0.08540859 1.5645959 0.7616532 0.48369312 -0.9883411 -0.86671996 -0.46034494 0.28463238 0.06874128 0.5848322 -0.8892607
1 0.25794226 -0.11026113 0.98109853 -0.67248464 0.15675959 0.017054535 -0.32428703 0.66036195 0.15756287 0.031149013 0.47178438 0.119015664 0.2610202 -0.14709815 0.4510859 0.09099384 0.47283572 0.6491353 -0.112040274 0.19496442 0.6788601 0.27045128 -0.2553053 -0.13056718 0.11584523 -0.59739506 -0.4026638 -0.271686 0.6017097 -0.23618476 -1.102209 1.2358587 -0.2551001 0.0090072565 -0.26373774 0.12287316 0.29059008 0.023813147 1.1744884 0.40636685 0.98513895 -0.5118732 -0.5026285 -0.08206013 0.09088528 -0.51197976 0.14966792 -0.0025645266 0.056701336 0.049360853 -0.4099027 0.113787755 -0.56404364 0.018021224 1.3498772 0.65779406 0.77879965 -0.7774145 -0.60909986 -0.18718112 0.21964376 0.20143667 0.4233736 -0.7639621
64 0.2763125 -0.06057109 0.86650366 -0.6564883 0.007682931 -0.6664138 -0.05265098 0.5853272 0.46040455 -0.28266028 0.8413136 0.2325613 0.1627083 -0.37976342 0.45097247 0.08061925 0.48819703 -0.13471285 -0.17109594 0.56398207 -0.15760772 0.05572635 0.4983086 0.18446323 0.5174522 -0.09469285 0.16746101 0.2055378 0.6483234 -0.22573185 -0.9097099 0.8285225 -0.4733862 0.19223611 -0.71971446 -0.53768796 0.17536598 0.25411275 1.0149353 0.31948206 0.25282246 -0.9677365 -0.49500427 -0.023600766 0.5190076 -0.3203062 0.5691372 0.18876405 -0.28440785 0.3515422 -0.9300639 -0.037986528 -0.9700701 0.7923074 1.1415814 0.6132878 0.9028587 -1.0398759 -0.0358702 0.15158397 0.15365535 0.21296452 0.65341574 -1.0730183
74 0.305589 -0.38237125 -0.058522783 -0.3894942 -0.04713491 -0.8795889 -0.007603313 -0.3095207 0.1564486 -0.8188619 0.073061235 -0.32381046 -1.1174926 0.15634747 0.40086752 1.0044742 -0.59970176 -0.7521978 -0.40582234 0.3757777 -0.84432745 0.27421468 1.0178099 -0.671626 0.25501892 -0.0063037295 0.09354085 0.4441776 0.31219858 0.066656314 -0.10721713 -0.28799304 -0.49651054 -0.13310651 -1.3140721 -0.7115821 -1.1790798 0.29231542 0.43368137 0.2927433 -1.0350486 -1.1829797 0.008858077 0.20018375 0.1520977 -0.5486439 1.3996836 -0.59780794 -1.1177332 0.805174 -0.4924115 -0.92492855 -0.13186428 1.159763 -0.52328885 -0.096504115 0.7064405 -0.67801064 -0.18210702 0.58394337 -0.35643357 -0.32120654 -0.14318313 -1.1295148
65 0.3966701 -0.37155822 0.59520054 -0.86333245 0.33185577 -0.010323472 -0.16336837 0.8856548 0.1376449 -0.103832394 0.6655258 0.51105577 -0.30609646 -0.16073987 0.16139257 0.32264927 0.6711804 0.5354641 -0.16644832 0.8683123 0.8014827 0.3007345 0.33056897 -0.2787313 -0.0016100149 -0.7549709 -0.6921402 -0.31957462 0.52621853 0.42832863 -1.463581 1.4605538 -0.2231281 0.36264223 0.2455728 -0.27409527 0.32916465 0.36352327 1.456449 0.6690616 0.4829915 0.06155101 0.2643603 0.14235695 -0.44342425 -0.6846124 -0.071155615 0.17013854 -0.25560033 -0.25844377 0.24240148 -0.2141786 0.20302203 0.3052379 0.6748667 0.42725876 1.1439544 -0.5385762 -0.12694368 0.34629643 -0.0022788253 0.30891633 0.072411396 -0.6686682
18 0.2094688 0.47090507 -0.84817755 -0.83770704 0.53857917 0.9360178 0.30987117 -0.16742307 -0.65600276 0.14974369 -1.5251082 0.45356274 -0.5523367 1.0243303 0.6900951 0.70116216 0.12291251 -0.09391723 -0.0052697067 0.46788338 -0.07248552 -0.26878417 0.32929567 -0.16026513 -0.25759357 0.41311425 -0.040457096 -0.32568192 -0.27018398 0.014936012 0.07022277 0.59820896 -0.78921455 -0.22196789 0.3910881 -0.17520787 -1.0687041 1.0697168 -0.234468 0.42399547 -0.039520536 -0.6275794 -0.20874122 0.6039006 -0.8925553 -0.677286 -0.29310507 -0.93341726 -1.2977048 0.5093788 -0.53525686 0.123760834 0.1692947 0.78278166 -0.21263106 -0.05390292 0.47572875 -0.3963518 -0.23208386 -0.5782702 -0.4473988 -0.31785873 -0.27690005 -0.18307509
5 0.22984913 0.50170124 -0.7421777 -0.76540864 0.5472376 0.8456189 0.28379592 -0.112491794 -0.61247605 0.1689953 -1.401632 0.46092469 -0.4912004 1.0113819 0.65544546 0.6369046 0.123681985 -0.019973291 -0.063157775 0.45209217 -0.020431379 -0.2776828 0.27919844 -0.17752346 -0.19026402 0.3506287 -0.012463045 -0.31872147 -0.20748685 0.010034599 0.055129327 0.65394473 -0.68811315 -0.18345869 0.33066773 -0.19546942 -0.94228107 1.0061014 -0.2074686 0.4640755 -0.011411589 -0.5613934 -0.19700904 0.5176438 -0.84536624 -0.667528 -0.2741647 -0.91493237 -1.1588209 0.46512064 -0.537867 0.123764545 0.10490553 0.68853456 -0.062254976 0.08897818 0.42180267 -0.4124393 -0.28842252 -0.5817336 -0.34807444 -0.32686642 -0.2995807 -0.119819626
45 0.34023905 -0.34223622 0.39611596 -0.7951246 0.24893045 0.18944447 -0.06916384 0.81643784 -0.0028550813 -0.14942761 0.5617539 0.36301175 -0.19564542 -0.12991026 0.08865361 0.43300265 0.7726757 0.75809985 0.027438663 1.0469943 1.0035231 0.22879273 0.15618026 -0.2183729 -0.20736755 -0.721898 -0.792481 -0.4751687 0.4126592 0.3604131 -1.5520108 1.5203907 -0.18778825 0.35386613 0.4021837 -0.14794439 0.6345925 0.28460494 1.2288531 0.60978955 0.8215176 0.16230895 0.34474713 0.22623684 -0.3441179 -0.56610155 -0.3553853 0.13390341 0.02596628 -0.2721291 0.23918766 -0.009221783 0.2966076 0.16400334 0.814451 0.40087888 1.2219199 -0.39935905 -0.18748248 0.4292552 -0.12765092 0.37819946 0.1623999 -0.48705298
14 -0.06801571 0.30754122 -0.8770561 -0.848449 0.45399716 1.0616719 0.16912134 -0.18743022 -0.64744306 0.15814768 -1.4585345 0.5036356 -0.48054737 0.9512674 0.793816 0.5609529 0.17327693 -0.06392745 0.12545988 0.3170838 -0.10627321 -0.30392882 0.14898542 -0.06627318 -0.20796147 0.2273558 0.015603245 -0.19842945 -0.29718095 -0.05053694 0.14294685 0.56051505 -0.74357355 -0.2636633 0.40846384 -0.021441318 -1.1224779 0.88537395 -0.22713295 0.34873062 0.11025938 -0.6916176 -0.31976953 0.603163 -0.8158508 -0.6647224 -0.31540623 -0.7648199 -1.208517 0.41437158 -0.475798 0.21580884 0.016867649 0.81579125 -0.33140936 -0.46118551 0.411596 -0.34233832 -0.13985807 -0.3412889 -0.5630845 -0.13373013 -0.13877454 -0.40105805
55 0.26563308 -0.30171135 0.075975515 -0.32731444 -0.07463805 -0.91081345 -0.12701829 -0.19076893 0.23886637 -0.6822817 0.25088903 -0.23847347 -0.9594758 0.0960256 0.31764394 0.79159355 -0.43547025 -0.7124946 -0.29640546 0.29938728 -0.6974255 0.25059864 0.88405204 -0.61118627 0.27491087 -0.056710456 0.09381269 0.47002587 0.32146412 0.12692459 -0.21226542 -0.19509606 -0.42395866 -0.012475461 -1.0886201 -0.7341536 -0.9595568 0.29576018 0.4708387 0.276411 -0.9826753 -0.94217306 0.050319795 0.16828069 0.17972489 -0.4806035 1.2005818 -0.36561418 -0.8994624 0.6674783 -0.40485606 -0.89613765 -0.20750351 1.0271484 -0.3334339 0.031820074 0.6286665 -0.6568714 -0.09099452 0.5436279 -0.20082422 -0.17629991 -0.11595486 -1.0465623
85 0.0128025515 -0.42572567 -0.24181315 -0.21025182 -0.06624726 -0.8165025 -0.4383807 -0.56192845 -0.15419562 -0.61066425 -0.10869129 -0.7057287 -1.2047604 0.28103143 0.49588883 0.9427321 -0.5048737 -1.0218931 0.34825462 0.29968533 -0.42136234 0.36251295 0.938787 -0.8902685 0.243609 0.14138925 -0.12747401 0.42352077 0.1212353 0.31754926 -0.109633625 -0.3945484 -0.6313032 -0.1392678 -0.76309454 -0.7856849 -1.3443013 0.40579915 0.2233401 0.099221565 -1.1884391 -0.78347427 0.07838905 0.21145436 0.122012876 -0.69473076 0.9180644 -0.5413643 -0.89947265 0.7343247 -0.14947045 -1.0215873 -0.07005115 1.4048303 -0.609136 -0.30478764 0.42447448 -0.46887895 0.004578037 0.8805362 -0.3877037 -0.22605604 -0.2581588 -1.1618345
69 0.22410928 -0.030805077 0.88922316 -0.5891338 -0.019316109 -0.61064756 -0.17762677 0.45420137 0.419257 -0.24908434 0.7157526 0.10427827 0.1729657 -0.2954242 0.49524304 0.11047199 0.39422992 -0.07336426 -0.10761 0.3541134 -0.12174073 0.10675263 0.31368604 0.07222283 0.4615264 -0.114936665 0.14655147 0.1856058 0.59907097 -0.34477633 -0.8054028 0.70871395 -0.42732182 0.11189202 -0.7981264 -0.3994441 0.09503999 0.17827521 0.9294456 0.25795132 0.3155125 -1.0297934 -0.61507505 -0.035032894 0.5629802 -0.34516558 0.62361777 0.089838356 -0.24993661 0.41854194 -0.9663994 -0.04813376 -1.0146948 0.67969936 1.1910864 0.62945646 0.7826222 -1.0315057 -0.21602586 0.055597115 0.17033537 0.1842149 0.62949246 -1.0842983
19 0.23312998 0.4683825 -0.8343288 -0.7845191 0.5348625 0.89624816 0.34699526 -0.17267539 -0.6549716 0.13424282 -1.529099 0.4259947 -0.5431171 0.9838276 0.699559 0.68052065 0.121794865 -0.09718788 -0.0013060165 0.4787209 -0.09535244 -0.24809584 0.32319644 -0.18046068 -0.26006183 0.43766698 -0.04573759 -0.30511025 -0.26852816 0.016100632 0.119449295 0.5583667 -0.7718106 -0.22101419 0.37927788 -0.1816225 -1.0753932 1.0324916 -0.269249 0.40185612 -0.06487698 -0.5930062 -0.18943661 0.5860629 -0.86792094 -0.6511883 -0.30215186 -0.9174361 -1.2520095 0.5259772 -0.53819674 0.11870583 0.18189998 0.7651078 -0.23272489 -0.032691307 0.41761425 -0.37846684 -0.21222527 -0.59412605 -0.42757216 -0.35348576 -0.276497 -0.130231
89 0.26212198 -0.04299598 0.81060606 -0.5882369 -0.002116921 -0.6710074 -0.06848391 0.4354687 0.42435777 -0.32147124 0.71476835 0.110506356 0.09762843 -0.3059378 0.4787042 0.12806574 0.35171643 -0.19711488 -0.16597605 0.45654055 -0.24160074 0.07392106 0.46893036 0.11007169 0.4948629 -0.027693603 0.20277438 0.24910106 0.6038733 -0.2840553 -0.7361568 0.6300289 -0.4512587 0.12146985 -0.83479196 -0.5062809 0.01811819 0.2161611 0.86586034 0.2483433 0.16161369 -1.0232368 -0.52993816 -0.015494298 0.5505743 -0.31710213 0.66626316 0.08217921 -0.32992077 0.42377803 -0.9674211 -0.09280064 -0.9473782 0.770819 1.0061067 0.56242543 0.7901487 -0.99440056 -0.10421689 0.10301213 0.10794043 0.141075 0.59587884 -1.0711031
49 0.31459263 -0.37525195 0.33806744 -0.7578782 0.2302973 0.24874038 -0.066575654 0.6924944 -0.09122562 -0.17336303 0.446507 0.25146705 -0.21396495 -0.09840689 0.11846408 0.5137332 0.717647 0.729152 0.09266031 1.0152746 0.9988493 0.2822371 0.10372828 -0.27376682 -0.2364186 -0.6537219 -0.82494795 -0.518131 0.3715891 0.30826908 -1.4743122 1.4154754 -0.20902105 0.27581638 0.3644771 -0.0897787 0.5871294 0.21747018 1.1077172 0.56259596 0.86243933 0.082944974 0.31802133 0.20451178 -0.29389128 -0.59309095 -0.3767511 0.03458811 0.035509028 -0.2409119 0.22418706 -0.0003179129 0.2973923 0.17698872 0.7485955 0.32642972 1.1727515 -0.37953046 -0.22021304 0.4439274 -0.19057825 0.31276676 0.12941402 -0.4844324
54 0.2476415 0.44047368 -0.76026005 -0.81240827 0.5558011 0.897095 0.32756355 -0.13593392 -0.63327044 0.11645236 -1.4769377 0.44041207 -0.528887 0.965559 0.69020534 0.6453095 0.1184054 -0.05558271 -0.019870996 0.46184552 -0.05269434 -0.24523704 0.30814907 -0.15460682 -0.24939291 0.4089002 -0.03156422 -0.2944475 -0.24899985 0.008692465 0.056553535 0.5921372 -0.7366674 -0.21127711 0.3614972 -0.18595392 -1.0419047 1.040767 -0.23084709 0.42121625 -0.036313485 -0.5945346 -0.22432716 0.5756613 -0.85388684 -0.64761114 -0.25117424 -0.89397585 -1.2532789 0.50325644 -0.5351316 0.13876392 0.16885635 0.745092 -0.18074979 -0.015034282 0.47174838 -0.41013452 -0.23127416 -0.60477453 -0.3906515 -0.32343012 -0.24750322 -0.182108
90 0.21900189 0.48695338 -0.7139455 -0.75662065 0.53862673 0.8878628 0.3270817 -0.0644364 -0.5718409 0.18559733 -1.3720474 0.5176906 -0.43555757 0.9663828 0.61288136 0.59949493 0.16827616 0.014763973 -0.07285545 0.4254019 -0.01748599 -0.29820192 0.24222562 -0.14200105 -0.21629362 0.3534673 -0.018294016 -0.3250047 -0.22145796 -0.021234319 0.039966676 0.6605664 -0.66146857 -0.17220217 0.35317668 -0.16626379 -0.87474465 0.97012925 -0.20307279 0.42446065 0.038768828 -0.518703 -0.1927118 0.5202501 -0.84279466 -0.6076257 -0.29411608 -0.85672444 -1.1213412 0.43870604 -0.5175617 0.14253055 0.12697977 0.6136926 -0.033874545 0.09822491 0.42485917 -0.37666833 -0.27751452 -0.6282244 -0.32861713 -0.3047058 -0.26453802 -0.07395565
2 -0.8430911 -0.02624564 -0.9283361 -0.88231677 0.13572662 1.4272184 -0.17484526 -0.24290913 -0.4893314 0.25716403 -1.1325747 0.7317181 -0.24044536 0.7367037 0.92229337 0.18659489 0.2866723 0.051843695 0.34333217 -0.03945538 -0.22440794 -0.38962212 -0.33893004 0.2886622 -0.11867817 -0.2914276 0.16933575 0.13086976 -0.30108806 -0.21833037 0.18271858 0.593411 -0.5588813 -0.27854306 0.5214122 0.40805525 -1.058188 0.4014492 -0.18391955 0.1874072 0.59070736 -0.8662489 -0.5159726 0.68239814 -0.6367278 -0.5442711 -0.36867926 -0.23205593 -0.9539359 0.07182699 -0.25070718 0.43875137 -0.42473158 0.7535761 -0.6644093 -1.5052294 0.35855386 -0.20603362 0.064965814 0.18165775 -0.8382909 0.45922595 0.26562905 -0.88975286
57 -0.36952853 -0.8670479 -0.26023924 -0.017957846 0.121931136 0.59531826 0.5423541 -0.4248269 -1.729513 -0.21630362 -0.5086345 -1.3428316 -0.42246604 -0.82124555 0.93382674 0.36794642 0.5686827 0.13656038 0.77075803 1.3151276 0.73083144 0.69906265 0.26116255 -0.082916155 -0.1680564 0.3472726 -1.2354882 -0.8935109 -0.23849 -0.18957718 -0.1557458 0.20217952 -0.7746638 -0.8867667 -0.48045567 0.69049096 0.25641948 0.037381828 0.4994436 -0.15153404 1.4244151 -0.531881 -0.06016944 0.118073374 0.5085975 -0.5618804 -1.0376753 -0.7601089 -0.045597304 0.49859545 -0.34571373 0.87007356 0.84803486 0.7142752 -0.22323276 -0.5682074 0.021199929 0.17618296 0.1165882 1.3734432 -0.66877323 -0.6855245 0.079404294 -0.07431543
39 0.23560089 0.44748807 -0.84533554 -0.81029457 0.58032423 0.9574127 0.35061952 -0.15555175 -0.70685416 0.14285041 -1.5912356 0.4230998 -0.52931774 1.0130136 0.7415872 0.6707713 0.1450502 -0.10221521 0.01061868 0.46189377 -0.057150718 -0.26356828 0.29923502 -0.16074999 -0.26868567 0.48713875 -0.038319353 -0.35343212 -0.2971337 0.007840259 0.13778503 0.5412947 -0.7843245 -0.23344119 0.3863023 -0.1482042 -1.098652 1.0522219 -0.29171708 0.37447652 -0.032545514 -0.58598304 -0.23199265 0.5935002 -0.8927356 -0.6897534 -0.33041248 -0.9523186 -1.282179 0.5052572 -0.53859156 0.14867976 0.22974826 0.795769 -0.23161788 -0.08546211 0.40899575 -0.35569456 -0.22152226 -0.60279065 -0.44875515 -0.36268252 -0.30857804 -0.13156709
31 0.2260929 -0.005172792 0.8575795 -0.5700459 -0.07140054 -0.66880673 -0.052312665 0.43947935 0.44146314 -0.3101626 0.7328381 0.110374585 0.21136214 -0.3452345 0.49145037 0.08178724 0.38961387 -0.16234769 -0.11095734 0.45299727 -0.26678243 0.012347857 0.37576237 0.17427504 0.516016 -0.002513557 0.22708209 0.23021251 0.5934333 -0.39366877 -0.75830495 0.6632793 -0.47061953 0.1153725 -0.8649662 -0.47307593 0.12964481 0.16123217 0.8345083 0.2249366 0.29905468 -1.1250832 -0.6445119 -0.027264338 0.69154924 -0.2598712 0.63957834 0.11564645 -0.26556727 0.4691282 -1.1199167 0.01719885 -1.1303878 0.73314416 1.21601 0.62843966 0.8109384 -1.0834062 -0.1333954 0.07634622 0.12854609 0.15774967 0.71588737 -1.0813177
32 -0.51465356 -0.097430445 -0.9497937 0.1585345 -0.004879696 0.42224678 0.8449311 -0.6955201 -1.6818087 -0.20199224 -0.5232612 -0.9760226 -0.3507345 -0.21722497 0.81476927 1.2032164 0.8844745 0.44447786 1.0866795 1.6793653 0.236622 0.34441045 -0.30793524 -0.38779587 -0.41876483 0.2577508 -1.1761187 -0.85971105 -0.59485656 -0.45762667 -0.5218386 0.34235796 -0.9470584 -0.17199121 -0.17234486 0.31831467 0.014176277 0.48022476 -0.021410186 0.15159185 1.1677425 -0.2221422 0.4734231 0.53410023 0.774451 -0.26837265 -0.9058376 -0.55799824 -0.028584328 1.4281926 -0.34919536 0.8605947 0.4365119 0.052422 0.24611571 -0.049521983 0.7625055 0.18075557 -0.2833778 1.3149868 -0.9763121 -0.32184008 -0.0046578906 -0.41659197
33 0.25226477 -0.094734035 0.9622679 -0.684264 0.1307347 0.06880362 -0.3345544 0.59274954 0.10260605 0.0133000305 0.4115637 0.06772645 0.27020803 -0.11529822 0.42998523 0.15465705 0.4575952 0.7320802 -0.042247042 0.21723972 0.74641126 0.25123194 -0.30292714 -0.1413113 0.06532284 -0.59557563 -0.446593 -0.34995043 0.5740471 -0.27565187 -1.1069459 1.2380198 -0.24217595 -0.02893318 -0.22674118 0.17855489 0.32078132 -0.028194057 1.1136223 0.40948045 1.0789168 -0.49535707 -0.525016 -0.06581766 0.11693826 -0.4798076 0.09909015 -0.039643805 0.100368276 0.05233901 -0.4392251 0.1887839 -0.53331167 -0.04301129 1.3819954 0.68419063 0.7732255 -0.7377619 -0.66025895 -0.19260052 0.20836245 0.19169796 0.4409673 -0.7059678
35 0.15654756 -1.2329609 0.4908473 -0.4039939 0.59806967 0.45402813 0.24833842 0.027082698 -1.2636024 -0.18447648 -0.45332223 -1.0109239 -0.22744845 -0.7577347 1.4254208 -0.39291105 -0.038145646 0.043060455 0.02950731 0.62547195 0.6416605 1.1811794 0.74289626 0.20402281 0.5875698 0.60672927 -0.84494007 -0.6727836 0.33768842 -0.054876704 -0.06508498 0.35432664 -0.796974 -1.0418688 -0.45203933 0.4819861 -0.4478314 -0.32561716 1.0711063 -0.34737068 0.67702097 -0.46691597 -0.67637604 -0.8057419 -0.15112442 -0.93758374 -0.5549249 -0.7485922 -0.13158311 0.0052340743 -0.26895508 0.6126944 0.82543343 1.2281538 -0.65353054 -0.6541717 -0.4171872 0.027846579 0.15917996 1.1584003 -0.5839324 -0.9549244 -0.034211446 -0.42929834
29 -0.09330509 0.27402925 -0.82246614 -0.8003978 0.40658203 1.0275961 0.19530314 -0.15335035 -0.5566698 0.18590783 -1.391631 0.52057153 -0.39543146 0.834092 0.76646316 0.49363926 0.20075794 -0.048651695 0.09935703 0.26155287 -0.15391721 -0.26754192 0.078693405 0.029124927 -0.1837702 0.22082677 0.055465586 -0.16878943 -0.27016217 -0.08173454 0.1628831 0.48992148 -0.6490513 -0.21092282 0.39936566 0.049386542 -1.0436585 0.8253696 -0.23967186 0.30188987 0.15271601 -0.65631956 -0.28539434 0.60985494 -0.76554435 -0.5996023 -0.31030995 -0.668184 -1.1201376 0.33793128 -0.43424138 0.20066997 0.033453364 0.7368523 -0.31512174 -0.49671167 0.34795883 -0.32708484 -0.12218387 -0.39620566 -0.5384751 -0.06535339 -0.11446251 -0.36991656
41 0.10512092 -0.40699872 -0.08503754 -0.273968 -0.029201513 -0.85908216 -0.35353687 -0.33776987 0.037846737 -0.60025674 0.114832655 -0.46222827 -1.0866201 0.16905321 0.36335513 0.81933 -0.4313581 -0.87789476 0.12384386 0.27816135 -0.43008995 0.3235359 0.9169981 -0.7779208 0.25534332 0.018565688 -0.06879474 0.4218147 0.22555886 0.29976806 -0.19726393 -0.27792105 -0.4932618 -0.045873936 -0.7645608 -0.77267766 -1.1271498 0.341296 0.389359 0.16325374 -1.0716529 -0.7399348 0.061562143 0.17611247 0.09936166 -0.64573115 0.9688945 -0.40437937 -0.84433293 0.61760694 -0.14847076 -0.9830268 -0.05991559 1.2191037 -0.46580908 -0.1878052 0.4764789 -0.48376212 -0.030493822 0.7472072 -0.27741128 -0.15031642 -0.20913403 -1.0638751
86 0.24538039 0.00702053 0.80088025 -0.507418 -0.09851027 -0.7471749 -0.038310826 0.3439204 0.49662283 -0.37021688 0.6883798 0.051680975 0.08808137 -0.28583148 0.44595698 0.14003548 0.25791287 -0.2914799 -0.19454472 0.39266428 -0.39847085 0.021688225 0.47601902 0.12172227 0.504047 0.054223504 0.30013406 0.3251201 0.5856965 -0.3519831 -0.6068982 0.48901328 -0.43582734 0.09931897 -0.94844955 -0.5515049 -0.012092 0.17336528 0.7264772 0.21191439 0.053394243 -1.1564729 -0.5766573 -0.008238908 0.6505055 -0.26375067 0.7799729 0.06249533 -0.37678316 0.52389675 -1.0790718 -0.13015026 -1.0672396 0.77806777 1.0067673 0.5980022 0.736112 -1.0347863 -0.108441144 0.08962404 0.13536677 0.09925869 0.6384413 -1.0693579
80 0.13206051 -0.42461994 -0.21193606 -0.38572505 -0.02562458 -0.89512277 -0.14733264 -0.45564076 -0.059618372 -0.7450985 -0.06889704 -0.5335271 -1.2805982 0.27683875 0.44600388 1.034517 -0.63132113 -0.91488624 -0.07129265 0.3285537 -0.6926415 0.33426297 1.0146265 -0.77745813 0.23946896 0.074745975 -0.0073308167 0.4359625 0.23672514 0.1531246 -0.046110038 -0.38666353 -0.61043775 -0.1945758 -1.0827988 -0.772895 -1.3970206 0.3485042 0.3096907 0.19751506 -1.1443325 -1.0556939 0.006016389 0.23299892 0.041975252 -0.67478406 1.2557702 -0.64026695 -1.0852704 0.81094545 -0.31409344 -1.0007788 0.018402116 1.3045278 -0.65173423 -0.3314386 0.54442877 -0.5379508 -0.14876598 0.7277274 -0.37738273 -0.31316355 -0.24630758 -1.1934017
61 0.11834388 -0.40223348 -0.265801 -0.36014915 -0.011312913 -0.81175876 -0.13786986 -0.46649596 -0.11429242 -0.68871754 -0.15316115 -0.5435381 -1.2188021 0.32559958 0.42555672 1.0106612 -0.5916573 -0.8823916 0.027988693 0.29205 -0.547826 0.33636236 0.9323765 -0.7951698 0.19928221 0.118355155 -0.04731933 0.38071278 0.23373756 0.16773981 -0.061776035 -0.32573202 -0.5964586 -0.20485577 -0.9203108 -0.7644161 -1.3532205 0.35669318 0.24293312 0.18856034 -1.0556926 -0.9750952 -0.032698855 0.2542834 0.005350168 -0.6925642 1.103524 -0.63394463 -0.9904952 0.78206 -0.26666644 -0.95186704 0.035784807 1.2696327 -0.60656613 -0.31259084 0.48118687 -0.49594575 -0.1896457 0.66474956 -0.36155355 -0.30971387 -0.22661507 -1.1011391
12 0.2479442 -0.004041434 0.76144284 -0.49714816 -0.092508964 -0.73447466 -0.088792756 0.30593908 0.45636293 -0.35070226 0.646264 0.025193628 0.054529674 -0.25331184 0.4558421 0.17605379 0.2289412 -0.2854489 -0.13194054 0.37151802 -0.3933562 0.029214008 0.4423108 0.08172946 0.46716413 0.03850185 0.28676602 0.33694842 0.5581193 -0.31943 -0.5871819 0.4436063 -0.4343119 0.104667954 -0.9324214 -0.52888614 -0.036081966 0.1591448 0.6780947 0.20926718 0.009471707 -1.1117512 -0.54581225 -0.009306686 0.66670215 -0.25911292 0.7771124 0.035754874 -0.36362237 0.4922394 -1.0249138 -0.1758155 -1.0323144 0.7701815 0.9555901 0.57588464 0.7320163 -0.98888636 -0.11075199 0.10337637 0.088368006 0.11435146 0.5931349 -1.0310299
7 0.35155365 -1.2269406 0.5564299 -0.4897214 0.7423851 0.32930714 0.026365021 0.2993797 -0.9492158 -0.2427024 -0.41290325 -0.738127 0.008436697 -0.5184494 1.3755149 -0.481729 -0.21862142 0.08803378 -0.22534966 0.5713122 0.4806101 1.2204442 0.8527175 0.11821858 0.7681861 0.6784976 -0.6238535 -0.5629024 0.5020767 0.012061384 -0.22481644 0.39398167 -0.81132 -0.8736124 -0.1795913 0.32824773 -0.65658087 -0.37199798 1.0603065 -0.30576646 0.12982564 -0.40717927 -0.6200782 -0.9868983 -0.21310073 -0.8828951 -0.29782486 -0.7693604 -0.0742868 -0.08368247 -0.3912219 0.50763386 0.69606894 1.3202927 -0.5635179 -0.58702576 -0.25800374 -0.22324243 0.1294711 0.8816267 -0.61324614 -0.93089545 -0.18215005 -0.5234178
17 0.33208355 -1.2792349 0.5248567 -0.46527004 0.7827521 0.3758004 0.026261598 0.26636434 -0.9807569 -0.24561019 -0.501186 -0.7909637 0.0026768292 -0.4941281 1.3836542 -0.5094564 -0.23861173 0.0945784 -0.22452931 0.5541061 0.49029845 1.2721195 0.9010363 0.12860388 0.7882021 0.7414412 -0.6251756 -0.59356683 0.47727594 0.017738469 -0.18205115 0.3299858 -0.80883765 -0.8835608 -0.20903969 0.35461494 -0.704209 -0.40583232 1.0307182 -0.31768343 0.10928765 -0.41478083 -0.62239313 -1.0195531 -0.22917247 -0.92265975 -0.33962542 -0.7984918 -0.06395863 -0.10058394 -0.3877782 0.54628503 0.76029676 1.3664908 -0.6498324 -0.61435354 -0.34612322 -0.16081916 0.1747805 0.87151796 -0.6048755 -1.0002155 -0.18398623 -0.50476676
91 0.20200352 0.08497781 -0.1622118 -0.7952496 0.6132806 1.408321 0.35672534 -0.085006975 -1.4323578 0.87628835 -0.33722028 0.0136699295 -0.011586479 0.9420346 0.6126015 -0.15414973 0.6011868 0.5899971 -0.10691272 1.2091993 1.4512243 -0.5110586 -0.090387665 0.3941305 -0.3103507 0.1564964 -0.8625472 -0.62045574 0.17740901 -0.22810976 -0.28418386 2.4375 -0.58965874 -0.91101587 1.2551655 -0.6889083 -0.22492506 0.34964493 0.8485526 0.32728553 1.4176693 -0.22559084 -1.6558087 0.118267685 -1.0402288 -0.72964025 -0.49768335 -0.890272 -0.17672384 0.58986044 -0.51631224 1.1972781 -0.15679844 0.8325745 0.71333116 -0.2573732 0.0032194539 -0.70403355 -0.3476832 0.33425114 -0.05483706 -1.0018822 0.38993946 0.030785095
73 0.20040914 0.034620762 -0.114122 -0.8771567 0.6674257 1.4699675 0.33858168 -0.036317375 -1.4700623 0.894848 -0.34393892 0.03871332 -0.0016141344 0.9886489 0.680915 -0.16498204 0.5972352 0.6220786 -0.13190055 1.242045 1.5156447 -0.5117545 -0.09005626 0.40661508 -0.2960849 0.109521136 -0.9264132 -0.6412218 0.21372797 -0.23264554 -0.356015 2.5663502 -0.6107875 -0.9424238 1.279526 -0.7201547 -0.275159 0.3981625 0.94737184 0.34167388 1.4534596 -0.30622324 -1.739872 0.095996685 -1.1045916 -0.8017353 -0.49939513 -0.9460266 -0.22929546 0.58615136 -0.57348907 1.2337093 -0.20886078 0.9634315 0.7308946 -0.2586909 0.036867745 -0.780791 -0.4004347 0.36233717 -0.051504854 -1.0334697 0.43889678 -0.030232264
79 -0.31246632 -0.42419297 -0.4121853 0.036151193 -0.003555799 -0.43021518 -0.9347779 -0.79093605 -0.59972435 -0.28235114 -0.4330036 -1.0481381 -1.146021 0.284148 0.75608534 0.80208683 -0.1297611 -1.114791 1.1913935 0.45811918 0.20295012 0.45733395 0.8226276 -1.0905573 0.14484325 0.27146032 -0.46407983 0.29513603 -0.17324685 0.5840034 -0.18656243 -0.30419105 -0.83482534 -0.10897962 -0.062111847 -0.7555818 -1.307915 0.6209671 0.046108965 -0.12733604 -1.1046934 -0.34662595 0.15432532 0.28711098 0.1677765 -0.91309077 0.11730731 -0.50872487 -0.74633306 0.6010844 0.1383031 -0.9430738 -0.011055433 1.7328303 -0.6539204 -0.38646483 0.28718048 -0.3277352 0.31464833 1.2226748 -0.5430079 -0.08522127 -0.36291784 -1.1235591
56 0.36169267 -0.15704902 0.47811994 -0.34678894 -0.15543346 -0.900592 0.011812204 0.08719676 0.55237335 -0.6290337 0.60371774 -0.0034002815 -0.40840507 -0.19435145 0.22496715 0.50336486 -0.22095412 -0.39610067 -0.53961176 0.2744068 -0.7780576 0.093483835 0.6785118 -0.23197688 0.35641512 -0.12689376 0.28240302 0.4481064 0.44201234 -0.13021386 -0.31204587 -0.017309722 -0.2772698 0.08225528 -1.2733973 -0.5539709 -0.398523 0.11840714 0.58137953 0.2683595 -0.5211182 -1.0921631 -0.15103818 0.018152695 0.49253285 -0.21477938 1.2392327 -0.14805935 -0.633154 0.5811589 -0.75676394 -0.5823848 -0.64346707 0.70136315 0.24174887 0.38618308 0.7143382 -0.8345592 -0.13555099 0.26246294 -0.034838658 -0.0544123 0.22307564 -0.9850403
59 -0.43939233 0.029310158 -1.0070612 0.06579815 -0.053735595 0.45026347 0.79284185 -0.6390743 -1.4790074 -0.25439897 -0.41303003 -0.76664394 -0.32648414 -0.037163347 0.6705311 1.3812197 0.977493 0.64697 1.0826206 1.6666787 0.2781198 0.26560763 -0.42892143 -0.4290345 -0.5058655 0.09772221 -1.1143558 -0.85365885 -0.52467674 -0.4505902 -0.72806644 0.564434 -0.862808 -0.001063039 -0.0335784 0.1975222 0.15750383 0.49133116 -0.044001944 0.25466233 1.171149 -0.1769236 0.5711518 0.5994076 0.70828766 -0.22394317 -0.87334424 -0.443198 0.07288802 1.4180527 -0.27089733 0.7365836 0.3106328 -0.06757151 0.47660434 0.051335122 1.0716656 0.07827367 -0.42193162 1.2141682 -0.97167873 -0.12860051 0.019844538 -0.49051493
8 -0.8955922 -0.050954554 -0.93295527 -0.86129576 0.1195085 1.4178579 -0.20281258 -0.22934094 -0.47869444 0.24632128 -1.1018769 0.7052231 -0.25621125 0.6829753 0.92708087 0.15239124 0.26527825 0.03874554 0.34800625 -0.049781587 -0.2658512 -0.38040844 -0.34891424 0.30606014 -0.10160088 -0.33603847 0.1936142 0.18009989 -0.32283446 -0.18791121 0.19261006 0.5404512 -0.537949 -0.29472744 0.48761654 0.39585912 -1.057488 0.3627007 -0.1666798 0.159864 0.5986406 -0.8730911 -0.52776206 0.69220895 -0.607727 -0.53546363 -0.33845907 -0.18987677 -0.9483929 0.020830218 -0.22985062 0.44482008 -0.42380953 0.77220106 -0.6892502 -1.5653558 0.3745888 -0.1866109 0.11321388 0.25832048 -0.87337255 0.48858485 0.2953564 -0.91881275
77 -0.33302176 -0.8339151 -0.24482141 -0.07236747 0.17633125 0.60563236 0.5229197 -0.38155448 -1.6377125 -0.15595306 -0.5686775 -1.2456267 -0.38505536 -0.75313497 0.980594 0.27780595 0.47865587 0.12844425 0.6844541 1.1722136 0.6592855 0.7212247 0.29968226 -0.024991157 -0.06758065 0.3974735 -1.1441042 -0.8379252 -0.21072996 -0.16162477 -0.12875079 0.19133778 -0.77819175 -0.8370926 -0.4218223 0.63877535 0.09629549 0.03153916 0.47869408 -0.15104331 1.2752507 -0.45285627 -0.10875069 -0.010549325 0.3626154 -0.58758724 -0.9622432 -0.73113644 -0.099610955 0.4608682 -0.30762023 0.8410083 0.8468837 0.6995569 -0.3170801 -0.5435707 -0.05667423 0.18093029 0.1352478 1.2925699 -0.66005677 -0.71380526 0.049038637 -0.103281595
68 0.14091814 0.017567968 1.0393591 -0.61809015 0.08481133 0.30059892 -0.4754943 0.29958916 -0.124712065 0.15130113 -0.05002903 -0.23249216 0.3515367 0.11419087 0.7816278 0.15243176 0.2646511 0.7432132 0.057128686 -0.19312637 0.7310978 0.31386268 -0.61829436 -0.21385911 0.07588635 -0.42421845 -0.3869637 -0.37269366 0.5271969 -0.6899128 -0.72475487 1.0299157 -0.3683063 -0.36081466 -0.513557 0.4511006 -0.035848476 -0.13056393 0.86507106 0.28555548 1.2801025 -0.9086161 -1.0557454 -0.16185674 0.28578496 -0.5779143 0.27833384 -0.37250054 -0.00866589 0.37425146 -0.8022373 0.32575423 -0.8864294 -0.029201154 1.5489168 0.69004864 0.48381975 -0.86600244 -0.9822058 -0.493026 0.228802 0.006805568 0.5004615 -0.7902283
60 0.10013017 0.058839593 1.0008569 -0.53718716 0.10364517 0.47683835 -0.6336357 0.06441559 -0.40777433 0.27565867 -0.45178822 -0.47170937 0.2021056 0.3973267 0.99823266 0.2552389 0.06966266 0.69512653 0.10147905 -0.4444001 0.82427394 0.41561827 -0.7727041 -0.3952963 0.030505134 -0.37554145 -0.4325129 -0.41629592 0.39909646 -0.8686157 -0.4657123 0.8312766 -0.3945265 -0.537828 -0.67763466 0.6727482 -0.3891719 -0.16392186 0.7393748 0.20590137 1.3159773 -1.0590539 -1.2885295 -0.1624447 0.27965286 -0.7545516 0.42334792 -0.5886433 -0.17142922 0.6251961 -0.86614585 0.33406305 -0.94569725 -0.050726924 1.4500012 0.61226475 0.27666336 -0.8681566 -1.1687227 -0.6129703 0.14174433 -0.121470965 0.44390586 -0.82366115
87 -0.065577015 -1.1108088 0.2560717 -0.3407046 0.42183962 0.5613029 0.40398455 -0.19092968 -1.4729433 -0.13167852 -0.46021795 -1.1608667 -0.39255947 -0.81271964 1.328959 -0.15664676 0.20696336 0.06171259 0.34004325 0.79025644 0.7399933 0.99199766 0.52047265 0.17796588 0.30392602 0.48253602 -0.99931026 -0.7400265 0.1482554 -0.07274204 -0.078257486 0.40354618 -0.7753996 -1.0535563 -0.48438406 0.5940719 -0.2029574 -0.1783352 0.91642904 -0.28043857 1.0992936 -0.50028574 -0.5900242 -0.4545636 -0.044892095 -0.87977445 -0.8158649 -0.7380156 -0.17412227 0.13982332 -0.21753885 0.69746244 0.8365411 1.0717673 -0.55968577 -0.7023166 -0.33133122 0.12969807 0.13261682 1.3080095 -0.61012053 -0.84279823 0.08562277 -0.3489883
25 -0.33228827 -0.8052453 -0.44568473 -0.04026026 0.016952008 0.6179816 0.41966096 -0.41607267 -1.532999 -0.32953238 -0.46778452 -1.203815 -0.4773441 -0.62754095 0.6965151 0.59912974 0.6508674 0.22442143 0.8106583 1.4153116 0.8419377 0.5685103 0.2783032 -0.1889888 -0.350783 0.2564794 -1.1987468 -0.803203 -0.21063985 -0.12611037 -0.3796187 0.27490985 -0.6802208 -0.72259134 -0.3261237 0.56065834 0.46311373 0.026404224 0.3613623 -0.068510555 1.4123871 -0.52756816 0.11216482 0.31084794 0.54703546 -0.5087139 -0.9649914 -0.70899427 0.021865865 0.41186213 -0.30834243 0.70739174 0.8264036 0.6853301 -0.06278018 -0.4806318 0.391451 0.029275032 0.059772283 1.3201903 -0.72694206 -0.52144396 0.11131824 -0.07819996
43 0.40041876 -0.3289488 0.5378156 -0.7119583 0.3166657 -0.54963404 -0.2186962 0.6955213 0.3636961 -0.22822317 0.82086176 0.6068103 -0.59946567 -0.19871663 0.112241745 0.28174505 0.46723646 -0.092666745 -0.39970413 0.65968496 0.18780965 0.26715824 0.7674529 -0.33503613 0.30047435 -0.59024197 -0.3309578 0.06570881 0.51390094 0.47732684 -1.0708964 0.94599843 -0.24987958 0.47142524 -0.18815291 -0.5818668 -0.12604134 0.5024034 1.4294314 0.6212128 -0.33432996 -0.11341221 0.23706391 0.17619263 -0.35012707 -0.6706331 0.45019013 0.23885901 -0.66338634 -0.05356777 0.12426268 -0.5570183 -0.010039004 0.66314286 0.2895759 0.32380682 0.92268646 -0.7045209 0.106180854 0.41299918 0.057368226 0.23200305 -0.049137387 -0.86760134
58 0.46510798 -0.2761452 0.09911105 -0.4166109 -0.067073435 -0.6853209 0.09879931 -0.07510609 0.3490939 -0.76354706 0.23434032 0.0113233775 -0.92461276 -0.013740809 0.31095517 0.92582566 -0.37904468 -0.4164327 -0.75159127 0.50097024 -0.97374403 0.12692186 0.94196045 -0.5128677 0.21599948 -0.19275156 0.112153694 0.36278462 0.31288505 -0.0023797685 -0.20579663 -0.090630084 -0.37898123 -0.0052474374 -1.4171029 -0.5757791 -0.8449238 0.28223726 0.5511342 0.4047285 -0.78437823 -1.2220739 0.10529414 0.20536634 0.24569535 -0.38594812 1.3898953 -0.46376014 -1.1447293 0.73996145 -0.6699764 -0.7596875 -0.25133818 0.89015436 -0.2669445 0.19923142 0.92866427 -0.7826097 -0.116128884 0.43035716 -0.3533516 -0.2686173 -0.05608666 -1.0331997
84 0.3772322 -0.25012055 0.28685546 -0.30417913 -0.046127815 -0.9584178 -0.11556749 0.15500349 0.5531294 -0.5586051 0.66781294 0.19142771 -0.6977053 -0.10081815 0.001334089 0.5271059 -0.18317805 -0.49522823 -0.51013845 0.29170704 -0.5713442 0.1497011 0.80974513 -0.43829644 0.30533296 -0.28563887 0.119951986 0.45378953 0.39988855 0.25823295 -0.42961997 0.039402023 -0.1500893 0.29778895 -0.8310123 -0.71574247 -0.47896844 0.2622492 0.6990737 0.3749491 -0.86987007 -0.55003035 0.22917068 0.13481164 0.107914455 -0.32557124 1.0710857 0.037482835 -0.7040873 0.32499063 -0.17196338 -0.85870755 -0.20582978 0.67302513 -0.084254436 0.2598917 0.68603295 -0.599096 0.027732065 0.38982263 -0.023826681 0.06413263 -0.042287055 -0.84704417
28 -0.35983688 -0.38270247 -0.48979792 0.07516483 -0.003665302 -0.35047907 -0.9228115 -0.8624832 -0.68207085 -0.23944218 -0.5630561 -1.0751072 -1.1108725 0.35297894 0.75640917 0.75704426 -0.13481636 -1.135297 1.2566739 0.44735074 0.20963834 0.4312819 0.8152665 -1.0812129 0.12355983 0.36484298 -0.4512404 0.26009995 -0.24760874 0.5703237 -0.0785077 -0.36196584 -0.841631 -0.14236069 0.038521882 -0.7136088 -1.3284354 0.62878996 -0.08109903 -0.16237953 -1.1008072 -0.2927975 0.15352951 0.28472707 0.120822035 -0.8787744 0.0060301204 -0.5438465 -0.75197524 0.57479024 0.14193366 -0.9017522 0.026084743 1.7208649 -0.74082965 -0.46728006 0.17054583 -0.2432403 0.3227893 1.2058764 -0.552247 -0.10577912 -0.42473206 -1.0214342
76 0.43294165 -0.1906897 0.18311 -0.40388653 -0.052946333 -0.74021727 0.050305266 -0.00832272 0.42222977 -0.71330357 0.35149714 0.052877612 -0.77257985 -0.023385078 0.2824906 0.7733279 -0.3019681 -0.43508857 -0.6827747 0.39867094 -0.8864815 0.100448795 0.86027884 -0.436302 0.23309667 -0.19217186 0.17616771 0.3992611 0.33284685 0.0046262927 -0.2550827 -0.031880032 -0.35539034 0.07047948 -1.2912741 -0.5798897 -0.7045019 0.28891954 0.57153374 0.383726 -0.723817 -1.095087 0.05295368 0.15937757 0.2625351 -0.33865437 1.3132322 -0.34393394 -0.98709804 0.66432637 -0.6472129 -0.73872375 -0.3756251 0.8317008 -0.14090496 0.2645123 0.8765831 -0.7991825 -0.13377823 0.3285556 -0.22378464 -0.17816287 0.020517897 -0.9922128
96 0.14493711 0.37985566 -0.8119623 -0.7444636 0.47289076 0.88156503 0.29933295 -0.16747464 -0.60288703 0.15568228 -1.4484173 0.41102037 -0.45567024 0.8857686 0.6532219 0.560782 0.13646983 -0.07843466 0.053677835 0.3273445 -0.13161884 -0.24741177 0.21272747 -0.060029566 -0.22526056 0.4029116 0.037688144 -0.2679651 -0.29903576 -0.017098255 0.19379686 0.40894032 -0.6552701 -0.19716877 0.38741204 -0.0969822 -1.0257665 0.9328517 -0.33311293 0.29406098 -0.0065869335 -0.56429124 -0.22338615 0.5483443 -0.81582206 -0.592315 -0.2749737 -0.78828406 -1.1231589 0.40933606 -0.42896134 0.11849876 0.17918128 0.6868546 -0.26366395 -0.21607101 0.31871587 -0.3216699 -0.17218056 -0.5071842 -0.4178544 -0.24692938 -0.24506311 -0.148064
10 -0.0031457422 -1.1051152 0.28506562 -0.39160725 0.45978588 0.48616904 0.3229481 -0.10646583 -1.3803278 -0.17322631 -0.4786 -1.1041151 -0.40044338 -0.742924 1.3126175 -0.15152967 0.1229163 0.025651556 0.24407852 0.74807924 0.6998524 1.0187333 0.6124149 0.12523574 0.37756428 0.47863844 -0.9291386 -0.7062613 0.21043734 -0.043028444 -0.08703514 0.365322 -0.7985469 -1.020622 -0.53038996 0.52144384 -0.30224663 -0.15397544 0.96313703 -0.26631573 0.9318002 -0.570121 -0.5912704 -0.47830418 -0.06734141 -0.9127858 -0.6836639 -0.7658771 -0.23593569 0.1194607 -0.2589345 0.63878334 0.787677 1.1437795 -0.54594225 -0.61856973 -0.2961915 0.036441896 0.16131979 1.2125045 -0.56856394 -0.838226 0.06073908 -0.39457518
70 0.07476913 0.070512444 0.9944847 -0.51019514 0.12948886 0.5131552 -0.64330274 0.031032648 -0.46516764 0.28384337 -0.53673077 -0.5117135 0.19319361 0.42612907 1.0426625 0.25899872 0.0321032 0.68849915 0.10870775 -0.48997283 0.83335626 0.40515748 -0.7694122 -0.39924768 0.017170537 -0.35685712 -0.4394229 -0.43399557 0.37434903 -0.9227368 -0.4146651 0.7960328 -0.3930366 -0.56602716 -0.68506277 0.7037179 -0.43292078 -0.1430616 0.69409436 0.19527456 1.3156306 -1.0400063 -1.3234944 -0.16946848 0.2555 -0.76158404 0.42932388 -0.6081634 -0.22147883 0.65081525 -0.8897151 0.33177075 -0.92997414 -0.05064834 1.4444369 0.59641373 0.1879492 -0.8487436 -1.195309 -0.64646083 0.14736566 -0.13844098 0.4209161 -0.7672736
104 0.3848012 -0.33271837 0.50766754 -0.67774713 0.29278564 -0.49116215 -0.21464217 0.69201565 0.36847356 -0.19485891 0.8331846 0.6255501 -0.5389052 -0.24978164 0.05879551 0.25561777 0.528308 -0.046818096 -0.38998663 0.7081342 0.19027755 0.24184722 0.7257062 -0.3016454 0.25891638 -0.58407754 -0.3265069 0.03237671 0.484191 0.47347984 -1.1042166 0.9600664 -0.2501082 0.4894771 -0.1437545 -0.5706152 -0.03606387 0.47267804 1.3848526 0.59639233 -0.2605533 -0.07087462 0.25734925 0.18307538 -0.30036327 -0.61605406 0.35984668 0.28930143 -0.587726 -0.07981263 0.15436435 -0.5215938 0.003076147 0.5706099 0.30330482 0.337201 0.9252085 -0.640838 0.13625829 0.40304923 0.046116963 0.27837962 -0.0406525 -0.8346665
23 0.104148984 -0.3567145 -0.7118419 -0.21538658 -0.10809961 0.56236815 0.21570256 -0.010671916 -0.67794544 -0.57230204 0.0143057555 -0.29373085 -0.49526435 0.12796304 -0.024480166 1.2650812 0.92976284 0.8642384 0.70634955 1.5361187 1.06817 0.19386314 0.056736898 -0.39770877 -0.80724394 -0.28642067 -0.94495106 -0.73241913 -0.010121455 0.022821391 -1.3141255 0.9907931 -0.22257341 0.11865367 0.35868335 0.034429386 1.1172642 0.14260086 0.19674636 0.3394207 1.2183481 -0.045059867 0.68849903 0.64506125 0.26502067 -0.31671503 -0.8169956 -0.24054399 0.36299434 0.20378111 0.14326447 0.19399558 0.5952478 0.22653672 0.65643734 0.023878084 1.6104782 -0.24828482 -0.24586692 0.9475284 -0.7314098 0.26226777 0.13790073 -0.20767844
72 0.13220268 -0.018958779 0.9989478 -0.52744555 0.081448324 0.2276739 -0.5137649 0.28732437 -0.07547595 0.12077519 -0.032033015 -0.20641139 0.25674412 0.10677049 0.6770698 0.17625917 0.17889084 0.7038526 0.039276086 -0.22131005 0.6837525 0.34278855 -0.5799377 -0.26096752 0.060624626 -0.47174972 -0.38387993 -0.32213402 0.49636918 -0.6008115 -0.6999585 0.9204744 -0.280665 -0.31200916 -0.4707579 0.42232502 -0.027972141 -0.12725583 0.852072 0.28235102 1.1395901 -0.795826 -0.91516685 -0.14479733 0.23823217 -0.52824974 0.30106565 -0.32467902 0.02630141 0.31307098 -0.6531395 0.23303774 -0.7843073 -0.091241054 1.384349 0.65588796 0.4537406 -0.78008574 -0.9347058 -0.46148413 0.23712999 0.020960983 0.4394831 -0.7232733
37 -0.4921075 0.050566133 -0.99872804 0.14380401 0.001701803 0.4110181 0.827003 -0.7083324 -1.5457436 -0.24075821 -0.4982737 -0.7867578 -0.37305626 -0.054670326 0.7296785 1.2992338 0.8854328 0.52823097 1.0759258 1.5946302 0.17465498 0.25682107 -0.39550814 -0.39926198 -0.43683302 0.20998326 -1.083876 -0.8236339 -0.60270596 -0.4775336 -0.56988466 0.3978035 -0.90365136 -0.040579922 -0.079750665 0.22883064 0.02440598 0.5293286 -0.111743525 0.17740986 1.0932448 -0.18381646 0.5367581 0.57512593 0.7430736 -0.2206712 -0.8331531 -0.5137173 -0.022507293 1.4548306 -0.33361536 0.78590447 0.3061021 -0.026979692 0.34645414 0.027409457 0.9039718 0.1599817 -0.3499558 1.2161263 -0.999504 -0.1911195 -0.031898875 -0.4923771
102 -0.43739742 -0.4458037 -0.49514702 0.10697818 0.018803626 -0.20004167 -1.1035498 -0.91732347 -0.8465565 -0.1105268 -0.6829715 -1.2358292 -1.0715113 0.33200225 0.8995758 0.7524433 -0.0038289733 -1.0942179 1.5710089 0.51440024 0.48673302 0.47000375 0.75623614 -1.1300397 0.11376696 0.36273915 -0.6161141 0.1676334 -0.3261338 0.6523011 -0.17411253 -0.24029745 -0.9487162 -0.14772217 0.26333752 -0.6768487 -1.269957 0.6959259 -0.040294696 -0.22501554 -0.97123694 -0.15946475 0.14304295 0.29902598 0.124496736 -0.9558332 -0.28353447 -0.53828984 -0.6524313 0.5704405 0.22363585 -0.82916003 0.017152684 1.8219157 -0.67312664 -0.48865393 0.15086888 -0.21467477 0.41736275 1.3537943 -0.6279211 -0.08235392 -0.43331042 -1.0380867
71 0.3590402 -0.2585924 0.43200293 -0.51878834 0.16310157 -0.79485863 -0.2319653 0.4859932 0.52723515 -0.3461602 0.8754368 0.49866632 -0.60856825 -0.2368116 -0.014189466 0.2936809 0.27652732 -0.3425634 -0.42721975 0.5239333 -0.18388094 0.19358855 0.8414137 -0.32840624 0.32214132 -0.42470568 -0.0980111 0.2665315 0.4872034 0.40756845 -0.8397425 0.51372594 -0.19522862 0.47282574 -0.42500854 -0.70276314 -0.20523812 0.44753352 1.1513761 0.4913552 -0.6364256 -0.21005946 0.2627031 0.15362953 -0.11998042 -0.47882754 0.6639038 0.24660055 -0.61433315 0.04381902 0.047728416 -0.7171341 -0.14168686 0.66340524 0.13910125 0.29633605 0.77084225 -0.6536265 0.18300582 0.4231817 0.07484159 0.25020093 -0.06396892 -0.86349547
51 0.040833797 -0.43143803 -0.23867077 -0.36811167 -0.013905561 -0.80064464 -0.07797716 -0.4564155 -0.15697475 -0.6686036 -0.1317981 -0.5694445 -1.1541843 0.29689825 0.3867666 0.931539 -0.62808645 -0.8230606 0.05143675 0.28692272 -0.4880044 0.354727 0.8427378 -0.72570837 0.20229499 0.1262366 -0.07297811 0.3239664 0.24896955 0.10187044 -0.038293254 -0.33933988 -0.5520293 -0.21648449 -0.87631524 -0.70031846 -1.2863975 0.2565075 0.225025 0.14060384 -0.9687728 -0.899611 -0.058921166 0.20389517 -0.0043438696 -0.63700706 1.0472511 -0.6126614 -0.86844665 0.73854357 -0.22997318 -0.85802543 0.10222602 1.1485889 -0.59557414 -0.36918393 0.39819184 -0.41294935 -0.19791889 0.6798935 -0.32423124 -0.32584018 -0.22118062 -1.0301512
98 0.036615707 0.05478777 0.9495665 -0.50930023 0.15996523 0.7765104 -0.69434077 -0.042927146 -0.7356255 0.38643572 -0.8821706 -0.6742848 0.047670316 0.6143345 1.1809255 0.34759846 -0.054637294 0.6748129 0.16067544 -0.52063626 0.994124 0.51790935 -0.84752655 -0.487638 -0.020603616 -0.2968975 -0.50881517 -0.5798581 0.32476714 -0.9974166 -0.3096719 0.7300405 -0.45836785 -0.68425715 -0.71856046 0.89383787 -0.66821307 -0.15490954 0.63869 0.19212894 1.3978896 -1.0931349 -1.4643613 -0.13334641 0.15316746 -0.9718077 0.47858536 -0.7927176 -0.36607808 0.78912276 -0.93480724 0.35475954 -0.8567291 0.013163322 1.3260301 0.48760054 0.06492934 -0.8339875 -1.2761106 -0.6728519 0.044408817 -0.24093182 0.37264502 -0.78078973
93 0.496649 -0.18874554 0.08241179 -0.42567936 -0.043399747 -0.6285365 0.22636496 -0.064621694 0.33665416 -0.73145294 0.1480191 0.055361908 -0.8088019 0.008049543 0.3482405 0.8601469 -0.40689394 -0.3707277 -0.87599397 0.42526457 -1.1248616 0.07562242 0.8851237 -0.37607777 0.2072764 -0.12479754 0.25784934 0.38854024 0.2695861 -0.11944647 -0.05845159 -0.12630801 -0.35997742 -0.05899446 -1.5155843 -0.49599504 -0.82761806 0.2294943 0.4284531 0.3804751 -0.717662 -1.3319955 -0.02354777 0.1787155 0.26846927 -0.30465233 1.4220434 -0.5000587 -1.1522686 0.7599482 -0.79645693 -0.682053 -0.34604746 0.8185319 -0.2814941 0.20198175 0.8699813 -0.8069891 -0.15558425 0.26861197 -0.33970407 -0.31347597 -0.0011452658 -0.9470544
15 0.19467676 -0.3920118 -0.24105085 -0.4112709 0.04977561 0.44149044 0.13124412 0.32873955 -0.38747573 -0.41366526 0.28802416 -0.11915447 -0.3205021 -0.05284425 -0.060824327 0.8663245 0.776326 0.8129625 0.45870155 1.3016925 1.0645807 0.27161887 0.012582084 -0.3061064 -0.5453128 -0.44376367 -0.94849455 -0.65611 0.11280353 0.2177082 -1.3516601 1.1300267 -0.1315825 0.18030414 0.44939294 0.04488706 0.99719423 0.075108744 0.5343886 0.3777345 1.065051 0.1569351 0.62785745 0.4140493 -0.0099485805 -0.38176548 -0.73223877 -0.07552924 0.3528415 -0.097624786 0.3228894 0.14424275 0.61622477 0.09468637 0.64460194 0.14027378 1.3141801 -0.13082807 -0.22007698 0.783528 -0.47851065 0.2951404 0.10652338 -0.18264098
21 -0.40599236 -0.42033657 -0.51696575 0.04837565 0.033462707 -0.17159423 -1.0849681 -0.8844932 -0.81957537 -0.11763364 -0.6892731 -1.141656 -1.1246313 0.39420778 0.9177468 0.7834289 0.033588294 -1.1296226 1.5068321 0.52904445 0.42605177 0.45925218 0.79121804 -1.1585246 0.10096176 0.3713301 -0.5994993 0.19539924 -0.31726703 0.670937 -0.19283894 -0.21217369 -0.9670324 -0.116512395 0.26185662 -0.72075677 -1.3195432 0.77018553 -0.009726654 -0.16747518 -1.030792 -0.22137344 0.16262731 0.31750518 0.09608568 -1.0203108 -0.26669642 -0.5718228 -0.7554165 0.5552884 0.21319075 -0.8665789 0.010779195 1.8728678 -0.67691606 -0.4374082 0.23407103 -0.27906337 0.41336223 1.3072941 -0.6287076 -0.0589308 -0.42982137 -1.0958663
22 0.07159785 -0.41384134 -0.44119427 -0.47145915 0.09513866 -0.65474755 0.015846489 -0.5260372 -0.29376012 -0.70283675 -0.38556257 -0.5924418 -1.2815169 0.49186733 0.51939476 1.0853025 -0.70961267 -0.84790754 -0.0008200114 0.38011992 -0.560804 0.31537935 0.93847483 -0.7527915 0.1198577 0.15945859 -0.06806155 0.25755796 0.18182261 0.062363606 0.066664495 -0.32999763 -0.6483637 -0.3217151 -0.97056675 -0.702557 -1.5055358 0.36751232 0.19596852 0.23273072 -0.97011614 -1.1145047 -0.12325122 0.30477962 -0.116673976 -0.7663724 1.1161467 -0.80425453 -1.1351078 0.8671988 -0.3348118 -0.8319584 0.1946837 1.2986549 -0.7639352 -0.47277686 0.43868968 -0.4261939 -0.30853736 0.63662905 -0.47940856 -0.41704744 -0.2640597 -1.1017257
30 -0.39755213 -0.43326858 -0.45563826 0.04324714 0.036631025 -0.1970785 -0.99674827 -0.83384985 -0.8190274 -0.14914384 -0.6500045 -1.1521634 -1.0448674 0.34629554 0.86198956 0.71518505 -0.04002517 -1.0619419 1.3891546 0.49493378 0.40538037 0.4611753 0.7610076 -1.083231 0.13915418 0.355591 -0.5682441 0.17586133 -0.25999725 0.56112695 -0.16438265 -0.22812547 -0.9126821 -0.19566387 0.16649675 -0.6642274 -1.2900922 0.625462 -0.022396814 -0.18094678 -0.94315374 -0.2849768 0.08736271 0.26652923 0.11111548 -0.9428935 -0.19210814 -0.55753976 -0.7062363 0.5748312 0.16499354 -0.7655576 0.0075345477 1.7718339 -0.66393775 -0.47580266 0.17096066 -0.27830398 0.33810136 1.2597587 -0.60794306 -0.12944211 -0.37719837 -1.0574753
0 -1.1256974 -0.32204083 -0.7939752 -0.981762 0.046114154 1.5379653 -0.3456283 -0.18036513 -0.51204413 0.21514961 -0.88707066 0.70549875 -0.22201167 0.5279466 1.1588238 0.07047516 0.37464312 0.15025787 0.4493402 0.00031786843 -0.13782388 -0.27896586 -0.44292164 0.38992554 -0.014609622 -0.5894933 0.06924279 0.23173387 -0.18200174 -0.29020226 -0.010113965 0.8102904 -0.57184833 -0.36276162 0.42189372 0.5342368 -1.0441806 0.2258496 0.17691159 0.17101444 0.9350589 -1.0770466 -0.6771878 0.66164327 -0.48475367 -0.67177564 -0.32984504 -0.034721084 -0.87894315 -0.028898666 -0.28492063 0.5455053 -0.60681516 0.9276598 -0.63096833 -1.8669204 0.5208466 -0.3199732 0.123033784 0.5930369 -0.99860716 0.65233046 0.48244417 -1.3121462
44 -1.1304193 -0.3130312 -0.819918 -0.8728864 1.7873825e-05 1.4392128 -0.36658886 -0.21217304 -0.4447377 0.19921006 -0.8352631 0.6665335 -0.18184271 0.49027005 1.050913 0.07161262 0.33875078 0.07272463 0.4450474 -0.07556406 -0.18593363 -0.2867792 -0.45978943 0.377048 0.015082589 -0.54932076 0.11618469 0.25334385 -0.22481003 -0.24162598 0.06435577 0.6290425 -0.52837306 -0.3373508 0.42786208 0.5302931 -0.98354006 0.13537599 0.08824286 0.11773149 0.7997912 -0.9602651 -0.6420237 0.6376862 -0.40998712 -0.5614846 -0.29962835 0.0034726767 -0.78613216 -0.06500371 -0.18945873 0.48514903 -0.6081737 0.84652644 -0.6816128 -1.8654499 0.4114528 -0.21196677 0.13234758 0.6110569 -0.9729885 0.6246943 0.46503922 -1.2274342
20 -1.1175537 -0.28935435 -0.8368596 -0.9290831 0.0148914475 1.4425169 -0.3884435 -0.22594708 -0.42941055 0.19726318 -0.8755227 0.70349044 -0.20914283 0.55659616 1.065613 0.09056283 0.3184841 0.08596965 0.450807 -0.0838587 -0.23004247 -0.3150513 -0.4577149 0.36910224 0.0020386064 -0.55854404 0.17931116 0.2714699 -0.20930466 -0.26885238 0.04150515 0.6536477 -0.5174573 -0.2968137 0.39715138 0.51976204 -1.0286906 0.20699039 0.060154278 0.16303615 0.7939103 -1.028464 -0.6406112 0.67828417 -0.45613497 -0.6037594 -0.29143208 -0.0074558835 -0.835496 -0.041062273 -0.22302563 0.44951323 -0.6385779 0.8615982 -0.68796486 -1.8520535 0.45383844 -0.27550685 0.13809726 0.5531923 -0.95710003 0.68823326 0.4625164 -1.245601
95 0.08617301 0.06852464 0.9096885 -0.4541988 0.118092224 0.49466634 -0.54441315 0.03538508 -0.44269004 0.27383307 -0.5001158 -0.47457376 0.13919047 0.38349107 0.9798589 0.25515258 0.037293572 0.6091278 0.09855826 -0.4242595 0.7268788 0.38125157 -0.6909097 -0.36969262 0.03383046 -0.3216056 -0.35908765 -0.41589493 0.33550453 -0.8644439 -0.3788675 0.67973864 -0.36758104 -0.50289667 -0.6660525 0.6710106 -0.42424658 -0.15238953 0.63412195 0.17862093 1.1729828 -0.9977516 -1.2135065 -0.14899105 0.252194 -0.73192436 0.41897184 -0.5613229 -0.24079497 0.62391275 -0.8374927 0.31135726 -0.8328711 -0.022918887 1.2956845 0.5412776 0.18298657 -0.7771361 -1.0741314 -0.5801891 0.08836754 -0.11303085 0.37639695 -0.7317495
27 0.26884985 -0.3821866 0.010857053 -0.6382595 0.15637928 0.36824718 0.022463236 0.54634625 -0.24298579 -0.24183194 0.29075527 0.14792112 -0.36376154 -0.030497257 0.027643425 0.6853112 0.67216945 0.73691934 0.2328196 1.1440259 0.98997104 0.20656776 0.15774754 -0.3458081 -0.40480557 -0.5637764 -0.85535794 -0.58755213 0.22546323 0.3940779 -1.3745902 1.2885785 -0.18353225 0.28209466 0.4910126 -0.075974345 0.6626904 0.21303901 0.8255506 0.48566845 0.8117476 0.25241244 0.53039086 0.32562205 -0.33299506 -0.5288268 -0.52941155 -0.06640856 0.09412319 -0.24573362 0.39562288 0.016019987 0.55370224 0.14159274 0.4774748 0.19973889 1.1978393 -0.16432604 -0.1507407 0.56017435 -0.3125084 0.3032071 0.051938497 -0.2712851
92 -1.0994929 -0.30212623 -0.6992137 -0.91236055 0.00876829 1.4152569 -0.38451067 -0.1335908 -0.3839949 0.22223385 -0.7539949 0.72086465 -0.15331018 0.49370295 1.0275581 0.009177037 0.35189974 0.14714837 0.40031347 -0.1069576 -0.19224791 -0.29661924 -0.48028582 0.3885803 0.009729489 -0.6024026 0.16235298 0.27987078 -0.1630954 -0.2617675 0.0050337734 0.68346554 -0.4872862 -0.29977885 0.4167774 0.553895 -0.9318714 0.12551548 0.13453552 0.15062362 0.8529889 -0.98465043 -0.63980454 0.6086959 -0.42122367 -0.54994094 -0.29632652 0.058146037 -0.7636032 -0.07286249 -0.21557514 0.5037493 -0.64258873 0.7874806 -0.61011785 -1.7881073 0.43549788 -0.264377 0.14878994 0.5265355 -0.9060774 0.7015662 0.48780826 -1.2290716
67 -0.1524522 -0.09308655 -0.8877303 -0.05429785 -0.060104325 0.49354583 0.4628799 -0.30915132 -0.97791785 -0.45107442 -0.14834079 -0.46401432 -0.47438592 0.15876804 0.2642462 1.4154601 0.9150551 0.7460956 0.8789025 1.5846138 0.66213334 0.17513871 -0.20845857 -0.4485635 -0.7025604 -0.1003798 -0.9525266 -0.73272437 -0.26154062 -0.21585883 -1.0759643 0.784197 -0.5491708 0.09944986 0.16083398 0.049783878 0.60250753 0.33819556 0.0020679764 0.3026592 1.1723719 -0.1294451 0.63161075 0.68820125 0.5165838 -0.25157392 -0.77224946 -0.34770304 0.17097378 0.8677339 -0.09313873 0.43560636 0.3909434 0.08192208 0.6683579 0.12041455 1.4347142 -0.108956024 -0.4004524 1.0371362 -0.85705817 0.10408642 0.06514745 -0.392589
94 0.016101962 -0.5615735 -0.72003824 -0.14653705 -0.07690253 0.6865384 0.16338475 -0.18130794 -0.8705313 -0.6342375 -0.15874077 -0.59191746 -0.56085956 0.03540814 0.123876914 1.2210484 0.8147886 0.7056723 0.7954206 1.5506136 1.1328079 0.29323366 0.17199895 -0.3534663 -0.7982288 -0.07306398 -0.9894328 -0.7058876 -0.02664807 -0.017683737 -1.1244891 0.79263544 -0.32388797 -0.19176193 0.2074284 0.17737633 1.037677 -0.0028497514 0.10860545 0.17177558 1.3093044 -0.3086278 0.52666384 0.62194204 0.37137794 -0.3529947 -0.8171434 -0.4460288 0.3427005 0.18827365 -0.03972912 0.27460855 0.71095306 0.49870655 0.5254135 -0.20084532 1.4207836 -0.24916117 -0.21996756 1.0852123 -0.7868242 0.014465763 0.14597611 -0.14731233
4 -0.11779243 -0.72831273 -0.5897379 -0.045768663 -0.057289947 0.65014637 0.24191439 -0.2758631 -1.1689291 -0.48731834 -0.29343963 -0.917684 -0.4772038 -0.25650513 0.33147258 0.8118383 0.6386137 0.46303642 0.74549294 1.3822619 1.045153 0.4462759 0.27400142 -0.21758878 -0.56650037 0.120336466 -1.0682037 -0.7638426 -0.077064484 -0.0009055166 -0.66451204 0.45598927 -0.355961 -0.4619227 0.00067526463 0.40888664 0.8466643 -0.04724104 0.19543011 -0.031777464 1.2673485 -0.30800316 0.30737177 0.41845563 0.4254391 -0.41437075 -0.92866594 -0.56991255 0.25419772 0.16016139 -0.07374945 0.446996 0.8437494 0.60202897 0.13108796 -0.41610354 0.8040975 -0.07158439 0.0037024368 1.1618845 -0.7355423 -0.28898045 0.06651255 0.01543392
97 0.3434256 -1.0756686 0.5132909 -0.4656781 0.7091792 0.30729887 -0.062877774 0.29416776 -0.73068124 -0.20396474 -0.41523203 -0.55794406 0.046278767 -0.38291657 1.2273885 -0.4783707 -0.27586582 0.062503554 -0.27479565 0.3988985 0.4243164 1.0772861 0.804284 0.13805829 0.73450786 0.60190463 -0.47896686 -0.43387148 0.46080977 0.05618309 -0.19925314 0.30775586 -0.6731215 -0.7468988 -0.14055727 0.25719652 -0.6773075 -0.36263213 0.98522985 -0.27408326 0.02399601 -0.38103658 -0.5939455 -0.91925716 -0.2836589 -0.82214516 -0.1794566 -0.67371505 -0.118737616 -0.14434779 -0.30722502 0.3886158 0.5638847 1.1717271 -0.521285 -0.56210244 -0.28126252 -0.19302174 0.13830167 0.65336084 -0.48893693 -0.82137036 -0.16467872 -0.53434056
99 0.10246539 -0.35023618 -0.2676353 -0.4405692 0.086657986 -0.60225934 0.091685586 -0.37396413 -0.17530721 -0.6159915 -0.2397558 -0.4295679 -1.0527638 0.3625882 0.3807724 0.91626227 -0.6227365 -0.5859993 -0.18559536 0.3112119 -0.5668871 0.23856619 0.8225761 -0.57794034 0.15656058 0.09414514 -0.05892092 0.22228375 0.22810592 -0.00865776 0.06531816 -0.2500907 -0.54295856 -0.2660939 -0.9464315 -0.5681513 -1.2121034 0.26966086 0.22124308 0.20121107 -0.79605854 -0.98584247 -0.1296953 0.23965678 -0.10836269 -0.5856834 1.0399721 -0.6553224 -0.96360695 0.69027144 -0.35536242 -0.6807196 0.17264569 1.0144907 -0.62209517 -0.39416245 0.39149955 -0.3957967 -0.31732127 0.49685156 -0.3601762 -0.38231423 -0.23549555 -0.8994698
66 0.4015961 -0.2093348 -0.014975259 -0.3836712 -0.023021884 -0.5221254 0.20322794 -0.12107766 0.18876907 -0.7052187 0.033399742 -0.028964186 -0.7745571 0.05946077 0.42068404 0.8213627 -0.37437376 -0.35828578 -0.7190343 0.4423982 -0.9634104 0.08450554 0.7843991 -0.36952072 0.19516593 -0.06316723 0.15822762 0.3175035 0.21807416 -0.089367315 -0.06379613 -0.08820433 -0.4259129 -0.12701088 -1.350275 -0.43470928 -0.8470031 0.25072047 0.37252674 0.32945964 -0.626798 -1.2377476 -0.014003085 0.1814798 0.20405172 -0.33112982 1.250669 -0.55373204 -1.0920556 0.7632315 -0.74127865 -0.5924067 -0.26333302 0.8157444 -0.31686804 0.09957333 0.7914808 -0.7433172 -0.15640612 0.3192586 -0.34781423 -0.33538517 -0.03459115 -0.9153455
53 0.39303377 0.54141235 -0.44060642 -0.4616354 0.48709673 0.4354076 0.27247578 -0.046400655 -0.44962835 0.089303076 -0.9226219 0.24401571 -0.34474644 0.7585796 0.35323253 0.49041963 0.05104036 0.05900536 -0.14579646 0.4162551 0.08259272 -0.16163789 0.29556632 -0.24463716 -0.14334802 0.3206394 -0.06506478 -0.39709312 -0.11337344 0.052394744 -0.0603066 0.57224154 -0.44854066 -0.118114635 0.19131707 -0.26762012 -0.5506844 0.7871259 -0.07570067 0.41786957 -0.08434778 -0.28042266 -0.09016838 0.29376575 -0.58276606 -0.5076019 -0.19231862 -0.79023623 -0.770174 0.41222465 -0.44029748 0.045069866 0.14493385 0.32425618 0.18510616 0.51089466 0.26922977 -0.3468971 -0.3133342 -0.5647852 -0.088544436 -0.34762844 -0.34507412 0.1615634
24 0.0045545837 0.05126969 0.6036252 -0.33445147 0.12396628 0.6541092 -0.52255297 -0.16088288 -0.6305588 0.29066262 -0.82129675 -0.59596556 -0.033460982 0.56226593 0.98214394 0.26933026 -0.1308898 0.41868532 0.13063252 -0.46013036 0.7192444 0.3881186 -0.6383749 -0.38857535 -0.034574695 -0.1562718 -0.3696095 -0.4318637 0.17515567 -0.82370925 -0.09915733 0.419219 -0.3489318 -0.5847802 -0.5545915 0.71029913 -0.667977 -0.12556632 0.38231912 0.099732056 0.99432206 -0.853693 -1.1397554 -0.1259404 0.11418039 -0.7334094 0.4060853 -0.65819126 -0.38190493 0.65486807 -0.71692 0.28731656 -0.64721936 0.0788873 0.9141612 0.27990067 -0.06509355 -0.6175649 -0.9493901 -0.52170855 -0.030174334 -0.24662447 0.25853866 -0.5360983
48 0.058895357 0.20326492 -0.4389501 -0.42766628 0.26840863 0.5303458 0.12041183 -0.06545047 -0.3636958 0.105707675 -0.8065991 0.2524918 -0.24469131 0.4994259 0.37383065 0.3185549 0.073165014 -0.059175313 0.044689484 0.19411214 -0.034775607 -0.17085701 0.11064057 -0.034321826 -0.108948864 0.16341904 0.015890654 -0.16349548 -0.17666174 -0.01608254 0.07467854 0.279672 -0.4069502 -0.116736315 0.20294204 -0.031502914 -0.5664626 0.5100585 -0.13740656 0.19564922 0.019219916 -0.34977463 -0.14316544 0.33696103 -0.48548308 -0.367865 -0.1569311 -0.45210576 -0.6430414 0.25138733 -0.26365018 0.07943715 0.08985632 0.41313994 -0.15149127 -0.16366689 0.18989281 -0.1991232 -0.10523739 -0.26376888 -0.26056457 -0.100624084 -0.09095542 -0.14620718
82 0.35167748 0.44614697 -0.39162973 -0.36296177 0.43671548 0.33050346 0.29164714 -0.042644463 -0.3920556 0.07737743 -0.7937405 0.22965205 -0.33331633 0.6735737 0.2790928 0.50068146 0.012578259 -0.017026547 -0.16933255 0.41913083 0.0554532 -0.1489316 0.33572483 -0.26516384 -0.1316961 0.34299073 -0.0872756 -0.28519258 -0.08492422 0.044625282 -0.015809102 0.46982563 -0.39687744 -0.05653694 0.11440677 -0.28929925 -0.4453599 0.72936034 -0.08544878 0.34151262 -0.13315767 -0.22087312 0.0019996788 0.24639952 -0.50757146 -0.44154334 -0.16198486 -0.7046106 -0.6835848 0.36037797 -0.35002747 -0.037355248 0.1553703 0.36571422 0.15994178 0.4697247 0.24253677 -0.29633173 -0.2661495 -0.47864076 -0.061465878 -0.37598813 -0.33727932 0.13799559
