100 64
28 0.25418642 0.038240433 0.27093294 -0.39989918 -0.16200711 -1.0156219 -0.61611605 0.09831214 -0.52315557 0.19584058 0.8239952 0.15676181 0.802929 0.06901223 0.35906178 -0.28183946 -0.4403419 0.25709242 -0.19304632 0.22193803 -0.11996611 -0.45533165 0.7589127 -0.29750368 0.7350526 0.17201886 -1.0818596 -0.2222845 0.001699876 -0.020032203 -0.20458984 0.7011923 -0.66897655 0.24148895 0.78973377 0.37350145 -0.38949677 0.6638739 0.441508 0.47048077 -0.0037278289 0.7835809 0.25868645 -0.7958261 -0.5678006 -0.19900268 -0.40863532 -0.029782109 -0.13729706 0.73186815 0.18414856 0.6943093 0.34138697 -0.17897765 0.34815925 0.99981725 0.36865178 -0.7922273 -0.096345 -0.35232818 0.23409891 -0.6190951 -0.34185734 0.2578329
78 0.23199368 0.108101845 0.27493796 -0.45323497 -0.036829755 -1.0201263 -0.6223526 0.0073953494 -0.4979819 0.1935302 0.72546154 0.25151226 0.8412662 0.06775289 0.32494283 -0.38684013 -0.50698555 0.343388 -0.14836569 0.13497448 -0.055305734 -0.62911564 0.71822625 -0.10442324 0.6637738 0.18873331 -0.9629439 -0.2055617 -0.029397454 -0.09596867 -0.11369727 0.81465214 -0.4578528 0.27169815 0.797634 0.37919995 -0.38383496 0.7163887 0.2769814 0.5309792 0.09202686 0.8225245 0.20201959 -0.7885265 -0.7559178 -0.2088947 -0.40720615 -0.012466523 -0.21822262 0.597831 0.19837911 0.5946896 0.3936937 -0.29162937 0.20096125 1.0413393 0.16713122 -0.7961748 -0.11623574 -0.3979746 0.26629192 -0.33676007 -0.25025266 0.40081784
64 0.37290427 -0.5764642 0.68716496 -0.21486631 0.0793633 -0.555663 0.2200289 -0.014993921 -0.65178907 -0.18244264 0.48917183 -0.97861624 -0.6479769 -0.48838437 0.0040527927 0.6504893 0.71566546 -0.28365806 0.19701605 0.59314877 0.665717 1.1749061 0.8219466 -0.8393059 -0.39537326 0.5483652 -1.0981314 -0.23216726 -0.008472662 -0.17111371 -0.23272623 0.109752946 -0.7525763 -0.16024622 -0.29383713 -0.3801827 0.5569002 -0.09503493 0.8797187 0.22914188 0.19340183 -0.028740738 -0.33463258 -0.562083 0.25648373 -0.7116258 0.52860254 -0.31797442 -0.12546559 0.46238306 0.45473084 -0.39574662 0.33364692 0.8000939 0.15892085 0.5108787 0.35371995 0.16137528 -0.33306456 0.9064336 -0.111161195 -0.33461738 0.13905933 -0.20278987
27 0.2567058 0.061958846 0.25216752 -0.42084777 -0.09278432 -1.0075458 -0.665464 0.05259753 -0.5051569 0.21650285 0.7620986 0.20762135 0.84367716 0.08398948 0.34003356 -0.3223615 -0.49861777 0.30562234 -0.18132451 0.19921495 -0.08275764 -0.55303717 0.75350946 -0.24778555 0.7338726 0.18275727 -1.0541093 -0.2347357 -0.020193588 -0.026372747 -0.15829498 0.7204083 -0.5805733 0.27149776 0.82401544 0.38969243 -0.4121778 0.69160026 0.37064156 0.4694878 0.015103238 0.79988754 0.23471521 -0.7772848 -0.6267576 -0.19608602 -0.41366783 -0.034528077 -0.19492853 0.67696214 0.19009328 0.6881404 0.36364824 -0.24261317 0.2876588 1.0222542 0.28087443 -0.78845966 -0.08825311 -0.40960154 0.2161431 -0.5459195 -0.3394319 0.30279613
16 0.27706352 0.0021630223 0.1911149 -0.33753106 -0.2263609 -0.92930126 -0.63167226 0.14737931 -0.5248945 0.21686785 0.8744915 0.13869792 0.77367777 0.08350699 0.37498662 -0.21871898 -0.41796967 0.2057418 -0.19034442 0.36346343 -0.18342905 -0.36960024 0.74883175 -0.4930322 0.80942005 0.11059872 -1.1418023 -0.26396173 0.052591592 0.13457672 -0.21092105 0.56356126 -0.84251916 0.2484425 0.80255294 0.4058456 -0.4308062 0.5871101 0.5399461 0.38483575 -0.061122127 0.71757823 0.34934264 -0.6980946 -0.36884922 -0.17927292 -0.43691307 -0.10117709 -0.11056839 0.81041205 0.1791861 0.8544649 0.30785424 -0.16193123 0.45449153 0.9545724 0.53148556 -0.7660441 0.0031923996 -0.4353022 0.1860197 -0.900281 -0.50188476 0.15921853
75 0.449668 -0.70466644 0.65346885 -0.12311003 0.07343844 -0.6500462 0.39102665 0.005992785 -0.73086554 -0.14239167 0.50673926 -0.99749184 -0.6760807 -0.4445863 0.27694806 0.6845788 0.655881 -0.2822021 0.16489679 0.5533652 0.5504851 1.1818751 0.65816987 -0.79743296 -0.4445293 0.54003114 -0.936454 -0.14528783 0.005365898 -0.1625269 -0.34195203 0.090239696 -0.5768946 -0.19495536 -0.47681904 -0.449809 0.32477424 -0.09879724 0.7822207 0.17253914 0.11321236 -0.2139786 -0.18193313 -0.56519955 0.248908 -0.71302193 0.5878582 -0.40248063 0.0012726793 0.4693021 0.4088602 -0.4134153 0.52055115 0.7111744 0.22216918 0.6875598 0.44514918 0.1330292 -0.3374136 0.918319 0.05034944 -0.3730279 0.10196432 -0.09407075
10 0.25146276 0.081252426 0.26441276 -0.4058985 -0.047302593 -0.9861153 -0.630962 -0.009503367 -0.49831823 0.18959114 0.7251995 0.234857 0.78816414 0.056200117 0.30711114 -0.35737628 -0.49946854 0.3130024 -0.15555015 0.17037407 -0.030309016 -0.5789482 0.6979994 -0.17465074 0.67076206 0.16771524 -0.97159207 -0.20308526 -0.043414567 -0.010965966 -0.12375103 0.73085576 -0.47429445 0.28500846 0.7866718 0.34257036 -0.3751397 0.63427824 0.28746924 0.47591034 0.046424918 0.7830184 0.20607804 -0.71502554 -0.66306525 -0.20920949 -0.3971403 -0.027454363 -0.20830996 0.5850026 0.19612266 0.61662924 0.36082968 -0.2976919 0.23090254 1.0130743 0.21122208 -0.7673871 -0.10577585 -0.3823596 0.22122489 -0.44198725 -0.2949327 0.3428946
93 0.28424868 0.00075039023 0.23823002 -0.3642752 -0.23402868 -0.98385596 -0.66231346 0.16838948 -0.5316912 0.21123643 0.89690864 0.10388909 0.8499333 0.063156426 0.41042706 -0.2141859 -0.42611971 0.20926394 -0.19831611 0.3436928 -0.24511002 -0.3547979 0.7765954 -0.46932828 0.80505645 0.15317994 -1.1659753 -0.2524855 0.051254895 0.09560819 -0.22547549 0.59698343 -0.9150873 0.24877569 0.8264988 0.40323356 -0.46259198 0.64330655 0.59055316 0.4322149 -0.0870693 0.75219816 0.35706562 -0.78270066 -0.40068477 -0.19382903 -0.41718054 -0.09039706 -0.09642053 0.8537648 0.20032059 0.82520264 0.2953292 -0.11149374 0.44724286 0.9733596 0.5226392 -0.7866498 -0.033676498 -0.41029596 0.1989761 -0.8824785 -0.46228987 0.15992256
60 0.22066061 0.067887105 0.23452222 -0.4247431 -0.11031116 -0.9642047 -0.6311423 0.047171243 -0.48520127 0.20504083 0.7517426 0.23096998 0.80249137 0.06750527 0.33909282 -0.3386994 -0.47020924 0.3007789 -0.16123487 0.16334075 -0.119738236 -0.56209403 0.6962422 -0.18766385 0.7103997 0.15986404 -0.9677874 -0.21918127 0.008801173 -0.03709195 -0.1586925 0.7071922 -0.56129545 0.26546797 0.7806829 0.38883665 -0.38972145 0.66356546 0.34527907 0.45287952 0.04059686 0.7945768 0.22725658 -0.7388476 -0.5993929 -0.18838204 -0.41928044 -0.029702673 -0.15860242 0.6323888 0.19521402 0.6367542 0.3420133 -0.24376805 0.27108824 0.975278 0.2583086 -0.77280915 -0.082325175 -0.38828588 0.23897837 -0.4846949 -0.30676597 0.3182546
37 0.24609764 0.03453223 0.20416436 -0.3254633 -0.16778965 -0.89621645 -0.5998762 0.09598776 -0.47801724 0.18369159 0.7774239 0.16725159 0.74624175 0.078707926 0.35622686 -0.22816771 -0.4305725 0.21385944 -0.15848532 0.2844122 -0.1652008 -0.4210348 0.7057402 -0.4076847 0.74791545 0.11357765 -1.0250548 -0.23318768 0.02699026 0.09929512 -0.16499011 0.5814114 -0.726408 0.25214428 0.7661279 0.3672272 -0.40574262 0.5936195 0.43244544 0.37211314 -0.032145463 0.7112068 0.2905594 -0.6837347 -0.4039538 -0.18994102 -0.3962709 -0.06859872 -0.13224193 0.72416186 0.17040583 0.7318285 0.29163915 -0.1835315 0.3754966 0.92826384 0.4244131 -0.7132004 -0.040320892 -0.39882255 0.16059192 -0.73697054 -0.43190783 0.16908701
41 0.25443962 0.05532046 0.27868378 -0.44913152 -0.155585 -0.9990716 -0.6635263 0.09482092 -0.50545174 0.22386153 0.8204745 0.16537221 0.8533035 0.074363984 0.36722738 -0.30237696 -0.45889056 0.26025042 -0.21626796 0.19514616 -0.18134351 -0.50599253 0.76567376 -0.2778321 0.73279107 0.17352332 -1.0895302 -0.24247299 -0.0026326894 -0.04799287 -0.20042925 0.73062366 -0.7087808 0.28807274 0.82491976 0.38547856 -0.40337428 0.7199241 0.44459724 0.5173975 0.017548297 0.80492663 0.2785023 -0.8238384 -0.60360235 -0.193306 -0.38566408 -0.03123972 -0.15499163 0.72292036 0.20477603 0.6884766 0.33040336 -0.18972728 0.33122814 1.0211664 0.3703539 -0.80197215 -0.09661391 -0.377097 0.26522112 -0.60248685 -0.30705842 0.2939944
35 0.45086592 -0.7128692 0.653973 -0.1307817 0.12610884 -0.6643485 0.41329518 -0.053147513 -0.74954414 -0.16391042 0.47369552 -0.9870139 -0.7056566 -0.4513828 0.24616495 0.6427671 0.6364729 -0.25044128 0.21193345 0.5200322 0.5984645 1.175699 0.6202945 -0.7542229 -0.5053721 0.5575769 -0.91632783 -0.1268439 -0.0041838177 -0.16450684 -0.3326413 0.097877935 -0.48366764 -0.19569212 -0.51347905 -0.4748719 0.34612003 -0.14365754 0.71696275 0.1686951 0.14707625 -0.2580201 -0.23690552 -0.5390769 0.24065647 -0.7243363 0.5868251 -0.4372444 0.0064211525 0.43282557 0.38340926 -0.4252769 0.5385245 0.6678154 0.19217283 0.7200469 0.4197227 0.12993953 -0.3418208 0.94719625 0.061082844 -0.32219046 0.086240694 -0.05178352
3 0.3940056 -0.63387865 0.6111568 -0.143041 0.09638963 -0.575704 0.32088006 -0.009537348 -0.6541819 -0.15931521 0.4531213 -0.9438443 -0.6466869 -0.426354 0.16131403 0.62718874 0.63172024 -0.26555115 0.18389124 0.5277293 0.5661077 1.1005195 0.6421293 -0.7429592 -0.44488642 0.51618725 -0.9071168 -0.15969728 -0.0069310176 -0.16856137 -0.28275472 0.075287536 -0.5689755 -0.15382434 -0.3989515 -0.39536896 0.38499516 -0.10668877 0.75202066 0.17224602 0.11735754 -0.1590246 -0.22207662 -0.52311516 0.24334997 -0.6702633 0.5595344 -0.35779804 -0.037177805 0.42790148 0.37591827 -0.4001218 0.4420019 0.6916565 0.19190422 0.5806388 0.38915032 0.13887507 -0.31507337 0.85603607 0.010773986 -0.3364918 0.11795881 -0.12442068
98 0.24142867 0.067784175 0.26398566 -0.41396016 -0.16474721 -0.9822361 -0.6171315 0.07556992 -0.4952221 0.21087402 0.8029782 0.16469546 0.82615554 0.054766428 0.37069902 -0.27196348 -0.45075125 0.2496172 -0.18742742 0.21818475 -0.16467392 -0.4773083 0.74094963 -0.2759761 0.72387886 0.1752116 -1.0563829 -0.23960002 0.008006099 -0.050283656 -0.17851967 0.70215935 -0.70571804 0.24350207 0.78983086 0.3991726 -0.42137253 0.70036924 0.42909226 0.49243844 0.0260668 0.7906519 0.26897237 -0.80837 -0.593069 -0.19115263 -0.40622044 -0.036385495 -0.1335944 0.69897664 0.20500374 0.6797845 0.34847745 -0.16538364 0.33637822 0.97417617 0.35431704 -0.7713298 -0.101228215 -0.36445177 0.25330633 -0.60876983 -0.29415202 0.28549325
92 0.2456334 0.064346634 0.25524524 -0.40830544 -0.14642885 -0.97850174 -0.63133466 0.083595164 -0.4954138 0.18707488 0.77049816 0.18587115 0.7952862 0.05656742 0.3468298 -0.29508033 -0.4495837 0.26069778 -0.17814514 0.23919146 -0.12265644 -0.49830934 0.73014325 -0.28791365 0.71371776 0.1681251 -1.0456343 -0.22638148 0.019641897 -0.014584867 -0.18186565 0.7000219 -0.65164834 0.24005671 0.8017787 0.3816089 -0.39340624 0.6719324 0.393728 0.4721664 0.014998455 0.7647557 0.26722154 -0.7430191 -0.5546972 -0.17740759 -0.4045889 -0.048741933 -0.15126556 0.6928289 0.1786491 0.69323134 0.3439328 -0.18619843 0.32238436 0.9872811 0.33455175 -0.7505037 -0.072662085 -0.39450923 0.22035873 -0.5999306 -0.32357293 0.27162212
96 0.24000728 0.06314481 0.30687544 -0.45831326 -0.17596777 -1.0658813 -0.6569087 0.10152799 -0.5166209 0.22248787 0.8562332 0.16020551 0.87134576 0.04043545 0.4081218 -0.2853868 -0.43976712 0.26694903 -0.19438179 0.21511108 -0.17529097 -0.47652838 0.780286 -0.26794833 0.73618215 0.18350425 -1.1338079 -0.2367724 0.0290743 -0.06760467 -0.2361796 0.76327306 -0.73102266 0.28329703 0.8300272 0.38953462 -0.4248012 0.7500275 0.5015243 0.5394291 0.030344924 0.82634264 0.3055257 -0.8897572 -0.6368411 -0.20229025 -0.39909852 -0.014963391 -0.14181001 0.73626894 0.23609273 0.67172205 0.372802 -0.16371761 0.34876043 1.055588 0.37394446 -0.8122178 -0.11355135 -0.37538454 0.2711015 -0.6051977 -0.28972015 0.28326935
31 0.23527025 0.09734989 0.3011946 -0.49536204 -0.012928274 -1.0618446 -0.64950275 -0.0025244728 -0.5083878 0.23246595 0.7559518 0.23129356 0.8568841 0.057690218 0.34901455 -0.3656983 -0.5092648 0.34561723 -0.17233624 0.13625398 -0.04954497 -0.6352794 0.73755866 -0.097790085 0.65105313 0.20505546 -1.0106769 -0.2087751 -0.049819406 -0.118682705 -0.13902493 0.8365428 -0.4727472 0.28503382 0.80425596 0.3773495 -0.38735345 0.73106986 0.30188802 0.5538295 0.07555381 0.8611526 0.17997155 -0.86485785 -0.7787889 -0.22355257 -0.38672814 0.013883128 -0.2191665 0.6185705 0.21373716 0.58637846 0.41852266 -0.3076754 0.20040515 1.0977056 0.17833431 -0.79008687 -0.14185077 -0.3536914 0.25942317 -0.3230099 -0.23654081 0.41400278
71 0.48224106 -0.7411185 0.58047724 -0.084078446 0.045638204 -0.74549794 0.46658882 0.063763656 -0.73289526 -0.07660543 0.56116813 -0.9247093 -0.5273326 -0.35797697 0.53057706 0.6492353 0.5040699 -0.23413979 0.12603797 0.4581067 0.31491348 1.072821 0.48604426 -0.72163093 -0.43968657 0.4835593 -0.771114 -0.05142307 0.044259436 -0.15680929 -0.4726739 0.08909724 -0.45069668 -0.17586347 -0.55984366 -0.47058782 0.03344668 -0.06774986 0.68253595 0.15534416 0.03256126 -0.32735342 -0.011852181 -0.6180105 0.20128042 -0.6152817 0.59145284 -0.47433448 0.14523298 0.5214158 0.32509574 -0.3661969 0.6283849 0.5692221 0.3244819 0.8526738 0.56362444 0.025890158 -0.29106313 0.81667 0.24848871 -0.44863674 0.046405196 -0.006666108
14 0.2239746 0.12430297 0.24734677 -0.4445065 0.013199269 -0.9544779 -0.60386264 -0.062351525 -0.45991093 0.19123496 0.64199376 0.26448613 0.7747283 0.07497445 0.30270913 -0.3767948 -0.5195533 0.34871167 -0.13534914 0.10940225 0.004272128 -0.64842397 0.65238345 -0.01024812 0.610144 0.18224995 -0.8735938 -0.18977542 -0.051951632 -0.085875645 -0.100767255 0.78940177 -0.32037473 0.2664352 0.74762195 0.33884883 -0.3304751 0.6811615 0.2014448 0.49458292 0.08927609 0.7987722 0.16949885 -0.7398129 -0.77436686 -0.19231446 -0.4024526 0.0118924035 -0.22408438 0.49478275 0.18515378 0.5168729 0.3823316 -0.3263884 0.1479487 0.9995547 0.102727115 -0.75489825 -0.13704988 -0.38655135 0.22649677 -0.24716255 -0.20856327 0.39520746
25 0.47269797 -0.7277062 0.6069265 -0.102926455 0.10214071 -0.7028955 0.46212968 0.00049406727 -0.75140065 -0.10398605 0.48477724 -0.9190177 -0.6398498 -0.38952342 0.39132303 0.6427892 0.55133295 -0.23141892 0.1695861 0.46090874 0.46354336 1.0851202 0.5254666 -0.7190573 -0.4811185 0.5220704 -0.81020296 -0.072244 0.008518962 -0.15861116 -0.37893173 0.09680125 -0.41176027 -0.1750274 -0.5359912 -0.48899853 0.17153847 -0.114424 0.6666403 0.13617167 0.077095196 -0.30492547 -0.10137 -0.54432225 0.1833625 -0.6760086 0.6077515 -0.46138698 0.061296098 0.46097764 0.37383392 -0.41019934 0.59647244 0.587161 0.2563811 0.79120505 0.47821456 0.07153777 -0.3203594 0.86526537 0.17258877 -0.3851734 0.058476407 -0.012970626
59 0.2707099 -0.017037429 0.16706924 -0.245891 -0.2765466 -0.822151 -0.5812266 0.16394043 -0.49454993 0.18790244 0.84144664 0.0778507 0.70343417 0.054852065 0.34850168 -0.16067004 -0.34933323 0.15765765 -0.16251467 0.41540304 -0.22986308 -0.25267434 0.7058079 -0.6015319 0.7785052 0.087998815 -1.1085749 -0.28182155 0.060056202 0.2169689 -0.20732701 0.4604652 -0.91810066 0.2178885 0.761576 0.3765341 -0.42053902 0.5068322 0.5583057 0.2798494 -0.10522305 0.6202129 0.35452086 -0.5757359 -0.17919385 -0.18258755 -0.4258336 -0.14521363 -0.088837415 0.8334119 0.17194326 0.86943907 0.27327245 -0.109085284 0.482281 0.84975624 0.5806656 -0.662981 0.0371066 -0.4169842 0.11825087 -1.0048912 -0.53032696 0.07051487
97 0.30040732 -0.035900705 0.15911467 -0.25722706 -0.24040262 -0.8418451 -0.60950786 0.15159391 -0.5165203 0.18861808 0.84204537 0.104987375 0.7049385 0.06742306 0.33819088 -0.16864604 -0.37850538 0.17324279 -0.1569025 0.43019706 -0.18175876 -0.29764938 0.7407091 -0.59947973 0.8186862 0.08745906 -1.1047616 -0.27934808 0.04941229 0.25880948 -0.17278433 0.47657374 -0.8877573 0.24349059 0.7683126 0.36066106 -0.44573468 0.4820323 0.5514795 0.28662783 -0.11453913 0.62909037 0.35312632 -0.55906206 -0.19752204 -0.21917628 -0.41937923 -0.13333274 -0.10599233 0.82564116 0.1455236 0.882629 0.28899074 -0.14553808 0.46057767 0.9012794 0.6044597 -0.6785007 0.045555636 -0.45303315 0.124279805 -1.0177993 -0.561385 0.07697014
58 0.32435936 -0.03714181 0.17670223 -0.27642372 -0.25421512 -0.8706097 -0.63029134 0.1497895 -0.50285095 0.17831528 0.8578015 0.09952541 0.72162265 0.083110325 0.34581342 -0.19909899 -0.41882148 0.17626597 -0.16055378 0.4165905 -0.1665532 -0.32111293 0.7252639 -0.60322833 0.8210615 0.09017138 -1.1287347 -0.28535974 0.07443616 0.2662658 -0.18591522 0.4925867 -0.8675333 0.23009059 0.7943328 0.37933812 -0.44902086 0.5161135 0.5244314 0.2802328 -0.1131991 0.64354986 0.34281924 -0.57320493 -0.21077015 -0.22539212 -0.45126364 -0.15975638 -0.10173021 0.8434293 0.15353826 0.9080164 0.27673218 -0.15846005 0.47676685 0.9127351 0.5929835 -0.7061305 0.037620157 -0.45493978 0.113761246 -1.0196462 -0.5832498 0.074836105
4 0.23655927 0.10264858 0.2785309 -0.46409085 0.06386863 -0.96568096 -0.5672341 -0.061440803 -0.48186645 0.19125922 0.6190654 0.2309851 0.75414014 0.0607286 0.2986264 -0.36430657 -0.48478898 0.3362609 -0.114754155 0.07179756 0.04937078 -0.62655157 0.65092176 -0.012621181 0.559068 0.19725011 -0.85428655 -0.15856971 -0.076336235 -0.12363853 -0.08520727 0.8106019 -0.28284615 0.26653597 0.69845724 0.31336185 -0.3174476 0.6721565 0.15762654 0.4922659 0.10791284 0.79227155 0.115579344 -0.75908995 -0.79502916 -0.20472941 -0.34906134 0.018245269 -0.24090461 0.48025656 0.17915829 0.45189953 0.38123384 -0.33336556 0.11281368 1.0157611 0.048590116 -0.73175585 -0.16289023 -0.3372379 0.24351269 -0.14416759 -0.17611848 0.43732396
61 0.2523445 0.10940892 0.27147827 -0.44513023 0.12552306 -0.9859762 -0.5830119 -0.10475944 -0.48213854 0.20027483 0.5630554 0.26481676 0.7339787 0.043121055 0.25869092 -0.42289224 -0.4928016 0.39925766 -0.10823613 0.05274099 0.12527534 -0.71300596 0.65708274 0.06860524 0.5473589 0.17387109 -0.81338876 -0.1737434 -0.07442026 -0.14598171 -0.059561945 0.8519948 -0.15465614 0.3029477 0.68982947 0.29569253 -0.28688058 0.64204925 0.09149789 0.52360594 0.15135495 0.7913259 0.085333325 -0.74298173 -0.8555044 -0.23538035 -0.36938184 0.020990191 -0.29175466 0.42970112 0.17433603 0.41852367 0.43306887 -0.38954487 0.05853888 1.0377656 -0.045430392 -0.73198974 -0.16934489 -0.32756832 0.24052592 -0.043481868 -0.14061074 0.48758405
90 0.7527224 -0.52742994 0.4348139 0.08362066 1.0459576 -0.7086451 0.15278749 -1.2460301 -1.1047187 -0.44599062 -0.014869232 -0.20707497 -1.0268844 -0.3226016 -0.2704731 -0.2395155 -0.24186464 0.20569196 0.73216444 0.5786869 1.8996439 -0.11709479 0.49688917 -0.21816106 -0.17593178 0.42781797 -0.47084185 -0.12925898 -0.26587448 0.51823914 0.4516236 0.5384664 1.1678786 -0.21603467 -0.092579864 -0.4451777 0.13890149 -0.5042684 -0.7100962 -0.24630652 0.49487916 -0.25774965 -0.7767929 0.39462325 -0.29224408 -1.0351129 -0.08626429 -0.6580474 -0.6786066 -0.13742335 0.00517216 -0.02981079 0.9937752 -0.67145264 -0.33931854 0.99915737 -0.5405273 -0.1835302 -0.16394594 0.28042942 -0.30810112 0.18227214 -0.37439856 0.5385363
2 0.5033149 -0.77657574 0.55464363 -0.05725 0.11339494 -0.78079724 0.53895766 0.025962152 -0.7914284 -0.07793941 0.538283 -0.9149087 -0.5721614 -0.38344708 0.58595896 0.6243187 0.47594872 -0.21732174 0.1492489 0.42495218 0.35553718 1.0605211 0.4173249 -0.69940853 -0.4819164 0.48526973 -0.7143709 -0.0040382426 0.059708428 -0.1179757 -0.47786015 0.13544211 -0.32988742 -0.17939423 -0.62916726 -0.49066216 0.009915521 -0.0670685 0.62346375 0.11199689 0.050980013 -0.39129373 -0.0007831572 -0.5780604 0.16151015 -0.64814085 0.60074043 -0.52754277 0.16479144 0.48982015 0.34192675 -0.40534583 0.713284 0.504491 0.31544787 0.88119036 0.55164933 0.015278546 -0.32077077 0.8179372 0.27929527 -0.43090633 0.03421708 0.03899519
7 0.5228564 -0.8175096 0.5719717 -0.046461593 0.09162085 -0.81259465 0.5765705 0.030989004 -0.8310461 -0.056030136 0.5567558 -0.9333082 -0.5927438 -0.39050677 0.626162 0.6604116 0.48036885 -0.21683376 0.16035956 0.4405194 0.367185 1.0952729 0.4252271 -0.6936353 -0.48232114 0.49102956 -0.7004895 0.0016298505 0.059570514 -0.11773754 -0.49392915 0.11987246 -0.30963245 -0.18811493 -0.6750864 -0.5173884 -0.0072611948 -0.08673386 0.62348884 0.114491895 0.037571765 -0.43228745 0.0050268844 -0.5971652 0.19554026 -0.6315627 0.64044887 -0.52833706 0.17848761 0.5201854 0.33453313 -0.38184473 0.73539203 0.5220163 0.32618225 0.92566025 0.58013815 0.03473402 -0.2971644 0.848917 0.32188335 -0.44500163 0.04350837 0.06360488
12 0.7489956 -0.38561088 0.4127965 0.013600241 0.9801808 -0.7286776 0.07767941 -1.1164569 -0.990809 -0.34990007 0.00079021615 -0.06763871 -0.79741174 -0.28037536 -0.25414068 -0.27516505 -0.2577876 0.26002792 0.6042364 0.5025813 1.7019651 -0.27039862 0.5286477 -0.19956213 -0.11280619 0.35306114 -0.46278018 -0.1256038 -0.2859282 0.46634194 0.42994916 0.559637 1.094748 -0.06753463 -0.012322532 -0.42711136 0.11997307 -0.39036563 -0.68076146 -0.14683896 0.40997553 -0.05934358 -0.6868688 0.25571513 -0.38090858 -0.96301365 -0.07309181 -0.59555924 -0.7151984 -0.10592874 0.09408645 0.020338325 0.91798025 -0.74076265 -0.34621057 1.0858154 -0.5323361 -0.19330749 -0.13114884 0.162728 -0.2990498 0.2331858 -0.35094428 0.5825456
26 0.5331861 -0.84942603 0.61639416 -0.056884814 0.10677445 -0.8075705 0.6114983 0.033633895 -0.85037136 -0.06214126 0.5741506 -0.96597534 -0.6511621 -0.39541748 0.63280183 0.6894353 0.532907 -0.22196126 0.19011416 0.45986146 0.38082045 1.1723149 0.42117602 -0.76061743 -0.5394409 0.5205983 -0.7551638 0.007842837 0.07008246 -0.13302334 -0.50758535 0.11124215 -0.33061144 -0.20477921 -0.6890621 -0.55655646 0.0139298 -0.087394275 0.6622869 0.11785314 0.03637447 -0.44597495 -0.005346137 -0.6082655 0.22014178 -0.66983885 0.6693771 -0.5516733 0.1591631 0.53110856 0.36337835 -0.43931794 0.7615804 0.54411227 0.328805 0.9470635 0.60403985 0.05004281 -0.32835945 0.9017423 0.321264 -0.46627355 0.029160032 0.039790776
44 0.4721104 -0.7413651 0.5997703 -0.11057265 0.06854503 -0.7180903 0.4538987 0.004095073 -0.7600806 -0.0891063 0.5285402 -0.9724928 -0.61723876 -0.40688917 0.41174835 0.6764773 0.55418956 -0.25241846 0.1620687 0.48384705 0.45013812 1.152189 0.5497517 -0.74092865 -0.46880883 0.52288836 -0.8527478 -0.092373155 0.0352135 -0.14775215 -0.434056 0.093980685 -0.4793106 -0.18866394 -0.5411453 -0.45973775 0.17173071 -0.09004675 0.72813874 0.15527628 0.06898829 -0.31754518 -0.09830283 -0.5913611 0.212977 -0.6629152 0.59621906 -0.47609928 0.07436676 0.49167487 0.36401743 -0.39548156 0.6189924 0.6106545 0.26727858 0.80217093 0.5212454 0.08191771 -0.33003488 0.87508124 0.1709474 -0.41795468 0.07058693 -0.023995964
33 0.32918808 -0.03686336 0.11477108 -0.20026316 -0.25382188 -0.76315284 -0.6056017 0.14307249 -0.50405234 0.18123174 0.7949364 0.0873885 0.6252366 0.098083146 0.31665328 -0.16160609 -0.3847606 0.13841492 -0.154711 0.46905315 -0.16625063 -0.27391747 0.7013092 -0.67098576 0.8347983 0.056928627 -1.0564705 -0.27391598 0.07528833 0.35739654 -0.15371138 0.37048453 -0.8803477 0.2389454 0.7328189 0.3501766 -0.45197782 0.41989395 0.49068424 0.20714928 -0.15258986 0.55210644 0.3400716 -0.46229687 -0.09818888 -0.21671464 -0.450618 -0.18776862 -0.122894615 0.8201984 0.120501615 0.94172484 0.25088418 -0.14471929 0.48363826 0.82271904 0.62483966 -0.65799475 0.078665994 -0.46100107 0.051187802 -1.101026 -0.6540057 0.01200462
83 0.4724085 -0.71948713 0.555519 -0.082063995 0.09532222 -0.7169904 0.4707226 0.021630712 -0.72945863 -0.086098686 0.48323557 -0.88191706 -0.57347155 -0.35234898 0.4959087 0.59547675 0.46288005 -0.19577791 0.15359963 0.42596745 0.38964486 1.0169431 0.4475867 -0.67166954 -0.45807636 0.46843672 -0.70563287 -0.017700708 0.03877891 -0.11624364 -0.43056527 0.10168752 -0.34702015 -0.16503264 -0.56759906 -0.47363645 0.0522977 -0.0716768 0.61321425 0.116453424 0.038903218 -0.32887772 -0.055391643 -0.53570235 0.18003003 -0.5997882 0.5849284 -0.4765639 0.12258374 0.46276435 0.30694112 -0.37394848 0.6398003 0.52230597 0.29096597 0.8203925 0.4836722 0.05669636 -0.30462617 0.79720616 0.23075065 -0.3854271 0.053312406 0.028041594
74 0.77295715 -0.24284317 0.36957726 -0.07736183 1.025065 -0.77732664 -0.035687048 -1.0574238 -0.96632993 -0.2608979 0.009668225 0.0957879 -0.638478 -0.19796471 -0.30850917 -0.3947477 -0.3228766 0.37365514 0.54782295 0.4413317 1.6483719 -0.5445741 0.5600396 -0.1651002 -0.03902068 0.25364515 -0.4769616 -0.1697837 -0.36511105 0.49756208 0.4956627 0.63266295 1.1172521 0.058995582 0.1373363 -0.43229133 0.053939044 -0.29965678 -0.78337693 -0.08028544 0.36144152 0.13167197 -0.6684096 0.18172969 -0.508053 -0.95455426 -0.15923846 -0.5555432 -0.7966168 -0.07134248 0.109121874 0.09040112 0.91055954 -0.91305596 -0.35363612 1.2291927 -0.6408035 -0.23266228 -0.07585487 0.045714006 -0.3068995 0.31192115 -0.38540202 0.6407864
87 0.4820246 -0.75220984 0.56425786 -0.053883262 0.06145565 -0.7704742 0.5242754 0.04146989 -0.77343434 -0.061147466 0.5398721 -0.8978232 -0.5645624 -0.3549756 0.5777376 0.6176542 0.4731052 -0.21146354 0.13559832 0.4284239 0.32316437 1.0704542 0.41509196 -0.6835009 -0.4579623 0.4824002 -0.71672577 -0.00034401333 0.05337075 -0.14085363 -0.4726687 0.11103236 -0.36092046 -0.17992455 -0.6106733 -0.48768803 0.021746628 -0.05893523 0.6504986 0.13555127 0.01709372 -0.36153013 0.010801503 -0.5771501 0.1885593 -0.59855586 0.58207345 -0.47867978 0.16685876 0.5155729 0.3093089 -0.35886854 0.6870937 0.5183055 0.2988427 0.86759937 0.53887373 0.019846547 -0.29405698 0.8226955 0.29430404 -0.4436215 0.02315121 0.047243685
94 0.5519192 -0.8399506 0.57024735 -0.06812523 0.099082924 -0.8483961 0.5760462 0.018980961 -0.8471302 -0.07671607 0.59003615 -0.9424042 -0.61567116 -0.36770725 0.64572996 0.6695078 0.47032446 -0.21749903 0.16581348 0.45143136 0.34684753 1.0955007 0.43317527 -0.71458817 -0.48211944 0.51679593 -0.7470968 -0.0016425657 0.050457057 -0.110852115 -0.51686263 0.13298085 -0.3112027 -0.1907477 -0.6776726 -0.5171082 -0.050595358 -0.07844447 0.63769424 0.12986764 0.011468208 -0.4180098 0.030366851 -0.6185185 0.1747325 -0.6562695 0.64131975 -0.55330247 0.18248457 0.5296198 0.33932254 -0.39160007 0.7613465 0.5141346 0.3351483 0.9556304 0.58882433 0.012793536 -0.31888962 0.8628793 0.31950372 -0.47915694 0.029887054 0.059116535
73 0.46098727 -0.74807376 0.5263924 -0.062877975 0.09559433 -0.7377232 0.49615905 0.015271182 -0.7478559 -0.066958204 0.52248234 -0.85815614 -0.5506375 -0.37131423 0.5496191 0.60591364 0.47839183 -0.19755405 0.16096428 0.4054057 0.33467287 1.0386105 0.40423098 -0.663457 -0.44634527 0.46790504 -0.67855775 -0.015488587 0.028823175 -0.13195132 -0.4444098 0.09349245 -0.30157655 -0.16227113 -0.6071645 -0.46049237 0.033668138 -0.07015905 0.60924065 0.10138845 0.033520877 -0.38223088 -0.020996384 -0.5492446 0.17613398 -0.605456 0.5867019 -0.48480192 0.14798512 0.48110995 0.30615017 -0.36074358 0.6741229 0.5096965 0.2950137 0.8310414 0.5113517 0.034641124 -0.3001448 0.810633 0.26380026 -0.4008107 0.042273548 0.023593988
88 0.31534645 -0.020540765 0.16787523 -0.26081815 -0.28684646 -0.8666561 -0.60801005 0.17322281 -0.50329787 0.19667156 0.874718 0.08383533 0.71369857 0.070129074 0.36766526 -0.15760727 -0.38358203 0.15344457 -0.1903995 0.4435082 -0.23704526 -0.26253408 0.7547986 -0.6488564 0.8180406 0.08783804 -1.1505874 -0.26666543 0.08572305 0.24987273 -0.2078761 0.47822154 -0.95513177 0.23535763 0.78273547 0.36718258 -0.4722097 0.50014454 0.59543097 0.29893607 -0.1379139 0.62186104 0.3618913 -0.5973374 -0.18848553 -0.2058382 -0.44023162 -0.13834895 -0.09188283 0.8785347 0.14698878 0.8983593 0.26013094 -0.1091793 0.48486274 0.90537214 0.62216866 -0.7166973 0.045996286 -0.44944578 0.12406469 -1.0648578 -0.5616545 0.0728146
0 0.23845337 0.16527449 0.2336482 -0.4158554 0.18026812 -0.8971973 -0.55184066 -0.17750184 -0.45095602 0.16533458 0.4948073 0.3470391 0.690209 0.0686752 0.2032306 -0.46694085 -0.5257186 0.39909843 -0.06153808 0.04525204 0.1701634 -0.7863146 0.58009005 0.10444376 0.55917114 0.14067425 -0.6751523 -0.14919767 -0.09588737 -0.0575795 0.023014182 0.7922185 -0.024268817 0.30279365 0.6808167 0.2666978 -0.29803872 0.5868187 -0.056770157 0.418327 0.15585788 0.75359654 0.055856735 -0.58434266 -0.79888916 -0.214727 -0.39706585 0.009542211 -0.30327728 0.34369794 0.13425967 0.4585503 0.40216365 -0.4991971 0.0052763466 0.9715006 -0.10012022 -0.66217333 -0.11055656 -0.41112193 0.17251208 -0.012803009 -0.18270937 0.46307904
70 0.6576135 -0.16647452 0.3309275 -0.1113385 0.9000553 -0.69269335 -0.09058607 -0.93408805 -0.824715 -0.18741283 0.009247973 0.17010072 -0.44945434 -0.14515674 -0.2617922 -0.4015438 -0.35904205 0.3708125 0.4297849 0.34979764 1.3964752 -0.5759759 0.4775332 -0.069889076 0.017022768 0.21987101 -0.41911092 -0.15421622 -0.32866827 0.4050316 0.42436787 0.6104361 1.0088743 0.11193404 0.19311129 -0.3187284 0.013015713 -0.2016609 -0.73383486 -0.025275692 0.34843063 0.19016936 -0.5551637 0.11747632 -0.5376334 -0.80631155 -0.16841833 -0.4389785 -0.7135235 -0.09665596 0.09633907 0.09178666 0.78513944 -0.86956716 -0.3423087 1.0894036 -0.6050633 -0.2671505 -0.06906498 -0.04696124 -0.25439474 0.32056257 -0.3462182 0.61443555
72 0.7503217 -0.37520155 0.40124357 0.01879407 1.0324053 -0.7103093 0.08997655 -1.1708949 -1.0248567 -0.3615473 -0.026886923 -0.06329019 -0.844452 -0.27771416 -0.28356805 -0.3254268 -0.2803345 0.28834343 0.63370293 0.5135101 1.7633016 -0.3106504 0.5071892 -0.16321589 -0.12742469 0.34108886 -0.4463779 -0.113427155 -0.31017923 0.49596027 0.45869538 0.5789332 1.1643685 -0.08073752 0.006765211 -0.46147472 0.09531506 -0.38847128 -0.7551775 -0.14952646 0.42319667 -0.067472555 -0.73035073 0.3085242 -0.39404094 -0.9748449 -0.08598222 -0.5843741 -0.75041544 -0.108835354 0.058629055 0.021001413 0.9464232 -0.7845422 -0.3743802 1.0776306 -0.58456635 -0.1996247 -0.11802456 0.15517826 -0.29799494 0.262541 -0.34400257 0.57396454
54 0.7382914 -0.30103222 0.39021277 -0.04463386 1.0086093 -0.74745035 0.016376765 -1.0691851 -0.97259825 -0.26791254 0.007908291 0.047607232 -0.71464586 -0.22944525 -0.29218987 -0.35599 -0.2830161 0.33061227 0.5535723 0.4618686 1.657403 -0.44921908 0.5560282 -0.17119601 -0.058672998 0.30021152 -0.47253338 -0.14882068 -0.34287053 0.47744536 0.4651205 0.6236696 1.1113704 0.011586769 0.07409456 -0.45251873 0.08692915 -0.3319612 -0.75715506 -0.10586379 0.3775885 0.07506768 -0.6621946 0.20015322 -0.49110594 -0.95282084 -0.117695995 -0.5681848 -0.7651265 -0.08729824 0.10893852 0.023008488 0.9314933 -0.842697 -0.36305845 1.1913444 -0.6138509 -0.20919245 -0.10715762 0.1083317 -0.29713032 0.2902163 -0.3766856 0.64656776
5 0.2614459 0.11824179 0.27770066 -0.43322903 0.1463176 -0.95984983 -0.5788551 -0.18370837 -0.4953217 0.16972992 0.5527183 0.30373618 0.6806778 0.06648913 0.22329484 -0.43355802 -0.5097812 0.3886298 -0.062498182 0.060824387 0.1862832 -0.7228556 0.6394638 0.022014836 0.5507732 0.17009476 -0.7884434 -0.18198523 -0.088061646 -0.07773276 -0.019590275 0.8267271 -0.110475816 0.30239603 0.70173013 0.28505078 -0.30152377 0.586036 0.008045883 0.4546357 0.14113446 0.7569854 0.072201654 -0.6612301 -0.8143646 -0.2670061 -0.39563218 -0.026869386 -0.3132066 0.41315132 0.17739731 0.44730994 0.4149706 -0.45700556 0.032206003 1.013609 -0.06702078 -0.70024866 -0.14523877 -0.35986993 0.19320773 -0.06696059 -0.2027714 0.45944902
85 0.7153861 -0.45335084 0.40212566 0.06802228 1.0066872 -0.67158866 0.11596498 -1.1772294 -1.0466516 -0.41517904 -0.01348508 -0.13669969 -0.92738426 -0.30025944 -0.2704688 -0.2795885 -0.24602734 0.21852584 0.6885671 0.5443592 1.785059 -0.21152973 0.4571097 -0.19776292 -0.16048604 0.36138088 -0.44136328 -0.12515157 -0.27091858 0.4899559 0.4593053 0.53966767 1.1510092 -0.16700624 -0.06677324 -0.42101237 0.13416532 -0.44905204 -0.6997943 -0.20588332 0.47198442 -0.2050316 -0.7149267 0.36982542 -0.31513676 -0.96888685 -0.10397473 -0.60416734 -0.66793466 -0.15004559 0.0010914416 0.0049500824 0.9218423 -0.68408555 -0.33544847 0.9569764 -0.53566587 -0.15969966 -0.13966784 0.22091202 -0.28530893 0.22336131 -0.3731247 0.5418039
84 0.52592266 -0.79576343 0.58377355 -0.077261984 0.1117157 -0.7936584 0.5456094 0.028169576 -0.79458594 -0.08556635 0.54191816 -0.9207559 -0.590714 -0.3752737 0.5838511 0.6492496 0.50111866 -0.22238323 0.15354142 0.45255157 0.38381743 1.0796124 0.43160105 -0.71543694 -0.49409094 0.51370287 -0.73767906 -0.030213889 0.055062667 -0.12240074 -0.48368174 0.11361078 -0.33041462 -0.16260982 -0.63875407 -0.5061645 0.0023700246 -0.083474256 0.6355151 0.11766697 0.032661974 -0.38493392 -0.027201712 -0.5781545 0.18527472 -0.6614896 0.6103469 -0.5184134 0.13182387 0.4919862 0.32340533 -0.3993607 0.72941077 0.5310638 0.309567 0.8906515 0.55814207 0.03686488 -0.31497288 0.82627356 0.27853855 -0.43463072 0.027533732 0.050178047
1 0.32085624 -0.059901174 0.067586936 -0.13189168 -0.26037607 -0.678247 -0.56699234 0.13013884 -0.47719476 0.13793343 0.7679926 0.09374866 0.55362564 0.07388866 0.2629429 -0.15976623 -0.37748668 0.09484173 -0.117318265 0.4966462 -0.14981322 -0.25241822 0.6691282 -0.71618605 0.81957793 0.04457426 -1.0256698 -0.2792903 0.059568867 0.41549864 -0.14484976 0.30248693 -0.85113597 0.22440845 0.7053746 0.31668332 -0.4255202 0.32306245 0.47202316 0.11112323 -0.16881919 0.49568635 0.3126483 -0.36653614 0.019160448 -0.19960529 -0.4453017 -0.18386038 -0.12199536 0.78998005 0.09389846 0.95159996 0.2124144 -0.15570046 0.4939612 0.7472927 0.63347954 -0.61646754 0.12946218 -0.45684105 -0.0028843696 -1.1278826 -0.66628474 -0.017320361
49 0.51110077 -0.78509104 0.5682171 -0.055754695 0.094606504 -0.8011604 0.52155834 0.012094677 -0.81767446 -0.0682456 0.54942906 -0.92823005 -0.5831847 -0.37140247 0.56952024 0.6386924 0.48541838 -0.22192685 0.17341141 0.479941 0.3914035 1.0751082 0.45717677 -0.7309895 -0.47279724 0.5053613 -0.7640481 -0.010516091 0.036747243 -0.12132706 -0.4709911 0.11290723 -0.35030544 -0.16459274 -0.6027534 -0.49211797 0.009199866 -0.083976984 0.62949723 0.12748785 0.036075927 -0.3559778 -0.030694827 -0.5725136 0.19616759 -0.6521451 0.601746 -0.50601935 0.13595645 0.5304184 0.34035257 -0.35998532 0.71441597 0.5072198 0.3000773 0.9050406 0.5545106 0.027691841 -0.30554947 0.842399 0.2588086 -0.4548644 0.032922983 0.040190093
42 0.25253835 0.110709935 0.27586964 -0.46287215 0.027588572 -0.9988204 -0.60431945 -0.05644295 -0.4907041 0.19192708 0.6689384 0.23735453 0.7889103 0.04364385 0.29657316 -0.36668077 -0.49457663 0.35218957 -0.14173432 0.105384134 0.00053327536 -0.6516311 0.6904876 -0.06442837 0.6164379 0.16229013 -0.892416 -0.21136995 -0.047648232 -0.080978304 -0.10887548 0.80583894 -0.35196766 0.28013653 0.7415505 0.3331735 -0.34836474 0.6498102 0.21844688 0.50353163 0.09611559 0.8032508 0.14958316 -0.7550388 -0.7479498 -0.2043947 -0.3861681 0.0011490659 -0.2309138 0.5095577 0.18040746 0.53707737 0.4057219 -0.34500027 0.16202234 1.0365293 0.093923956 -0.73907244 -0.13802415 -0.35201228 0.23292026 -0.26059172 -0.21597211 0.404887
53 0.72604495 -0.24823213 0.36383027 -0.038580094 0.95839894 -0.6959933 -0.0072155907 -1.0372324 -0.92425376 -0.26061916 -0.009078673 0.08511677 -0.655316 -0.21221215 -0.28120825 -0.37226504 -0.3045685 0.33072308 0.5251997 0.43772578 1.5759164 -0.47953537 0.52220756 -0.13544525 -0.04937479 0.2577138 -0.4435419 -0.15331076 -0.33534706 0.4651135 0.48321664 0.5894035 1.0820042 0.03005361 0.097520664 -0.4222602 0.07432087 -0.31139573 -0.75120425 -0.11402374 0.37629005 0.08917306 -0.628793 0.21388514 -0.4592526 -0.9048458 -0.12812051 -0.51878446 -0.74119955 -0.08543541 0.1006108 0.05963074 0.8810595 -0.8533792 -0.356696 1.1377288 -0.6003799 -0.20748106 -0.080853686 0.054824177 -0.29142568 0.27822718 -0.38036174 0.6227898
79 0.5151642 -0.81171703 0.60508853 -0.08230987 0.1038389 -0.7952298 0.5465727 0.017164323 -0.7931259 -0.09010004 0.53893393 -0.96114534 -0.6394213 -0.42145455 0.5490598 0.69288045 0.5543755 -0.24023007 0.16007748 0.48566082 0.40331614 1.1564294 0.49020585 -0.73836756 -0.4940362 0.52024126 -0.7919625 -0.036093544 0.0587753 -0.1538708 -0.4679936 0.106615975 -0.37525183 -0.17566893 -0.6360629 -0.5097801 0.06909304 -0.08808281 0.69493437 0.13936014 0.045581274 -0.38226247 -0.03747315 -0.58260775 0.21603727 -0.6820209 0.6364688 -0.5286888 0.1233103 0.5156692 0.34362996 -0.4286743 0.7111139 0.59355795 0.31679115 0.8811469 0.53756857 0.045154914 -0.32589033 0.86843956 0.23649193 -0.4327683 0.052949037 -0.0019733503
19 0.5461867 -0.8606155 0.57780766 -0.056657657 0.11073247 -0.8271251 0.59385365 0.030250892 -0.82040906 -0.08414593 0.574069 -0.9478036 -0.6457286 -0.39337516 0.6469917 0.6921456 0.49731848 -0.23215479 0.17975038 0.43566808 0.35847196 1.1330425 0.41942084 -0.73237526 -0.51776505 0.51448065 -0.7167601 0.020487182 0.05727191 -0.12218113 -0.51079476 0.09880092 -0.28504544 -0.20138058 -0.69539404 -0.5505436 -0.034478668 -0.106904246 0.64221233 0.10990347 0.029312573 -0.46499342 -0.0031085298 -0.6140007 0.20728733 -0.67973274 0.67094314 -0.5618022 0.18144876 0.52780366 0.33101493 -0.4379506 0.77034897 0.54057395 0.34405035 0.9441091 0.58811134 0.04621043 -0.33453435 0.89115345 0.3147315 -0.44546095 0.04904457 0.068308055
80 0.7389541 -0.30012783 0.41365963 -0.0365899 0.9750235 -0.74898124 0.029290106 -1.0570372 -0.96435016 -0.28105754 0.020573188 -0.0077291867 -0.7086993 -0.23741071 -0.27332497 -0.34424612 -0.26705152 0.31413865 0.54641056 0.48105457 1.6526946 -0.39988756 0.54650515 -0.1736258 -0.0890175 0.31543627 -0.4923183 -0.1510238 -0.32605606 0.45740196 0.4538581 0.6132609 1.1002308 0.021682383 0.08073476 -0.44485363 0.096360765 -0.3276801 -0.7354973 -0.09364727 0.38398138 0.041993883 -0.6587209 0.20427951 -0.46823037 -0.9755937 -0.10660092 -0.5419135 -0.7639013 -0.063329175 0.11369466 0.031238291 0.91582185 -0.82738656 -0.34618175 1.1808953 -0.5995171 -0.21311139 -0.10685468 0.12192517 -0.27527902 0.28865206 -0.3427269 0.60558903
67 0.49964184 -0.78094494 0.5909962 -0.08545422 0.078345336 -0.79585874 0.5315882 0.042595647 -0.8050219 -0.06564651 0.5595153 -0.95024574 -0.6147101 -0.39020464 0.56170005 0.6716402 0.5234752 -0.22006163 0.15617645 0.46165118 0.3562742 1.115184 0.44897953 -0.71317005 -0.4959095 0.49148658 -0.75579906 -0.018560411 0.040923662 -0.1462381 -0.48419562 0.10267355 -0.38840744 -0.18508299 -0.63387805 -0.49567658 0.034950234 -0.08025207 0.66996574 0.12411494 0.03684489 -0.38263676 -0.009656414 -0.5991153 0.18577865 -0.6452263 0.64323545 -0.52525383 0.14463696 0.5137572 0.35610273 -0.40077287 0.7130687 0.5424023 0.32858756 0.8682521 0.580249 0.044860367 -0.31511438 0.8493628 0.29103258 -0.4404107 0.037717722 0.01068787
62 0.7044042 -0.37163535 0.3587538 0.022289967 0.9380787 -0.67591584 0.09882184 -1.0770245 -0.9490336 -0.33817154 -0.019884136 -0.071357794 -0.80109733 -0.2685492 -0.2709863 -0.26784083 -0.22820915 0.24718513 0.59936124 0.46658713 1.6458288 -0.26057172 0.46909133 -0.1779549 -0.1273792 0.3299773 -0.42619288 -0.1110312 -0.2652737 0.46738645 0.41823292 0.53886473 1.0620836 -0.092148244 0.001148718 -0.43393967 0.10043457 -0.38638356 -0.7003996 -0.15748179 0.41006985 -0.09011605 -0.67640907 0.29162684 -0.3654817 -0.9285811 -0.08264364 -0.55419356 -0.6620538 -0.11358117 0.07010094 -0.013961152 0.8844792 -0.70242 -0.32736042 0.9944476 -0.53563255 -0.17301516 -0.12601557 0.15755434 -0.28286782 0.23053452 -0.32180417 0.5356316
89 0.68983513 -0.31235626 0.38265815 -0.02855321 0.94175917 -0.6835779 0.0484414 -1.0496184 -0.9357662 -0.28841382 -0.012909014 -0.015480324 -0.7343177 -0.23651817 -0.24416369 -0.31618726 -0.25110424 0.2796823 0.5788261 0.46277314 1.5900834 -0.34495914 0.462516 -0.1176589 -0.10188971 0.3099851 -0.42952108 -0.10921432 -0.27800065 0.43747652 0.43793744 0.5719763 1.063704 -0.031206736 0.036103755 -0.4042313 0.106313445 -0.34104156 -0.7013415 -0.10574388 0.38293788 -0.021471592 -0.6506474 0.24947773 -0.40115285 -0.90698034 -0.09026647 -0.52377623 -0.70001 -0.11804712 0.07127337 0.001556516 0.8606818 -0.74809563 -0.331135 1.0414792 -0.56412655 -0.18711498 -0.1138091 0.13171913 -0.28534272 0.27879146 -0.31412634 0.57388574
69 0.26158947 0.12392951 0.2935279 -0.45313087 0.17381649 -0.96026194 -0.5369519 -0.16513337 -0.50000054 0.16836487 0.5251599 0.2933674 0.6709359 0.04335733 0.24472025 -0.44409293 -0.5187963 0.3878507 -0.08068043 0.02066616 0.17843325 -0.72531307 0.6112654 0.085225314 0.51003426 0.18426517 -0.7455881 -0.16128694 -0.09637748 -0.12213392 -0.003923237 0.84646106 -0.06094201 0.28084025 0.6819216 0.26599514 -0.267743 0.6141511 -0.0069835144 0.47116935 0.16201444 0.77657086 0.03273372 -0.6937001 -0.85743755 -0.25076506 -0.35577035 -0.0054637627 -0.31736398 0.3540482 0.1720787 0.37900034 0.4367595 -0.44786862 0.005175941 1.026483 -0.09770525 -0.6978757 -0.17433229 -0.31289196 0.19006903 0.02708189 -0.15605251 0.5091618
91 0.44827926 -0.72284496 0.5391327 -0.08260642 0.09600914 -0.68976396 0.46164572 0.023594167 -0.7181272 -0.08040171 0.49031788 -0.8635199 -0.5537655 -0.34682745 0.47146758 0.5839309 0.48875704 -0.19190802 0.1360108 0.43134508 0.35714006 1.0267572 0.46217555 -0.67381656 -0.42802325 0.47463578 -0.7188657 -0.05136774 0.04421986 -0.12954839 -0.4205799 0.11373746 -0.36408368 -0.14437401 -0.5450213 -0.45190406 0.06155352 -0.08845371 0.6047492 0.13540043 0.032675464 -0.3164577 -0.037809324 -0.55311686 0.17406051 -0.6133508 0.5515899 -0.45896336 0.12887108 0.45948637 0.31465104 -0.34726298 0.6343846 0.53384256 0.25512967 0.79631305 0.48875338 0.051822975 -0.28070712 0.7796303 0.2324638 -0.4140919 0.052829426 0.015050151
57 0.7262836 -0.37427908 0.3904643 0.019098522 0.959801 -0.7095763 0.0931084 -1.1156847 -0.98577833 -0.3418051 0.012014834 -0.09535028 -0.8226849 -0.280681 -0.2641121 -0.28001335 -0.22965738 0.24516846 0.6088297 0.51357806 1.6790333 -0.2641832 0.5033269 -0.18388484 -0.12940304 0.35490227 -0.4409111 -0.11708196 -0.27797478 0.4629975 0.44244102 0.5584716 1.070516 -0.09688179 -0.014564281 -0.4462239 0.11512076 -0.4059124 -0.686558 -0.14711347 0.42039406 -0.07911657 -0.69875723 0.2790348 -0.3596168 -0.9465261 -0.06536438 -0.5715411 -0.6796073 -0.09243232 0.06732189 -0.004520078 0.91033494 -0.727173 -0.32524148 1.0296946 -0.5471891 -0.17946485 -0.112927034 0.19181521 -0.2930256 0.22878419 -0.3430581 0.54662025
63 0.5098605 -0.8190489 0.5470356 -0.034445614 0.095729314 -0.8103837 0.5819081 0.018484512 -0.8203141 -0.0386839 0.56143486 -0.8951356 -0.5565657 -0.33755922 0.6526534 0.62525386 0.4150272 -0.18447174 0.15000707 0.4158967 0.32368457 1.0279081 0.34213576 -0.67238 -0.49413824 0.463451 -0.6804304 0.027820503 0.060004123 -0.11513155 -0.51115155 0.1376838 -0.24263002 -0.18415001 -0.65794754 -0.5298041 -0.08878606 -0.06768586 0.582462 0.097264715 0.007294603 -0.43680936 0.032085147 -0.59349716 0.14984497 -0.6103317 0.6150277 -0.5606408 0.2049163 0.5036043 0.31265536 -0.3726893 0.7547375 0.47205678 0.32085857 0.9458053 0.56662875 -0.00013511574 -0.3182487 0.8201919 0.3644475 -0.46557072 0.02514436 0.10027563
34 0.6531594 -0.18419872 0.32806146 -0.06461434 0.93167746 -0.7082085 -0.071024574 -0.9818538 -0.86118686 -0.22089374 0.015875118 0.11485821 -0.55314064 -0.19174737 -0.2729732 -0.40164948 -0.33845404 0.3549866 0.4969109 0.37372547 1.4869653 -0.5387285 0.48141655 -0.07552737 -0.027900632 0.23314491 -0.4177119 -0.12924877 -0.32796544 0.43250677 0.45128736 0.6065435 1.0635678 0.0723315 0.15541245 -0.3609251 0.044442456 -0.23008876 -0.76236093 -0.07095819 0.3458354 0.16051188 -0.5946602 0.17816976 -0.5039448 -0.85656095 -0.15503214 -0.4616691 -0.71499544 -0.103330456 0.11321353 0.060155373 0.83373636 -0.84307265 -0.35669324 1.1091403 -0.6061718 -0.24155803 -0.07230023 0.011464702 -0.26333454 0.35551184 -0.31904545 0.6127976
56 0.6977571 -0.1885482 0.36344296 -0.105591536 0.92459756 -0.7377765 -0.05763824 -0.96311563 -0.86198545 -0.20689283 0.034361344 0.124753565 -0.51336426 -0.18343611 -0.27821204 -0.38483047 -0.33240363 0.37813616 0.4545204 0.39038125 1.4705513 -0.5486897 0.5347284 -0.11744124 -0.018971395 0.2287908 -0.44138464 -0.147992 -0.35387707 0.44517824 0.45656192 0.60927916 1.0252662 0.10387194 0.15473838 -0.37348488 0.060405143 -0.2191913 -0.72873425 -0.040746886 0.33859962 0.1711531 -0.58316666 0.12190874 -0.5235256 -0.8697052 -0.13935466 -0.48963442 -0.7348394 -0.065127745 0.12103826 0.06267151 0.82311267 -0.8597536 -0.36344764 1.1707286 -0.6061027 -0.25942278 -0.089668624 0.017371241 -0.2701879 0.338527 -0.3583262 0.6106244
24 0.5119173 -0.79316956 0.54163045 -0.06719493 0.1046388 -0.8016004 0.5607036 -0.021097478 -0.81636244 -0.06625018 0.5380617 -0.8951561 -0.57455146 -0.37569708 0.6077888 0.6290496 0.44741845 -0.17736779 0.18402758 0.43560764 0.35885698 1.037646 0.3837434 -0.6888036 -0.46316874 0.46950904 -0.6990065 0.000434327 0.054009207 -0.09586854 -0.4674142 0.13787785 -0.26170906 -0.16668034 -0.6519585 -0.5118688 -0.05179593 -0.08764366 0.58162063 0.11045727 0.021821517 -0.40905812 0.012436837 -0.5714463 0.15659726 -0.6384588 0.5945284 -0.5261334 0.16601488 0.5009346 0.32419285 -0.38949284 0.74340755 0.44374675 0.2992997 0.9138492 0.54773796 0.012228213 -0.3155023 0.81579643 0.31024548 -0.43076992 0.008546253 0.07401831
50 0.7031991 -0.19917916 0.3750495 -0.099955365 0.9544333 -0.7455677 -0.04923868 -0.960507 -0.90470266 -0.20409349 0.020231672 0.08443262 -0.5691875 -0.19854686 -0.27389726 -0.3793721 -0.30560276 0.36889672 0.47920245 0.40830493 1.5030342 -0.5183571 0.5321017 -0.12889655 -0.037071854 0.2486923 -0.4585693 -0.15360278 -0.3607172 0.44366232 0.44648317 0.61332476 1.0307441 0.073364325 0.13871053 -0.40549478 0.062335625 -0.25645 -0.73926586 -0.0625321 0.36915505 0.15861994 -0.6210598 0.14482169 -0.5261125 -0.88622236 -0.13156688 -0.50707084 -0.7552177 -0.07902518 0.13827 0.07862745 0.8615781 -0.8521934 -0.33832207 1.1667405 -0.5868086 -0.22556216 -0.08156368 0.046325427 -0.28227916 0.32408848 -0.3296032 0.62695587
18 0.26778406 0.14704907 0.27268958 -0.43524143 0.32658833 -0.91409796 -0.5265592 -0.32026792 -0.515763 0.15076344 0.38147673 0.35723394 0.57087976 0.042551413 0.1319013 -0.5188615 -0.5571593 0.46414745 0.0059709796 -0.015295157 0.38175192 -0.8679573 0.5805725 0.2234973 0.43341655 0.17068759 -0.6329893 -0.14532864 -0.18613386 -0.09143645 0.090088464 0.8703632 0.24786974 0.31250086 0.62472767 0.20883706 -0.2199 0.5479593 -0.22842176 0.45870122 0.25087166 0.7503788 -0.07137195 -0.5874638 -0.9412493 -0.31057683 -0.35818517 -0.0062356237 -0.42770883 0.2237284 0.14350043 0.33255047 0.49132627 -0.6269224 -0.11117053 1.067873 -0.3051554 -0.661885 -0.14108625 -0.3412659 0.17062941 0.21943673 -0.12380436 0.6045915
43 0.29739448 -0.41477105 0.61507016 -0.25883907 0.0920533 -0.3970348 0.01160902 -0.09320611 -0.55068624 -0.21956533 0.39056203 -0.86269253 -0.58664775 -0.45132336 -0.2291708 0.5077697 0.69289845 -0.25127518 0.18625048 0.5795794 0.7603985 0.9897012 0.8854864 -0.766162 -0.27361658 0.4993273 -1.1416968 -0.33165702 -0.05391236 -0.1542182 -0.05668185 0.12257717 -0.7763695 -0.12747553 -0.06272676 -0.24925464 0.68210745 -0.1018917 0.790926 0.2708485 0.22663438 0.15396455 -0.44128653 -0.46238855 0.19715238 -0.69372225 0.3854329 -0.20160986 -0.26431865 0.38370487 0.43731835 -0.2990402 0.18937157 0.7431839 0.04712948 0.36082423 0.18522297 0.16445589 -0.29850286 0.7913189 -0.26737395 -0.23646805 0.109093726 -0.23146585
55 0.40365437 -0.11657654 0.04799047 -0.052033026 -0.33819383 -0.61839545 -0.60946953 0.19871737 -0.52049404 0.16814083 0.87838 -0.020580437 0.51623535 0.102791846 0.31573585 -0.05815013 -0.31803006 0.031780664 -0.14727773 0.62325704 -0.18109614 -0.056721326 0.717697 -1.011672 0.8862422 0.011202569 -1.1335739 -0.2915655 0.10683309 0.6145155 -0.1630328 0.14987504 -1.0897328 0.21911211 0.6605713 0.3230316 -0.4851707 0.22137009 0.6407244 -0.009498345 -0.27071854 0.40314084 0.3593433 -0.30961937 0.282546 -0.25981745 -0.44885308 -0.28007752 -0.093612894 0.94297683 0.12056604 1.1050446 0.18235582 -0.103852555 0.6040164 0.7199618 0.8658915 -0.5619955 0.18775761 -0.5020315 -0.064223304 -1.4640079 -0.8668913 -0.19766615
15 0.69317806 -0.5086371 0.408789 0.0848348 0.9622765 -0.6861597 0.14741185 -1.2110028 -1.0517377 -0.42792338 0.025543144 -0.20238183 -0.9567243 -0.32681614 -0.20880237 -0.2559808 -0.22504961 0.18392277 0.72240925 0.5581528 1.7803384 -0.10734166 0.45074633 -0.1992201 -0.14138424 0.40687078 -0.47367963 -0.0976944 -0.2200294 0.5059759 0.39842382 0.53783906 1.0956607 -0.20889902 -0.074682206 -0.38146043 0.1187594 -0.46745312 -0.62889683 -0.22236997 0.4877658 -0.2369442 -0.72734463 0.37111905 -0.29208404 -0.9792025 -0.111634456 -0.6013219 -0.64230883 -0.13041948 0.0038611607 -0.00025568856 0.93358785 -0.6252111 -0.31638935 0.8953782 -0.49024442 -0.16672893 -0.15858817 0.2646026 -0.29743207 0.12626019 -0.36236048 0.4672561
30 0.30833203 -0.06887354 0.045045253 -0.13180786 -0.31105384 -0.6348902 -0.58349156 0.18493211 -0.45490122 0.16154002 0.78743565 0.045007166 0.57870007 0.084512234 0.2829061 -0.12319405 -0.33731547 0.06396146 -0.16830756 0.5134679 -0.20819911 -0.18741408 0.68231106 -0.79662675 0.8223115 0.032340717 -1.0410832 -0.26013333 0.0881165 0.44896474 -0.1550224 0.2326715 -0.9696314 0.21015306 0.68833464 0.3241971 -0.44866756 0.31402913 0.55463135 0.10666207 -0.2025002 0.46269944 0.35272506 -0.365412 0.09801707 -0.19260195 -0.4320288 -0.20586252 -0.09475326 0.82362014 0.09546562 0.9769223 0.18394464 -0.099329665 0.5128315 0.71988857 0.71688414 -0.59724253 0.14186324 -0.46837956 -0.005838432 -1.2147013 -0.70259863 -0.079121344
21 0.36736527 -0.10728024 0.051658724 -0.026959663 -0.33331823 -0.57347125 -0.54127115 0.23283385 -0.48638055 0.13430716 0.8457808 -0.021210017 0.46358782 0.08261706 0.30212873 -0.023693688 -0.27410427 -0.0066124224 -0.12195823 0.59521073 -0.20881951 -0.007846198 0.6828622 -0.9985936 0.8533987 -0.006328926 -1.0860618 -0.29435793 0.10874311 0.59629077 -0.17314944 0.11256852 -1.0771095 0.215001 0.6442561 0.31349933 -0.45089275 0.22969815 0.63936865 0.00061925437 -0.28853768 0.39064038 0.38512555 -0.26527196 0.28610665 -0.23222256 -0.42831212 -0.26296437 -0.09102754 0.9035558 0.11274624 1.0653918 0.16261898 -0.04905873 0.6215377 0.6592441 0.85780746 -0.547014 0.19286491 -0.46366274 -0.04974827 -1.4462457 -0.84808755 -0.19751205
95 0.3527821 -0.1037172 0.094633885 -0.11343133 -0.35951573 -0.6588377 -0.609291 0.22598939 -0.47859734 0.16861458 0.86546415 -0.0021335874 0.5822089 0.067702405 0.32350883 -0.058625355 -0.33508313 0.058636557 -0.1753104 0.5745852 -0.24696991 -0.10871018 0.74494046 -0.9110465 0.8603275 0.03785606 -1.1470207 -0.31224597 0.12406955 0.46955857 -0.19975106 0.21418525 -1.0845351 0.2178129 0.68927294 0.33629045 -0.48517743 0.32637173 0.64520514 0.09512201 -0.24719702 0.45907655 0.39611325 -0.4076166 0.15790378 -0.21692182 -0.41714245 -0.23976688 -0.09710008 0.9233747 0.11481856 1.0361922 0.21874245 -0.055479202 0.60471666 0.77040154 0.82054913 -0.59398216 0.15879592 -0.4691001 -0.008171127 -1.3652774 -0.7674837 -0.1270258
45 0.25893623 0.13774437 0.2862437 -0.44995794 0.21740884 -0.9628362 -0.54595757 -0.20765686 -0.48532566 0.17336111 0.476516 0.33588272 0.6889623 0.072949156 0.22924928 -0.45351234 -0.5296804 0.4400583 -0.08767838 -0.030255133 0.22395259 -0.78045446 0.59313637 0.14877047 0.48424736 0.1642096 -0.69984114 -0.13773589 -0.12949042 -0.14798908 0.009051811 0.87644446 0.057424176 0.33854645 0.6702341 0.23937635 -0.24589476 0.6133316 -0.055977073 0.515256 0.19833083 0.79794043 0.020921944 -0.6799054 -0.9142941 -0.27320287 -0.34874508 0.045708746 -0.35126945 0.30266416 0.19151834 0.3217642 0.44967926 -0.50016975 -0.04183939 1.0529575 -0.18170828 -0.67108536 -0.18986332 -0.314515 0.19213031 0.1620572 -0.09178327 0.5383369
29 0.6563412 -0.57605004 0.41679868 0.13778637 0.93473643 -0.6653149 0.19629218 -1.2510777 -1.1069583 -0.5026118 0.025079606 -0.3012296 -1.0538375 -0.3503054 -0.18342106 -0.20033468 -0.17987177 0.11245514 0.76361305 0.6145212 1.8202956 0.05606293 0.44752985 -0.23242651 -0.1977802 0.46418908 -0.47698548 -0.086093254 -0.17972687 0.45848116 0.3834539 0.49578708 1.069739 -0.30323145 -0.1661826 -0.3779451 0.12551495 -0.51026535 -0.5831042 -0.24754076 0.52479213 -0.36495867 -0.73267186 0.40408674 -0.2141844 -0.9918899 -0.05193877 -0.62538856 -0.5953568 -0.15143418 -0.052810527 -0.050116763 0.9476409 -0.50490063 -0.3059135 0.8008715 -0.43770844 -0.15038195 -0.19764408 0.35817277 -0.26068425 0.095474 -0.35151258 0.43897
40 0.269151 -0.35829926 0.6304723 -0.26961538 0.13824648 -0.33469447 -0.019576216 -0.12520872 -0.51810634 -0.27659857 0.34676877 -0.8744386 -0.6575701 -0.47090566 -0.36905906 0.5079462 0.72781324 -0.29972717 0.19328727 0.6034296 0.8405866 0.99235225 0.9636618 -0.7603052 -0.2871405 0.4910568 -1.1510726 -0.37070113 -0.09077325 -0.15731096 0.011196323 0.09313011 -0.7995372 -0.11421233 -0.028912745 -0.24617107 0.8115468 -0.11619667 0.81221986 0.2651992 0.2732118 0.19473824 -0.52359027 -0.40265667 0.22181611 -0.70751524 0.38495588 -0.14991443 -0.3221928 0.35707223 0.42579868 -0.32153663 0.10849422 0.7859954 -0.027573997 0.25891674 0.12675567 0.20821708 -0.30492702 0.8098849 -0.3741846 -0.17972851 0.16431507 -0.28629044
66 0.55964154 0.009178283 0.2507913 -0.19025536 0.7763393 -0.7085723 -0.23889117 -0.7711918 -0.6942818 -0.06309923 0.046815563 0.3148969 -0.14540859 -0.055562407 -0.20797159 -0.50078905 -0.44576147 0.45648596 0.3143942 0.20582248 1.0943356 -0.79127365 0.47820053 0.055206094 0.15918237 0.14447151 -0.36930445 -0.1616417 -0.3341268 0.32259983 0.4170548 0.6500225 0.9012553 0.24566661 0.3475198 -0.19265977 -0.05522793 0.0021924495 -0.7282359 0.050413195 0.29538682 0.38015854 -0.43501493 -0.0028993073 -0.6559941 -0.6581629 -0.25765032 -0.29841956 -0.6763693 -0.057908867 0.118755236 0.1726452 0.6752861 -0.9318053 -0.32667464 1.075968 -0.5942807 -0.35565373 -0.048813146 -0.20193549 -0.17682797 0.38380396 -0.31928998 0.64337295
77 0.6225392 -0.54183483 0.37587604 0.1077203 0.89083916 -0.6269296 0.17859127 -1.1527104 -1.0339259 -0.4538963 0.0103914775 -0.27507785 -0.9877228 -0.3261654 -0.17122169 -0.19027698 -0.19424717 0.13015024 0.71329427 0.5444641 1.717542 0.02269213 0.40229177 -0.21518083 -0.15789415 0.40375176 -0.44887787 -0.091031194 -0.16565132 0.46146494 0.36877427 0.46510747 1.0028942 -0.27343488 -0.15525566 -0.3501834 0.11807069 -0.4730454 -0.5376898 -0.24872346 0.49198195 -0.3418476 -0.6905076 0.3861405 -0.2167173 -0.9307414 -0.077375054 -0.5928811 -0.5639853 -0.13936903 -0.017325535 -0.0029135335 0.8861606 -0.50557286 -0.28765568 0.7976852 -0.41739383 -0.14045104 -0.14809513 0.31548864 -0.25998926 0.09024304 -0.31831068 0.41193303
11 0.27956453 0.16694212 0.26017076 -0.38837045 0.3894814 -0.8459206 -0.5076158 -0.37591103 -0.49237144 0.12553106 0.29692513 0.3811813 0.5112199 0.07245895 0.10508496 -0.52113026 -0.55421406 0.46840784 0.024398288 -0.049281582 0.45052657 -0.8928547 0.5200815 0.23465201 0.37746245 0.14255914 -0.5252018 -0.1105549 -0.20602126 -0.06871036 0.15188825 0.8295553 0.3724604 0.32157198 0.5707407 0.15889384 -0.18752189 0.48021337 -0.32777748 0.37644693 0.2440822 0.70376354 -0.12956512 -0.48278058 -0.89946705 -0.31483978 -0.34351158 -0.0043466133 -0.45567897 0.1404569 0.13032241 0.26816547 0.45241517 -0.6715511 -0.15738471 0.9948066 -0.3756474 -0.58140755 -0.14840238 -0.35621387 0.119794145 0.32019138 -0.1201787 0.60298985
38 0.4661693 -0.22589059 -0.007856315 0.107391775 -0.34123787 -0.4168379 -0.5383529 0.22508442 -0.5289264 0.11863573 0.84073406 -0.13640006 0.2872867 0.061270315 0.25678095 0.0687544 -0.20732602 -0.0814441 -0.101018 0.789661 -0.137379 0.15004289 0.73340714 -1.2742846 0.85296226 -0.022723345 -1.0909532 -0.33095142 0.13366438 0.8449782 -0.17512561 -0.072823025 -1.1926411 0.20196316 0.53151214 0.2213294 -0.4554173 0.013354123 0.66315514 -0.20969927 -0.3737068 0.20886165 0.3391587 -0.07133274 0.6204081 -0.31636113 -0.43007824 -0.3801037 -0.12772587 0.96352065 0.08706244 1.1441374 0.15734439 -0.04286905 0.6650395 0.6086697 1.0106964 -0.42960376 0.28679705 -0.4887001 -0.18687855 -1.693144 -1.0666243 -0.365308
86 0.24823749 -0.31922022 0.54554766 -0.23691429 0.08518745 -0.31179747 -0.052988835 -0.090582885 -0.4703554 -0.22471848 0.30310333 -0.74831605 -0.53556925 -0.40808588 -0.31245476 0.43704072 0.6498593 -0.23122163 0.16562043 0.5402429 0.7210585 0.8730955 0.8712408 -0.6737259 -0.2177722 0.43145052 -1.045751 -0.34275535 -0.07952507 -0.15509643 -0.0038997433 0.1087563 -0.7292908 -0.10166117 0.03227085 -0.20584641 0.726516 -0.08446023 0.7394651 0.2563629 0.2335017 0.20706216 -0.44416568 -0.3925487 0.17195536 -0.6224631 0.2954422 -0.110893585 -0.27366596 0.32375017 0.40648282 -0.26035917 0.08825724 0.6989528 -0.013509191 0.21716926 0.12695917 0.15257841 -0.23925772 0.7127918 -0.3447305 -0.15528464 0.14251144 -0.26834413
9 0.5003635 -0.82428485 0.55094665 -0.028330844 0.0894623 -0.8080416 0.56911534 0.019854618 -0.7918415 -0.06606164 0.5293085 -0.88313043 -0.5783625 -0.36271012 0.66996205 0.6440196 0.4168662 -0.17807917 0.17222331 0.4191924 0.2962037 1.0594172 0.33336553 -0.68015105 -0.47695258 0.45832682 -0.66902333 0.0360698 0.07887798 -0.120393574 -0.51767564 0.124845654 -0.25457492 -0.19214581 -0.6627364 -0.5205399 -0.08137488 -0.07367369 0.5932659 0.109640904 0.019761994 -0.4586935 0.0457848 -0.57659835 0.17273934 -0.5921214 0.62173295 -0.56132084 0.21996787 0.49739674 0.30329403 -0.37053478 0.74272585 0.4584122 0.33672425 0.9491968 0.58723766 0.0036384582 -0.31485543 0.79727024 0.36570272 -0.468629 0.033632882 0.082619004
32 0.46574602 0.08235012 0.23132086 -0.18764001 0.69220704 -0.6818409 -0.2987712 -0.6823329 -0.613296 -0.030323094 0.07872941 0.38456434 0.00095352286 -0.0054883636 -0.16185372 -0.5328529 -0.4940507 0.45837605 0.24424653 0.12812924 0.9213832 -0.85255164 0.44069532 0.10438683 0.24022067 0.11205921 -0.36256167 -0.14831063 -0.3157725 0.26173383 0.37833333 0.6492924 0.8005291 0.28648067 0.4034264 -0.09129505 -0.06461945 0.08160485 -0.66175246 0.0884501 0.25882158 0.4565969 -0.34210172 -0.057093672 -0.65336895 -0.54184914 -0.29730672 -0.23235822 -0.6237396 -0.04100048 0.07828397 0.23560466 0.56275594 -0.90396833 -0.29683578 1.0199597 -0.5494193 -0.3669372 -0.026246691 -0.27928162 -0.14756061 0.3727762 -0.30072218 0.5953108
52 0.22530252 -0.29065356 0.60085034 -0.28472462 0.09389475 -0.28172633 -0.13477136 -0.10400839 -0.4347419 -0.2330699 0.29760563 -0.7983102 -0.5425457 -0.44769675 -0.4244368 0.4545538 0.6665589 -0.24967824 0.19106379 0.58139646 0.80739415 0.8852565 0.95480657 -0.6952923 -0.18738596 0.43997157 -1.1344837 -0.38801464 -0.09422434 -0.13797125 0.04597554 0.11432414 -0.8365736 -0.08803826 0.08428859 -0.17305999 0.83729327 -0.08806908 0.8020957 0.26811203 0.27225143 0.2888124 -0.5304879 -0.36424378 0.17624778 -0.6335033 0.29887828 -0.070681445 -0.33329976 0.3383308 0.41449314 -0.26444983 0.022154784 0.74948084 -0.035554208 0.15393807 0.06381038 0.20218429 -0.2478507 0.7432809 -0.4200678 -0.15239854 0.13548613 -0.29301652
99 0.199936 -0.24690071 0.5693177 -0.28985116 0.08998433 -0.23416336 -0.14137417 -0.100156076 -0.41218024 -0.25647923 0.30504027 -0.7631746 -0.5439954 -0.43733394 -0.4670453 0.4402721 0.7033687 -0.26426357 0.1562541 0.5835768 0.76811934 0.8963843 0.9434924 -0.6870014 -0.20956483 0.45544973 -1.13768 -0.39543536 -0.075828515 -0.17110007 0.041144464 0.09028295 -0.82902694 -0.09234605 0.09239835 -0.16803649 0.856324 -0.07788443 0.8063909 0.28089002 0.271832 0.28862393 -0.52107435 -0.35848677 0.19427662 -0.6313012 0.2863303 -0.07205231 -0.3240148 0.30239165 0.4253168 -0.26591155 -0.0079808505 0.74746144 -0.035436105 0.121185444 0.050916273 0.20013395 -0.254245 0.73618764 -0.42608756 -0.12356197 0.14877917 -0.3204239
68 0.49224558 -0.7875535 0.5440927 -0.05483202 0.091976196 -0.81586456 0.5650216 0.0070261615 -0.7864041 -0.056732304 0.522496 -0.84428805 -0.54181653 -0.35060555 0.6282419 0.5939102 0.3870848 -0.16803539 0.15059732 0.41285616 0.3146995 0.9929572 0.34194964 -0.6550491 -0.44988814 0.45952722 -0.64365876 0.024118936 0.06643582 -0.121997565 -0.4909521 0.13349041 -0.228802 -0.14789945 -0.64143026 -0.50697017 -0.09879026 -0.084778674 0.5305746 0.088444635 0.0047471267 -0.4164529 0.032810688 -0.56863534 0.14938591 -0.58931774 0.59751755 -0.53324366 0.18587117 0.4951911 0.28457752 -0.36832473 0.7375452 0.41138378 0.3240522 0.94502425 0.556103 -0.020522228 -0.28142014 0.7760847 0.34574676 -0.43616825 0.01522698 0.08436577
39 0.21124941 -0.2721023 0.6361053 -0.27995992 0.10628745 -0.25063026 -0.14987226 -0.11670869 -0.47390088 -0.2535615 0.29118678 -0.82587886 -0.59655404 -0.46128985 -0.5233636 0.4513657 0.7174749 -0.2870748 0.21159582 0.6224591 0.9043013 0.9342852 0.9880477 -0.72539127 -0.19413269 0.48551875 -1.1842818 -0.4208292 -0.0995216 -0.13834268 0.08223255 0.09782422 -0.8462862 -0.09836203 0.096111625 -0.16430727 0.9060644 -0.1221375 0.7990487 0.2790494 0.30560833 0.30637386 -0.59546256 -0.3456064 0.20326963 -0.70465004 0.30939054 -0.07002958 -0.38255817 0.33026174 0.42362627 -0.2777194 0.0062510143 0.76565355 -0.061445437 0.14598471 0.026818754 0.21783634 -0.26810262 0.7640456 -0.46324643 -0.1327434 0.16484107 -0.32159868
51 0.31533253 0.1923407 0.19767106 -0.33910078 0.46162206 -0.71023464 -0.4587682 -0.40251794 -0.45037514 0.13527447 0.19294393 0.44637355 0.40838528 0.06347349 -0.0062909317 -0.55438495 -0.54523253 0.4935954 0.038666386 -0.023517815 0.4843 -0.9471961 0.45486864 0.23881456 0.33866587 0.058622733 -0.37536532 -0.12470047 -0.25418726 0.05402616 0.24186979 0.7562282 0.5284141 0.3516466 0.52640015 0.11962898 -0.1597562 0.3396649 -0.47504857 0.28769314 0.2136483 0.6377844 -0.17727697 -0.32089582 -0.81913596 -0.33172172 -0.36068413 -0.032449014 -0.50542223 0.023464791 0.1245144 0.25291932 0.43801555 -0.78316927 -0.2507827 0.9517396 -0.43119264 -0.5054681 -0.062053777 -0.386281 0.015700066 0.37958068 -0.1668183 0.6029328
46 0.25432828 -0.31084704 0.5993674 -0.28852057 0.114111714 -0.29926682 -0.06605029 -0.1036849 -0.46291122 -0.26212028 0.34047326 -0.83783054 -0.58780915 -0.43833494 -0.40974596 0.48303834 0.68779236 -0.2820014 0.1898726 0.590144 0.8048801 0.9529367 0.92383903 -0.7162365 -0.22090426 0.47850347 -1.1517605 -0.36668342 -0.09821536 -0.15731853 0.021425087 0.12109529 -0.79559535 -0.11963584 0.05281193 -0.21630292 0.8261009 -0.120108366 0.7835923 0.27211326 0.25124922 0.2290545 -0.5172468 -0.39302647 0.17696019 -0.68054885 0.31936616 -0.11227467 -0.30996853 0.33207077 0.44461876 -0.2965756 0.08277705 0.7710157 -0.005596264 0.2096463 0.09316569 0.20155112 -0.2962654 0.7925282 -0.3900386 -0.14530352 0.1603247 -0.2813248
76 0.29092076 0.16329968 0.21227466 -0.3404563 0.43511942 -0.7481663 -0.4690645 -0.4308022 -0.450206 0.11694466 0.21786222 0.4171254 0.41423032 0.080027685 0.03327483 -0.54455715 -0.55243236 0.46208528 0.07004607 -0.05994658 0.49367154 -0.9201208 0.44819626 0.2411128 0.34190297 0.10770448 -0.4043744 -0.105372176 -0.23415658 0.025332546 0.22025023 0.75497097 0.50368625 0.3510158 0.5392683 0.11295551 -0.15456052 0.38714677 -0.43762946 0.30694172 0.21903278 0.63874644 -0.16524783 -0.36444384 -0.8351374 -0.34745982 -0.36807784 -0.033470944 -0.47969878 0.026245005 0.12485164 0.23599452 0.45457003 -0.75217974 -0.23510212 0.9656231 -0.43172684 -0.5204816 -0.092887655 -0.3558999 0.053760335 0.41090035 -0.15143703 0.5829544
65 0.36555123 0.15576057 0.19993602 -0.30060026 0.59876907 -0.71532655 -0.3863369 -0.5335282 -0.5030226 0.06863281 0.12371708 0.42985493 0.2592656 0.05930112 -0.08252395 -0.5791179 -0.5517996 0.47674343 0.1371692 0.008706042 0.72019535 -0.9575455 0.44022605 0.24597083 0.25713673 0.068461135 -0.32613066 -0.13427117 -0.28439513 0.103022076 0.31625593 0.74202055 0.7266635 0.33300444 0.46515092 0.0029180243 -0.111523986 0.23622876 -0.5850812 0.24697825 0.26143137 0.5675909 -0.27718943 -0.22475366 -0.8252043 -0.43248627 -0.3164735 -0.08696307 -0.5836257 -0.031597532 0.11911655 0.20881963 0.52707076 -0.86135125 -0.31919387 0.9945911 -0.5637874 -0.43258423 -0.09181122 -0.34071478 -0.04148362 0.47944847 -0.1699382 0.62202686
13 0.19874282 -0.2332626 0.608213 -0.30094835 0.09448134 -0.2518083 -0.21244375 -0.108756855 -0.4457664 -0.25238392 0.30870885 -0.78074986 -0.52168363 -0.4365064 -0.53609604 0.40238848 0.6870992 -0.27163383 0.184505 0.6102617 0.85522467 0.85105443 1.0267949 -0.7340454 -0.13605428 0.45638397 -1.2127377 -0.41743225 -0.11091027 -0.1484734 0.08505995 0.1161485 -0.8805518 -0.093927056 0.18692824 -0.15433894 0.8829966 -0.10136434 0.7904556 0.29681453 0.27348638 0.34610778 -0.56118375 -0.37160417 0.1827157 -0.6459542 0.23449989 -0.03561129 -0.40673468 0.33992139 0.44897178 -0.20699899 -0.036553767 0.7619199 -0.06824599 0.13443172 0.030763924 0.17123811 -0.25125864 0.7238885 -0.4831095 -0.15777995 0.14748725 -0.3308773
47 0.6000295 -0.62451893 0.39113122 0.17218138 0.85402036 -0.59541637 0.21806902 -1.2085818 -1.0655836 -0.50164026 0.03789278 -0.34938738 -1.0506926 -0.37468866 -0.12967494 -0.16596118 -0.17831528 0.07870167 0.76477623 0.6002094 1.7423962 0.13816419 0.40844592 -0.22695665 -0.18840303 0.43957785 -0.4807718 -0.057576735 -0.13054891 0.43894148 0.34752023 0.46779072 0.9895409 -0.3485726 -0.20268479 -0.33797902 0.115031675 -0.5008371 -0.4830472 -0.27902624 0.5278535 -0.442684 -0.6861406 0.40818352 -0.14478056 -0.94485605 -0.053793035 -0.5865508 -0.52219933 -0.14423932 -0.083233066 -0.020456387 0.9015419 -0.40861386 -0.26879552 0.6823911 -0.34226254 -0.15463206 -0.17552988 0.37867868 -0.2587136 0.018830514 -0.33796847 0.3528252
81 0.22339636 -0.29280207 0.5821528 -0.28205988 0.10530749 -0.26843777 -0.10849829 -0.10406825 -0.45445618 -0.25624645 0.30728126 -0.7768362 -0.55746627 -0.45139414 -0.41885102 0.46246946 0.6986952 -0.27389845 0.18222967 0.5910954 0.8219906 0.898525 0.93631756 -0.7041385 -0.19444129 0.4598035 -1.1511945 -0.38875726 -0.101274565 -0.13370319 0.046143636 0.10591107 -0.82127905 -0.10358788 0.086228706 -0.17667957 0.8290364 -0.11116879 0.79416406 0.27093554 0.2701178 0.27189162 -0.5389935 -0.3595736 0.20974742 -0.65750104 0.30633762 -0.089983255 -0.34336585 0.31394225 0.42467856 -0.25871035 0.033023328 0.7425729 -0.0236766 0.17565651 0.07956233 0.20674416 -0.2802863 0.7470191 -0.42608377 -0.16753457 0.15183266 -0.3057871
6 0.5734767 -0.61679435 0.35176983 0.16040856 0.82362676 -0.5510959 0.20088018 -1.1767323 -1.0122561 -0.4966459 0.000653322 -0.3483798 -1.0174043 -0.33774117 -0.12272932 -0.13260637 -0.1610143 0.062521756 0.7579325 0.5728951 1.6783932 0.14995857 0.34090585 -0.20558493 -0.17284796 0.43330362 -0.4015154 -0.06647395 -0.112033986 0.4204091 0.30519354 0.4179919 0.96196365 -0.3348886 -0.21948136 -0.3077041 0.12551968 -0.50018454 -0.47893456 -0.26802066 0.5118917 -0.46548137 -0.6888884 0.4449351 -0.12380992 -0.90347886 -0.06622773 -0.5697229 -0.4675163 -0.15185894 -0.08843293 -0.039390273 0.8314451 -0.39038998 -0.2488524 0.61034733 -0.33381033 -0.14795148 -0.17564674 0.3619317 -0.2420293 0.023312882 -0.30166703 0.33027136
17 0.43829164 -0.16702992 -0.014897887 0.13256852 -0.24393207 -0.3455784 -0.4648886 0.14386454 -0.49087733 0.109646544 0.7130158 -0.10066252 0.23448281 0.06826588 0.22452259 0.035893623 -0.22493857 -0.024608267 -0.041112 0.6881915 -0.061919693 0.062247753 0.61820775 -1.1260406 0.76630557 -0.058842205 -0.9129119 -0.29707238 0.09907146 0.78475565 -0.10959698 -0.08955982 -0.956212 0.19779289 0.47942626 0.21256657 -0.41063172 -0.042470675 0.5012312 -0.23306721 -0.32961416 0.165727 0.26949343 -0.006770489 0.55528665 -0.31416377 -0.42049155 -0.35906872 -0.14552706 0.8213169 0.05286065 1.0477788 0.1760182 -0.13021702 0.5749612 0.54691046 0.84342253 -0.35629845 0.2535754 -0.47752655 -0.2168193 -1.4575988 -0.993644 -0.2969398
48 0.36532778 0.12042305 0.2476267 -0.3236809 0.49979368 -0.7201718 -0.42033598 -0.44220304 -0.51757735 0.10094303 0.19023785 0.36502132 0.28155056 0.025033418 -0.004750907 -0.49429807 -0.49748254 0.47184724 0.10419008 0.032141957 0.6267786 -0.8762113 0.4968218 0.15316391 0.28634474 0.10262831 -0.4055982 -0.1484392 -0.2502413 0.098578595 0.22614633 0.7449285 0.54763883 0.35715565 0.45628932 0.045156438 -0.10633325 0.262705 -0.4676266 0.24454449 0.24333712 0.601363 -0.22884631 -0.29464218 -0.7797627 -0.4292318 -0.30544862 -0.104184285 -0.52904284 0.025600856 0.1421875 0.2366299 0.49433535 -0.77537954 -0.26328668 1.0070877 -0.44056767 -0.44384027 -0.082092315 -0.3186331 -0.0020500927 0.39282 -0.16506848 0.5945899
82 0.17752044 -0.23529607 0.5828372 -0.30024442 0.10229854 -0.22431757 -0.19195169 -0.103178225 -0.42821807 -0.23321664 0.30048817 -0.7183457 -0.51775527 -0.40380797 -0.475349 0.38873738 0.65920097 -0.2291132 0.1692732 0.5857471 0.8009299 0.81381446 0.9531042 -0.6857612 -0.14679845 0.4187773 -1.1327618 -0.38382968 -0.08901816 -0.123516954 0.07780854 0.13102986 -0.8364498 -0.08726921 0.17964694 -0.121180594 0.83330834 -0.091455355 0.7730504 0.28476653 0.28788006 0.3225312 -0.53983474 -0.34684828 0.16917102 -0.6203615 0.22766176 -0.037514627 -0.37726834 0.3220196 0.4082172 -0.19519608 -0.021737743 0.71832436 -0.06998785 0.11311992 0.032706596 0.17167766 -0.22844383 0.6810109 -0.45941934 -0.122679934 0.13942662 -0.32372075
36 0.4855856 -0.24647154 -0.058786284 0.1949315 -0.21585579 -0.27983478 -0.43644586 0.1420355 -0.5072424 0.05117954 0.7057985 -0.17432976 0.09256883 0.07507523 0.17859662 0.09970438 -0.20427711 -0.065679416 -0.029635306 0.774487 0.050338272 0.17555112 0.63684154 -1.2275336 0.7188462 -0.027168019 -0.91684896 -0.30372247 0.1228234 0.9072346 -0.108718805 -0.16479665 -0.9628072 0.16052267 0.40130636 0.12930945 -0.38574618 -0.15064867 0.4938886 -0.33489576 -0.32770494 0.09716063 0.23556747 0.08336364 0.6914781 -0.351629 -0.39360312 -0.4347626 -0.16450852 0.82489926 0.050890587 1.0550649 0.18608573 -0.09271322 0.59557915 0.5181038 0.9032804 -0.29307422 0.27072817 -0.424455 -0.27713564 -1.5644265 -1.0651182 -0.34571692
8 0.54977256 -0.5952794 0.36410537 0.17817506 0.79270977 -0.5058506 0.20325243 -1.1090945 -0.95406437 -0.47360006 -0.0067038657 -0.3353244 -0.9943372 -0.34342346 -0.12294134 -0.105351694 -0.12597574 0.051851988 0.72410166 0.5522052 1.6087168 0.15677014 0.34295 -0.19908366 -0.20578153 0.42623767 -0.39465702 -0.043606747 -0.11394899 0.4037628 0.2910389 0.38222224 0.8957442 -0.34422988 -0.20995836 -0.29061705 0.1366025 -0.50304645 -0.45947078 -0.27017742 0.48454425 -0.46033472 -0.63160944 0.42048457 -0.111022994 -0.82741565 -0.030842017 -0.54812545 -0.4464047 -0.16270511 -0.09727551 -0.04164132 0.8203546 -0.3501203 -0.22557221 0.5775849 -0.3049951 -0.115258664 -0.16962197 0.3438527 -0.21906762 -0.002653657 -0.27900717 0.32670403
23 0.5251488 -0.27370474 -0.08960847 0.2292897 -0.22127198 -0.22953135 -0.4688179 0.10729216 -0.5544678 0.04571314 0.6869819 -0.20200206 0.062692806 0.08573426 0.17717646 0.09530886 -0.21845506 -0.100756004 0.00084491767 0.8390083 0.103716165 0.1872525 0.6761501 -1.3192834 0.7763385 -0.04252639 -0.9443553 -0.3184282 0.12988102 1.0486856 -0.0664014 -0.24959461 -0.9491562 0.18332264 0.38750917 0.14272478 -0.39316717 -0.21947818 0.49125344 -0.4346424 -0.38633654 0.03258697 0.2065306 0.19523609 0.8110442 -0.41302055 -0.41608703 -0.4922409 -0.2079034 0.825031 0.02777939 1.1075882 0.18499449 -0.115468964 0.59513205 0.4689843 0.9487359 -0.29294795 0.34607473 -0.4734813 -0.3429545 -1.68019 -1.1816483 -0.4006683
20 0.55029047 -0.30797386 -0.07551038 0.31079987 -0.10813383 -0.114676364 -0.36803022 0.032078292 -0.52303725 -0.012689866 0.55969805 -0.2655663 -0.13420525 0.031471446 0.12325432 0.13368845 -0.15343282 -0.15545513 0.05965651 0.8276844 0.25220543 0.30034825 0.611803 -1.3145155 0.63705736 -0.040802386 -0.8096368 -0.26205462 0.09923615 1.0888356 -0.038959812 -0.3565198 -0.79412496 0.1319889 0.22170115 0.023774642 -0.31886575 -0.3849672 0.4172781 -0.5225491 -0.36764094 -0.12025873 0.10555378 0.30204225 0.8806539 -0.45227835 -0.30350345 -0.53634256 -0.24536538 0.6980764 0.024204394 0.95913684 0.16752434 -0.13767476 0.5373741 0.36096105 0.8572748 -0.15357773 0.33456063 -0.39865702 -0.3664669 -1.5522963 -1.1351445 -0.44961178
22 0.31240612 -0.17343836 0.0016638226 0.13804342 -0.032629807 -0.16350907 -0.22386527 -0.00066412555 -0.35325062 0.014440861 0.36818025 -0.16389959 -0.0437529 0.02425647 0.0722133 0.07129374 -0.10337601 -0.035870582 0.04476015 0.47630584 0.15671925 0.11667373 0.40690488 -0.7342271 0.3813937 0.016393296 -0.5306291 -0.17014433 0.05260352 0.5639978 -0.011647193 -0.124628544 -0.47197074 0.09491774 0.15237294 0.0077516884 -0.18178697 -0.147052 0.22267158 -0.25182673 -0.19387427 -0.008054641 0.04716677 0.122645035 0.42420036 -0.27660975 -0.19917348 -0.2814589 -0.15161479 0.41159773 0.017907454 0.5513397 0.1666906 -0.07681602 0.28660113 0.29133242 0.45657435 -0.12635617 0.13678817 -0.20188384 -0.18592447 -0.8560219 -0.65431947 -0.18523826
